encog,BasicNetwork,java,3.2.0,1,1397172011167
[BASIC]
[BASIC:PARAMS]
[BASIC:NETWORK]
beginTraining=0
connectionLimit=0
contextTargetOffset=0,0,0,0,0
contextTargetSize=0,0,0,0,0
endTraining=4
hasContext=f
inputCount=28
layerCounts=4,33,33,33,29
layerFeedCounts=4,32,32,32,28
layerContextCount=0,0,0,0,0
layerIndex=0,4,37,70,103
output=0.6229002263,0,0.220582698,0.164190111,1,0,1,1,0,1,1,1,0,0.9983450799,0,1,0,0,0,1,0,0,1,0,0,0,1,0,1,0,0,0,1,1,0,0,1,0,1,0,0,1,1,0,1,1,1,0,0,1,1,0,0,1,0,1,0,1,1,0,0,0,1,0,1,1,0,1,1,1,0,1,0,1,1,0,0,1,0,1,0,0,1,1,1,1,0,0,0,0,0,0,0,0,0,0,0,0,0,0,0,0,1,0,1,0,1,0,0,1,1,1,0,1,1,1,1,1,1,0,0,0,0,0,0,1,0,1,0,1,1,1
outputCount=4
weightIndex=0,132,1188,2244,3172
weights=##0
##double#3172
   0.1081103996,0.6675129793,0.1370233095,0.0186879317,-0.1258726096,0.1075629346,0.2121986936,0.006124499,-0.0310987604,0.5241851205,-0.4482431626,0.0030185392,0.5960210222,-0.9816682477,0.2064430857,-0.0969709839,-1.4388113734,0.2823637719,0.0056978733,-0.8620662914,-0.3962598079,0.3015188932,0.2462029973,-1.2816931622,-0.8695719312,-1.4213311343,0.8216056101,-0.3635372369,0.2961909499,0.4060402179,0.0311370955,0.8205525151,-0.601756515,-753.814122211,-27.3231856079,-1.1083102719,0.056387818,977.2173160416,-2734.6089383957,-75.6363977424,36.7019519492,4.4022555611,-1302.5411293775,-1390.5015547345,-1438.5849666836,19.1843768885,-1.5151416094,12.55473313,-16.5755335103,-8657.2833730874,-1213.6052279861,-204.3696997693,-52.9817847816,10.4515647077,0.8856527327,-286.1210439136,175.5028244202,-22.449184535,-79.758631303,-541.7424493428,229.4990633796,18.9634458259,-1087.8780174395,-9789.6000765217,-158.1601091557,-1.4935826769,-0.2594034945,-0.1714728913,-0.177056632,-0.0736506052,-0.474248296,0.2959895089,0.0520064953,-0.2228932506,-0.1777351006,-0.6888561748,-0.2353301351,-0.1113114012,-0.3374641886,-0.1906223186,-0.2376149088,0.0670466743,-0.1477197057,-0.3494297774,0.1537174335,0.3576793583,0.564075594,0.1736377246,0.5002378646,-0.1503647408,0.0676084399,1.2291770658,0.9828367078,0.1396392697,-0.6955507966,-0.2294176269,-0.6992946585,-1.0457555635,0.0581196439,-0.1610891386,-0.309287664,-0.6380904203,-0.3706856869,0.6417569254,0.0011245877,-1.2571358833,-0.1347226359,0.1612533324,-0.0253327446,0.3668136637,0.2411321307,-0.1687033772,0.3254831044,0.0266521865,-0.0755637283,1.2300988375,0.1020030644,0.1896928343,0.4626433172,0.1561792149,-0.1355852832,-0.188856317,0.9032658591,0.2678056584,-0.023799993,-0.778442142,0.1388474423,0.4230919793,-0.5506567069,0.604607418,-0.5801399874,0.6518679357,-12292.4077527913,296.0917826477,1218.4478264827,-17976.2609085286,-1.2438338039,-291.3805294905,1070.3136436268,8406.8596772698,10637.1496782692,4704.3319454903,4390.9962305823,4231.2055863764,2405.3755659109,16002.5893193772,-4998.627002465,9258.1771500764,-7552.4811392743,-10417.8629084617,10668.3972404643,-28340.2376433236,-4467.8066403148,217.6610909147,2859.1421736514,1785.6683092676,-5004.0634965471,16030.1746438483,2955.9607615753,-105.151265797,-598.6307426719,-1758.3294309748,1604.7830190727,6885.3951651149,-2.7583451006,7.7899291594,88.4598985395,6034.0104317395,-1332.4747180589,756.5839499365,6016.1413024935,-535.7415060639,2433.4256027571,-3288.5618399331,-3476.6950748996,-9746.9934265885,1620.5680478308,-2489.799221504,-5388.3547432658,1251.3829043635,19934.9617758415,-318.2845178706,11987.819614123,-4363.8555099312,6722.6214253694,-1601.5158802561,-3.9173872461,188.245869594,14838.2571716014,3321.9093715729,-12121.7837757004,-4441.6229077321,-703.9177980253,690.1818865478,-20.412313672,-1586.5938626152,-2402.338282515,-2.7150796381,41244.3024776293,14933.5531614041,14075.4334011482,23395.1779515135,137.4043125286,4342.0862984706,-12422.6891481365,6986.9748643905,10641.0185813867,9712.2397519217,20953.8032469341,25220.0345193145,23130.7748986992,41275.5545683036,26828.6472692641,-11011.6083869426,18893.1653104868,-6041.2979231273,16029.8405757601,19374.2064905246,17984.5741274042,0.8469397255,-11844.4174183292,12393.2080832355,-2974.9593392254,42207.8300559007,26949.0892079642,21732.0491836206,-5193.3538510234,-13599.9084365455,-265.1055238574,17440.4652902756,-0.3096195801,27735.408960297,4217.5358837225,-6088.4213986788,17838.7636531849,3415.6993323224,7713.8470306215,21969.4044108613,13195.9369666962,14533.7013158872,3135.3739338525,23128.0555113505,7743.0234805211,-6831.601757932,5617.5812103969,8350.8402876994,-5629.1177753705,11694.1950817978,-7589.3607420567,24010.4348401238,-44072.4235475803,40976.8785623155,1809.0853680752,-11068.1668910665,3587.3586781786,-3717.8335465629,9783.3165494322,8535.0586249302,-3793.2045933961,5821.3790582116,-16612.3494342524,942.0787524591,-1474.0424207974,-0.2751273798,3085.9846570271,-18.2260901817,-3083.1154331776,10119.7190466048,1271.119025195,5661.4541110036,-4821.0913006612,2120.964762547,-7122.0629719734,-4877.7756413978,667.1712378008,7046.6354280656,-4179.4008294301,-10722.7070629088,5886.5417002835,12676.7078389399,2729.718460771,-1126.5395143154,5142.4525815262,20369.6382037954,5239.9279224455,-0.3972468868,-3160.0811874403,-8573.5078134475,1120.6448096673,-3483.0520342291,6729.8200057209,-14903.6151065894,11644.3954641453,-5405.5334906409,-104.225925532,-6177.9471072188,-1.701761647,-13350.2558479026,5838.3901831697,-740.6708722324,-6210.6086723077,221.6563565763,7722.621881923,218.1556124632,-1663.5435351183,4156.4832563397,4612.5774430546,-23703.4083441092,238.7492995973,-503.4993678173,10301.6491731454,-12471.2841934794,-2010.1437256093,1872.0686073827,5366.584458029,-4854.4701021038,-29007.042166625,-2661.677189564,1.6571341516,784.8139898503,-967.1281007462,-496.8766445367,14099.1139801566,7459.7869339856,3319.8254876093,-5150.8662200752,-1108.338882923,150.9834784258,1853.5850296964,-0.5565694285,-7372.2984458591,1454.4230689824,-12148.9447067414,4201.9770289592,9448.2131034965,23184.1464777153,23.986078351,2698.8333436804,2633.0986673703,-1599.7437661748,-11491.840674798,6472.8496714581,-3925.950363327,1167.5760715456,9996.252741446,12490.8591941431,24656.9625158027,4383.1382313089,8829.6998840789,34910.161998689,39922.110861733,-0.084312614,-4849.5273523354,-9713.3742085287,-4404.3254565493,-5153.3225371781,3034.8701266319,-4781.3728319823,8594.8829245815,6235.9495851681,2706.2237946683,8497.1805665447,0.339162858,8488.7905305118,657.6488922406,-303.0281758146,612.3430255497,-104.2014555353,8092.5249613261,896.5292527118,760.3093287378,2737.3513981991,8446.5366203857,20733.0913962448,5537.7506687032,1015.3411438838,27517.8112853147,-2182.8859405543,-21497.2468384987,14318.3656903624,1135.1245662981,8201.1979816857,22956.6042174329,16863.5025022011,0.4142688248,-2187.5251773335,-4756.9770281081,-48.8388946155,20326.4485302378,4437.9556964706,-2880.0590544771,422.2636988796,-179.7511513873,-552.3118675524,5754.8857763912,-1.9191450254,24952.8841551688,231.004058008,17199.3183178355,-18364.7631272127,-46.0262361184,-2527.4344073276,8493.2171887689,290.3794050074,-5372.1866210635,11446.6715176973,11015.6622027378,13561.2054897252,-6285.645367731,264.8354265956,4217.4312425409,5667.2091946249,-670.4314511359,-16395.9213853961,-163.5740839407,-9360.1245445498,-16738.4407375014,-0.4132562936,-19789.6214302239,-10162.7252181057,-6513.5053955217,13709.8362841192,28344.0651118075,-4204.7958773254,862.1125181056,-2825.4364878272,0.9162587966,-3251.5670082292,-1.9593332882,869.5666142526,48.6379308723,4138.2042136039,-4470.9197113689,-41.1883269844,1915.224101076,2100.5834872928,-0.6132958475,-190.9542824318,-4561.0788651355,2910.5288543526,-2766.6240338062,124.3117785621,3198.593159624,2407.8974893757,7071.7186177355,-695.1158837696,-3135.1504271179,-156.6848145757,-9411.2239969988,-3227.1778243555,-0.3091036098,5945.3145353841,2112.5350544172,-1694.6915165302,1458.9144192279,-2388.9194994621,-2304.4818990132,5931.692068665,-1621.8620200935,71.8886298954,-1563.2460301273,-2.0094158012,-2521.8677379277,3.6099647214,-5454.1241048236,-2770.120611744,105.6643596185,3978.1388144371,-1555.0847523632,1260.9074736233,-4180.6664041327,-3859.3718104307,-7240.4560589931,-1536.8917377318,0.1024306107,-1345.5775882165,-1837.6674564881,7905.2716878858,-4699.1847098941,3736.1807865398,-10407.6040375668,5667.0639412654,-5783.8947440669,-5.1965131733,-382.7226845589,2196.1197549798,563.7029178216,3649.0957076913,-2323.2656533369,7980.7184418085,-511.5224480713,-1862.7274030753,13.3159120576,5631.0683939761,0.674658523,-9171.674116364,5209.3334935061,-71.1007210603,-9859.1467973585,-285.1085963306,6787.6672958642,-98.1668608064,69.9527610126,936.0031023581,1807.2121608908,-3228.4756387816,-1152.4750747769,1481.1966767902,10426.3705769511,-5478.7717021225,-6671.9180150982,9480.4997867489,1477.6674407267,-1.5751756235,8997.0502007917,-16130.3442408582,10.1858052491,-608.6691387898,7408.1424958812,-2453.7222136859,2821.7322104178,-238.5450004226,-3774.3897888641,-2682.1588211175,-2093.8616260815,62.4699539486,-2719.839396943,1.395809461,10102.4261768898,0.2365710201,-1882.8483577637,9305.450017444,-546.574592343,-4014.9851416853,8083.6449656278,0.8050903892,-6759.5029972031,-1029.8820313205,-11078.5345330306,-4177.5245725298,2080.8852822617,2773.4404628301,4547.9366887479,15973.5255362161,-6886.6560799326,1828.5670012895,2357.2762173777,13513.9852854679,7609.3018956972,1.7191192869,2543.2217362376,4386.2899053402,1916.6720468313,-1280.610495117,10283.6490007125,9267.2037793336,-7108.5539614925,8335.872116941,-753.5685574215,-4740.623237024,0.5906240615,-44788.2102966382,-765.2100370971,14208.2084501776,-8714.5232977246,-2795.3896213409,-6128.2464371242,-2062.9486058093,-13188.1949433158,-13301.2713880925,-10482.5539590288,40266.9779600636,3751.9773091319,-3741.0079972629,3038.2222077576,-4461.6541631684,4590.6984687877,-15920.8676714805,8588.651396257,-11659.6286274405,24830.743802268,-35195.9093500362,4.7924112336,3530.454414806,28777.1665724927,5061.6884480797,10490.2437798547,-23945.6003899304,1272.7848396391,91.1218722179,10230.6824390664,-792.0435463581,-10112.8886782448,-0.217130594,21845.7275901143,2178.5071805661,3302.5171151721,11979.8252093216,1168.6702477558,661.6758893551,-1227.7221969148,2628.1203761901,-962.3966926508,-3582.1124128614,-12462.9138266636,7935.3008217311,-1639.855449511,-492.5509980151,5025.3996078145,-2233.841833737,-6029.2030793498,-8532.8734359858,315.2324729014,-9238.0330009332,-14176.6422447832,-2.9850020376,-8368.8279693013,-7989.2821423505,-2162.3778489636,4447.5837162113,18707.0011794055,-2304.3555919227,2091.4198961307,-11669.7684840283,-1192.6834787758,-5272.5940292092,-2.0117173218,-3440.4707579576,2131.9360591099,11204.0779364443,-20286.5241044545,7197.9966252858,6682.9156428659,-1627.4916546239,7006.1312312968,7509.4098851946,7455.0485984425,19666.305248513,14351.232286951,1340.7929531808,14710.7510402092,-17753.1298783055,-5582.1306174686,75.2329751262,-1672.7680441693,7228.1889568007,7944.8004810574,13827.9072614198,-15.546234671,-3660.7354363236,-10317.0346951238,-2163.6522077923,9090.7569083199,-6174.9904459446,-5227.0694660744,6534.3808336876,-320.6491713896,2991.256664154,7027.2049922664,-0.6623023871,-4385.695095243,-647.758014547,-1259.2869298629,5804.266633018,754.7141999372,-873.5348620836,-2538.5589031434,-3.327670722,-92.4244759202,163.5005432369,-3421.0157538292,-6060.287066744,2310.7951437566,-5150.0475917886,-4568.2409489847,-2342.8505703304,-1185.5744136925,173.8937943991,-4911.4697947637,6050.9935612368,-8612.4370969313,422.5503260603,2861.2663945596,2697.1706816976,2201.4111660382,4720.610549329,-1425.7486728197,2852.0274956901,103.3913071534,1165.2934915005,759.1493980804,1208.6087669576,0.7500481225,754.2274123377,2.4952487354,6451.7464372823,-1164.9808444382,-1206.3184747712,-2121.669210715,49.9394405667,-73.5295757454,296.0662456019,-2671.0891712209,-10394.8735338003,-13641.5830100931,-33.1178452569,-2211.4302634694,-5907.8655090097,-4838.5574730204,-3331.0420669138,-4437.5211088905,785.087734173,-38763.306110837,-5794.383116862,0.6002912821,4310.9351854499,14217.1142854404,-1368.7260009838,-178.6092538934,-326.3374123887,11628.6505441581,-2165.9056754358,4182.3721809561,-3.4586117666,-3047.4494308116,-1.5071665904,-17130.5830144765,3180.4936255109,-8242.8002389035,8234.3570724105,1888.4790222576,7677.5343549726,-14029.1645863473,5838.2396499056,13476.0876923148,6469.763494416,-31297.6392608153,-16341.3942668912,8595.0741065871,17854.4657810914,-21033.490904327,-1690.548254468,26484.897869691,2192.3526573469,-2809.5798044424,7611.2146287435,16449.2382722401,-0.3008341635,-11270.1082160029,-8646.1291015004,8.1951988126,-822.006696696,-9373.0120113554,-4237.5087200788,15400.0004077309,-13392.162894724,1179.7917657479,10278.3647116113,0.3601919192,9312.8359670828,1863.9001317912,11292.3838580894,36252.2591124974,8128.8559395516,-1460.8823102311,18425.8462765964,6656.9721153882,2556.4782175017,5531.9678026278,-47442.6932825893,976.0997027982,-7527.2619407473,-17415.300391188,-17720.9454940474,7158.8535329633,-171.8454721591,1935.8338645472,6053.1367990832,-42191.5026767986,1665.1718036801,0.3612017336,-17533.4320829884,-20562.8873226458,-1727.6139424785,-17925.5983581463,19358.6607452452,2882.8878193663,-2879.2726441987,6497.2819666618,-5.0980676424,-9897.0236402948,-0.258685809,-5990.1540649788,-5526.9484899135,-7453.1420353415,9399.3862726923,65.8785176007,-3832.6691761518,-8517.2842596187,2108.1046143162,-10181.7181140641,-882.5973104906,28827.4969935047,11571.7095193389,-4430.879212011,-8961.5080903478,10592.5545322871,13445.6550713735,-10546.4043615472,9097.2114776948,-1567.8286359693,27695.9720991905,-1969.0330688081,-0.4954726704,8679.9491328178,4078.3659935233,-1113.4408135444,-5342.9735287801,-7848.8898050886,3362.3342207077,-689.1820201117,11124.604395249,-1049.0427593999,4327.3826083597,-1.7768597232,41976.168600242,1408.4855387074,22313.985705355,-12473.6322030843,710.269621103,-5386.9059666505,27249.4783268954,1261.6541852644,-1698.9209649512,1043.0872136525,-15932.9792352624,17736.5915486172,-3228.3946076633,-16517.9288937522,-3152.8112309122,6848.0596701628,-6376.813101486,-7396.2121281186,-1186.3004034502,-30714.2899419552,-34085.715775844,0.9025437589,8210.995954704,-9005.3064416941,-6707.3679996408,-266.3379062465,22155.6533658357,6297.3040565948,-9140.3200830549,9801.6400237473,403.5374419607,-5649.9965412784,-2.0784619109,-11624.5776757729,6061.0805968914,-2455.4355225004,-10242.9670706969,-1140.7263484775,9252.9739003719,1917.391479691,2224.7551680211,6762.9930585501,1447.2000295058,-23438.7903662293,-9754.0424719996,7467.2691787201,18042.2452662623,-10604.3314552371,-12778.5906881953,8627.9661145604,2908.384434847,4063.2430987858,-4164.1831092098,8131.3026163024,3.1867720504,-4495.5683291962,-9699.1539417151,-4319.6383340999,3119.2677619471,4143.1602152905,-2065.2460743345,-150.1250195973,-4523.7182423535,-14.1462006495,16827.9248536615,-2.2684343229,-4621.2909658416,-777.279405063,216.2938348149,-9587.316927298,-8.3812708959,1597.5322083953,2036.7510082913,-339.3799888052,1628.9368430495,-5903.7908818271,10931.2323744608,1069.2666596617,2612.3898240798,-4285.1720859251,3762.5751329988,-12497.296002289,-12467.4024026787,-2458.7183193693,-2227.1180234962,12003.2902620866,-9282.6342393633,0.8170190382,5598.7920649079,2127.1022259401,276.6242074837,-10133.7188435455,-2934.4309308191,-5555.2505694423,1288.0111702679,3577.2329356271,-0.9216851096,-2283.7078034182,-0.7729629041,-26869.393937458,7668.7515897546,-33710.3226250527,57159.7091758578,-223.8980928954,8070.8289568047,-21432.9192664739,3879.4289605782,9847.6420284833,484.1348160804,-30984.410844884,-4523.9569650453,10241.4383085616,9004.4327621772,14516.2730409153,6370.2167967937,22090.8690433928,19913.9053113488,5085.698085676,39652.3006734913,25615.5787396847,3.3453290197,-16736.1737325205,2370.2552703344,7208.8146817283,2622.041482907,-17842.8554661492,1003.2760892571,10192.7057558969,-6775.7623322693,-20.2185246582,7740.5102019501,-1.4613456583,-4024.2038644887,106.7059762938,3660.0011093244,-15509.7921821943,5996.1838734311,-4243.918807694,1859.9578050206,-3197.987355145,1616.0387554322,-5574.926324269,-17629.1016350604,-98.3218175363,426.9207661504,3616.3289115863,6210.7791884902,-10949.2474313063,-13898.212566848,-706.7513392863,-2932.5665843415,-11559.2107767555,-20086.241887546,3.202229865,-3536.5591177127,3954.8452168537,-2121.7324165569,-8281.6545728663,859.7071217143,-40.2061862927,-15.7380917355,-6908.6610822349,2858.9460889792,-3177.1353259117,-0.1471647678,-26433.9912912774,-84.7443849756,-1500.3530910154,-19328.2369814564,503.2840482093,-162.5617707155,-1130.6870544454,1080.5091657382,-3601.0759461587,1457.3188004735,-21253.4938859883,-8229.0737960059,-526.3521713817,46.9293212354,2740.5788648813,-16339.5211998623,-7043.1068771921,-587.1428767028,-1.9538109999,-111.7886260656,-6881.7129423703,-1.1712711453,395.0026682542,5555.0360054604,-6571.4289037255,4040.3122760066,1664.1635425708,3594.6982876024,-8310.7383707718,-4887.853101214,202.8543554143,1570.2217170097,-0.1864163478,7425.8741411361,-3177.2863563203,-1311.8131514381,5140.8837017714,-2261.4661009849,-3794.5191775665,-2016.6344734666,-8593.9451854761,211.8050001754,-5835.1648431755,31755.9342798246,6945.1566604952,7689.7329723708,11805.9991837196,2558.6752716238,2204.1197818511,-10782.111923302,-563.085508478,-3296.4460672193,3862.8472273524,-13345.7220922484,-0.0956490745,8495.0625428969,3209.618655304,2283.061794229,784.7945758886,-2421.6370549216,-4707.9635471934,2020.3125413788,1706.9691587446,-4.8826235409,-6060.9582285751,-2.0136674435,-11109.8108305786,-6.4149853674,-6984.1770353095,-12662.9507436116,2066.1569475277,1236.85555526,-5614.2354177247,2.8088586166,3087.0847207478,29.2783737421,25617.6051635063,9831.5697920785,436.6786188751,12123.5868678042,-11694.9524242687,-33870.7359266646,-3771.8403124114,-20625.6199773564,-895.4123213814,-9767.8356799556,-8502.7336911335,0.7978124863,3690.6299436575,-7604.7797013598,-4219.1592832479,19907.8536962722,13116.1277730951,-13236.8618420424,2583.4176041428,-7706.9258396255,-28.4191808551,5595.0795553129,-0.4123118108,7724.4322634633,-1.846553282,3441.3599943031,-10240.3002728522,-1804.0969199654,8116.0037589133,-102.3199985027,-1163.1956525568,15659.5731361522,7861.4985181289,6175.146663533,-1511.8176680576,2106.0933908449,18729.2953545482,-13424.0780632281,-10677.3728663405,21143.9387343968,-6597.6772405904,8250.2449003185,-15512.8282320608,3519.9632110371,12.9883621924,-2151.0441456783,5559.446892089,-10.0001706257,19365.379027618,2546.3299715008,1529.5451791385,-3910.1729680071,-109.5514272434,2517.1457159505,10219.1629900486,-2.0506593797,-7422.6687218449,66.461412682,2815.9967658777,-12070.9880315044,320.4281038023,-395.8988129546,-806.5342657635,68.92168005,-560.909466097,-422.5045209177,-24023.6375335136,-8510.8958975592,-35.5137137984,-3291.8874974088,-10093.4536744012,-7390.9643373626,3574.7097189202,8518.8953938787,-4717.0309255629,5407.4715081935,-2865.8994668269,0.414522534,-1404.0107668666,4107.2467067185,-3601.304484664,425.6826296098,-2947.0479528497,1866.3587621601,1665.0932390046,-8563.5410852617,22.6241339876,-3661.0467800333,0.0590259257,-8287.7606245504,-22.8434510937,727.5031449739,-15510.1906566431,-4500.6252873794,3940.6115462892,3137.1108651592,267.3160409271,2295.3914987068,-256.954100913,16417.0761872075,9683.3166428375,123.714912957,4090.3715067336,-3948.1517534724,-8977.8225237861,-5296.4276195514,-5076.8433871316,5055.4708285786,-26259.6423976066,-21572.0025111906,-0.7579374889,11208.1472331095,8253.5229189048,-4818.5745624856,9448.0596936654,-1297.3623786365,-1067.2358895667,1046.6546141699,694.7435498541,1518.7926786855,390.0405177978,-0.9775380179,-51410.7968930568,-21221.5721554544,-54031.6672318771,-1037.8954786283,-75400.0335721289,11008.8932478716,-22828.9562594202,-1117.4398204685,-47175.6831201616,-9839.5672468019,-54901.5871696954,-102312.0034112483,-3923.7408139911,-68130.1157271713,11850.0308976418,-25220.2376705085,15547.3020426317,3807.0663954182,-76494.1698786614,760.619935976,-4234.2918889625,22209.6889425696,-36955.7912294011,-97492.8242959066,-88952.3599521647,-42596.1740322552,-77836.3115634993,-52091.0219013098,-27191.633443219,-154.2893599322,-83183.4946352817,14868.1565143618,-0.8928471244,42930.1761970611,84587.4961067663,77569.5654216907,61981.0136729913,87932.1234828087,-30477.2662042071,-2115.3903098435,25129.4196405727,-29233.1857075407,16982.0932939684,-26130.490978384,70914.5470963124,51122.347947164,127116.7814663872,13419.8261746602,44131.650502154,-34061.7736134076,-17168.8535261914,71622.0694331346,-33666.6600148301,-29955.6853622038,-8757.0400841348,-33391.8869961921,5370.9252948145,-35406.3825784581,-81632.8854425312,18287.1408884307,122098.8692487369,-49031.1578419203,-11483.9690322416,57764.0028952162,-46344.2240881666,-1.4393570441,60444.2599581839,8547.9030487484,55598.233663829,-12027.4241203086,-29177.8953633289,-3843.3131958681,46967.495587122,5712.4404795893,-5863.7452438415,2943.3603815958,22476.5889473868,687.1616515391,17653.6708960887,-5622.7784432415,5514.4209925536,-28343.0851831183,29605.8133538322,-7881.9309237762,31212.7843202726,-5594.8944645383,-13528.4034211256,23860.80691823,-30427.9170427483,13248.88396848,-38266.7676645198,-38666.0241568324,-17883.5504367916,38810.8446984206,-3038.6186963337,-876.7376214936,20473.1392438538,7906.6578956313,-0.8479377724,-118268.6878614308,-32480.6926843825,-146084.4552589509,16416.3805761177,-46044.7622837206,8922.4825283748,-91118.8913129088,-7345.0037029673,-55859.1991033357,518.0081868806,-83017.6201374116,-153055.8095169927,-3070.9129899722,-107903.1021856028,4455.9095629732,8913.9237720732,-2846.5845118926,10486.2287068883,-146086.4411358306,-3066.7170238985,4850.7737551032,-15698.2185185173,-73134.7683232884,-119477.8395481347,-68038.0241921836,-7168.0154593605,-81810.317953859,-114575.6044800515,-36127.175443472,988.5066151559,-141482.6807353869,5.4136708673,-1.9033179385,-4964.2218795372,29911.1836505342,-2504.3447472865,42123.4327886298,47753.5766490657,-14214.216330787,-6836.8737781824,4773.3488156968,1131.3695624055,13059.3593841645,-7797.3037696879,2465.6904423933,37618.6722508418,50783.2675745292,18584.6172067092,38168.5219703786,-14887.6112483484,5958.0852823354,2218.4207445721,-21811.7257750121,-27463.9665180906,29842.2021051772,-10342.0023616875,12544.1536529259,-609.0996290977,652.7372581757,5150.7746832803,45142.0612246387,-17170.412213749,-10114.0338877346,-878.0405382193,-17662.1831757812,0.8913233316,-8323.9223399913,48930.3304563526,29648.6879189916,50265.2122504899,32006.5143713655,-164.4492920981,9104.7524066657,-7005.7946861653,-19383.3389281522,9226.9318996863,-30113.0015791156,36258.9304469291,31994.0809295475,62288.5547558388,7068.6715853648,64811.5881479328,-10091.7193072293,-9865.6153296605,31338.751772119,-18973.8094720699,-14792.236293587,-4967.8484689794,-16959.2048337975,1970.1408328095,-47504.5387610161,-41012.0951766648,8725.5457857482,24163.414675313,-17371.1029010792,-11012.1676573033,22699.0864027803,-30850.351894482,-1.4516184578,15499.4345853718,-51198.1648962148,32819.0028183845,-52360.3860140726,-49134.3105153023,20622.9484303135,-18137.6810677017,-7776.5777051867,19884.806548318,-15538.8770689459,45896.7971708924,-53102.3363359532,-15353.3558292667,-86564.1764933837,4837.4418890496,-74233.3651685014,47876.3484172256,32620.0537187372,-29945.646737809,51820.162032791,36746.708740775,15213.4325990037,-36479.8120470255,20956.9258585812,-12270.9154474238,21636.9809858602,-31548.4176120543,3889.1453100157,8489.2350847442,28766.4941280795,-6492.0252760337,46391.5329000574,-1.0784300427,44389.9209133644,65690.6322501627,81914.578153187,62703.1696550354,78205.6597998107,-26948.6404551654,8481.4136829477,26019.9350678233,-27910.2072121711,25339.9412066924,9114.7396255689,71767.9912709441,38725.1291912902,101888.4431100822,12498.1913958797,70355.8941818674,3436.3005590927,-30337.7333040411,66867.8914403226,-41035.7817114033,-31584.0276012888,-5553.6608935383,-35362.4176182211,31226.122126722,-56075.3950154138,-66879.9863008542,16314.2439896384,72595.0175354929,-28040.1707527553,-24426.4565477046,67368.7079502866,-65791.4472897236,1.3655383424,51056.3979290816,61417.2528881213,60154.9103118542,62642.05373093,78541.8717069985,-31161.2975210961,11199.6847922979,15203.1014133141,-40153.0106538061,12409.6618171533,-4833.418916991,48124.5118994632,47318.0808965592,99619.7032453565,18195.6910144225,54259.9587777199,-56129.7784531559,-27703.6452381569,51406.9206045462,-48830.2595578406,-27288.0202284554,-3214.5807132771,-17057.5217126132,10674.5957378658,-47421.8621431206,-56438.1711354257,8015.4275732038,84203.8107726979,-64750.6723870578,-20016.5742732724,48620.844831144,-91880.6502537266,-0.2430112588,34218.5932537319,55980.0284843798,73454.4444176457,65710.8629200239,74428.5668889902,-23298.7938443092,760.215005137,13713.5387202928,-42733.1210860359,10691.3630935471,-8927.351399853,59811.0328963414,28359.2447456419,102678.0966731628,7638.4682485744,67803.7426960603,-13350.2385069082,-20411.2793045487,49266.1913068462,-45693.7753478645,-35250.5962119654,-30087.6061455946,-42270.1155986573,31823.6218062974,-78726.091441979,-55756.7336297932,5231.9520620619,65002.2879938815,-49418.5388123492,-17828.7263864466,52748.301792343,-87326.7937178092,-0.9470116373,-22641.5621520529,-53396.6007042554,-23302.7953812553,-20217.2978691601,-50173.0469519748,16355.8347154432,-1763.7261845792,-29358.0684998728,27223.6768245932,-11251.6943187298,17765.2750795139,-49985.3181089249,-36604.0854563057,-69179.8062596935,-7819.8759899793,-30143.0251692535,11604.9210668876,14615.0032311348,-52544.9478839933,10155.9280784333,17897.2133286193,36.6535721884,-3613.2542544417,-16314.2930578829,-15149.7459767518,36657.4879321547,-17930.8986791053,-29740.9957108066,13538.6596506971,4758.5069737038,-48884.9016635883,13114.3314153171,0.1407660022,20823.7438612554,-15282.819587476,25399.4748204838,-27815.0054967428,-38685.3405862064,9810.4609802774,18064.749015945,-7053.47722614,8709.9068108146,-5291.4651692234,-3774.0806241281,-33199.5556661986,-8888.7819403741,-34729.2060112436,687.7926892429,-20455.9181327339,20550.3982785205,1460.1180474496,-17045.4232168765,30592.9847028,28414.0419206657,17845.9107698437,4370.3408625431,-23454.8548015997,-29223.972234065,-15027.2174465264,-12357.8144398247,-9637.777965774,-28029.4271800625,20315.9971690158,117.6941937415,-2213.0537549144,-1.768800615,15328.3824045279,55776.5753248646,16998.6226837516,33977.661330013,42750.3537910033,-20132.5284598926,3061.6751148826,9958.3789620572,-20591.0771465243,5487.3789222028,19787.7833195499,56162.7306972673,33799.8555604061,76180.0228392243,13222.1757537657,44929.6652747787,-34970.8915317471,-6363.9320933035,31539.7274362378,-16624.9710567316,-9830.4367061262,-19647.207008926,-12052.3417221818,-36379.4616493676,3034.0080275433,-44061.5653715055,22155.2448208392,40098.4355639209,-18623.4400051056,-4909.5200869462,13983.7024277065,-29083.3359082021,-2.0153887726,32149.7403933983,65774.1600333534,34865.1305480944,26017.9999901015,54703.1773169082,-15651.1057120975,-4913.79364596,-16614.3194684486,-16835.3790079215,-4600.2201337683,17576.3919340371,56317.0928079412,18411.4805924647,100599.0092520337,10252.2004352674,29310.4645229465,-62845.4305070344,-12908.7775773594,47761.3493851458,-17388.3795090534,-11705.5976980001,-21863.7858788709,-27747.5513422099,-7783.4591184345,-10592.9221986584,-44495.0615693238,15295.1153349225,58876.5717650027,-35795.8723888176,-10353.0327174811,13138.624976083,-77035.9368720732,-2.0603158941,-67827.5609796058,-47915.037844794,-89346.1172537026,-22202.167883665,-40668.4712343396,15804.1969675128,-41427.8890721972,10796.9843020404,-40785.2263490607,-12589.4535815517,-46794.1595591378,-107971.9668103358,-28996.7095074823,-83433.3400060668,8303.5651966123,-35501.357424471,9593.4810200721,7648.5820474452,-107300.5906122248,9541.6571618249,22855.1744369737,-24865.9491912205,-28621.2267020732,-116574.7589170219,-62049.6337464407,-26190.873981185,-85019.465628712,-95891.8523138601,-19911.1561086063,5956.5450895704,-106002.7908660612,12885.5685633859,0.5730784573,-106901.5086093759,-39290.2100118068,-132201.8166835997,14587.6132423411,-60608.7612164205,-1764.301186985,-82146.5822360872,14189.9624768599,-28868.5038916977,696.6190534442,-40091.3052005596,-142300.7054661339,-19215.259875486,-114384.5494383427,-3502.7854133782,-16700.9841373397,30794.0736343988,-4646.4647278111,-132930.9293441039,11317.8444648682,2914.2347882986,-10446.8119931626,-62664.6996042354,-115560.5423048732,-49444.2271167168,-679.8769143734,-66930.2462615043,-137089.1183202467,-28762.4489522682,2247.2134194145,-125429.7706814419,9140.2957319207,0.5203568226,6908.5311636499,43568.9580486726,23186.4044068384,59073.3654505765,40529.4726277744,-10909.5443037527,-3092.8718529495,7230.3719031541,-29398.9428453937,3579.4840430785,-26741.5771170663,8210.8546645623,30431.9555215602,79795.418763504,-4645.5469656409,55945.8775086944,-9755.7884276056,-13739.9109827475,2859.992252071,-34358.8434404362,-31326.7280868848,-7317.198799107,-47448.5068680917,-35306.4647063538,-87319.4783085988,-67401.8767139475,-19928.7538505684,52356.424185003,-45445.0424562778,-22337.9034338569,1923.40034966,-55501.8828873617,-0.5606044584,-90526.2881391981,-14524.830400934,-143367.1251016318,8246.6482692132,-10.4136558204,-3526.5786759836,-69127.7537233819,13242.8216882435,-35109.8521016608,-2785.8887941117,-42417.182837443,-105605.3288859251,-1351.15022423,-62384.5574080813,816.820579509,-3743.4424798414,10084.5647919198,-13786.9217792629,-121272.7617709342,-5105.871059098,-10948.0753151046,-20564.6419754631,-82130.6067835156,-133852.37560968,-15818.8187381645,-11441.0733761924,-64882.3203583631,-115207.3438596706,-2611.3028580229,-15719.6893230399,-128705.3044827046,41308.9511376577,-2.4462718943,7558.0276684838,40202.8524191252,65460.5164664915,57673.4011782347,74520.4228586635,-12860.7906777838,-26751.1268572197,10846.2749111672,-46455.761665106,13576.5668533562,-43850.1741664784,43011.2657353312,20800.7386931915,94920.1017398174,7739.9285232198,76328.0282060035,-19235.1133701657,-7932.8864730151,38657.0121891848,-32313.30731112,-15408.2406055712,-32340.9222666857,-32581.8609235331,5378.7809287866,-82815.7565796529,-74826.2946525256,-7106.2457783898,67745.6530411668,-83259.2331406398,-16017.0378504087,33129.1703286522,-113512.0388491669,-1.6242695556,-83063.3710494827,-26157.6884652238,-105185.5566921742,18247.1465200824,-17480.3202109603,-8757.3114876013,-73116.348984732,-18689.8660705175,-37905.8648000169,6573.1720055138,-42033.8857035089,-118722.2132233725,-26324.5937293864,-80568.8716872823,-2285.200058159,534.7481570923,4730.2107001238,1848.2827853627,-113070.4153896804,10792.3393076947,21145.4535144166,-37352.1431555765,-70032.4881502596,-106436.1030642444,-40338.4836284238,-9424.9613044859,-52758.8379078031,-95046.7678698779,-20725.295843719,796.1173016971,-104054.6220049584,2843.954303017,0.7766814744,-91537.6571447256,4665.0776708688,-86884.8348628164,31253.3200734074,9401.5476168073,-1172.9542874327,-72903.6560115116,7898.6874354566,-79261.6405747498,-2871.2320286506,-83419.122238555,-80756.5842084958,-576.1653522859,2967.8864675698,7947.4261001736,16753.365943193,-19681.0469049585,-4498.1915983621,-107804.73158287,-23841.4522875144,-3855.9962624549,-27563.921625861,-106541.2060567339,-133002.4796610618,-117798.5448475651,-81335.042608426,-92482.9280809562,-79727.840300384,-70390.7533109951,-14325.1421310534,-92717.7977585401,-53286.9980650296,-1.839888116,90491.3311923198,-2489.2599138512,107345.8724739812,-8626.6326622332,11093.8271889167,25396.2670130268,98559.0698002627,24561.5818463419,106265.7076258857,23509.5311135777,63016.696574855,106259.7532333892,26418.7093639041,54522.6824936117,-6419.4546682158,27361.4981885489,827.883197258,16058.8116858688,91484.8485990472,-3215.709169875,16560.6760298679,34673.8275035714,101140.2359068538,91206.2522182818,104612.004644457,82868.5646643552,88435.9932245532,92630.1840776229,35778.0005275168,27226.7841770525,112864.8267104542,67249.876154034,-2.1359624086,-6099.9989733073,-74958.6790836105,-36553.5733294772,-36986.3025885751,-54971.9744361563,15375.0000309297,12270.7402986113,7984.0414242703,26575.071170482,3763.76907031,17835.419008337,-13482.6913112492,-34448.0739398135,-67756.592619398,-4512.307356946,-44168.0712681269,31773.6302143152,16898.4611194992,-39183.2024035613,38364.9097712488,20737.824082567,11350.2038858148,29132.7266281777,-3681.8874454362,20505.2970489155,58854.5424513124,24929.5318679844,-57977.9318213116,37696.5945412568,15086.4674416614,2596.8179872338,55995.156296359,-2.2844725478,-11037.9402216666,-18155.1817137889,-67663.0514476516,-24441.9539995687,-68332.2348350011,12829.9365399103,33597.1805274434,16297.9813694485,15639.2549369007,-2841.8616485928,29507.6454692668,-43521.0326706564,711.8616653605,-66102.2309395978,4990.6275600669,-35130.3083051659,4651.7161580113,8599.2921895129,-43560.9132072952,23948.7234023039,21993.6898284007,41164.9174179316,30532.1098037459,-22844.5597850895,33678.23214345,64716.5627788919,7515.3666216759,-51889.1937547495,77411.5302989069,14495.4971206309,-51321.1673143168,87635.9382265,-1.4857922761,-66319.4189069327,-14958.848558491,-99183.2838051981,6837.2588098053,-42219.6315029646,2542.0964308123,-58378.0584882445,10723.8062140489,-15483.0153607189,3379.9074324594,-24957.6313731619,-118947.0761714843,-14474.4423819374,-93771.7904632173,4485.206056881,-111.8362699325,10390.5192486489,10280.52229697,-109089.476701261,10900.9566766241,9434.4537978493,-26463.687213183,-50174.9594653826,-88744.4959908199,-32616.0733632734,12553.2122330828,-51340.4610083244,-89631.1671627946,3796.8570819726,6003.1435340016,-97894.4110079144,6149.815048978,-0.2624131972,64413.602001565,30693.6382188549,78018.621918851,12013.0850918426,17797.1834318048,2527.5071661817,55071.0647234351,-18016.1337666713,34351.4034905254,-3069.3371479923,13264.7297857932,75107.6355908598,-3241.1849673123,74981.3772028069,460.7373488705,28442.2195940165,-33473.9556641909,-1521.1477387859,83632.3316657611,-10074.4515869788,7432.129326479,16950.4965540359,35090.3577929932,58782.0202327512,19938.2068277382,7768.7572474947,49200.7992744897,102862.7514582486,4024.6359626082,-734.5241868867,85794.7414585224,5058.8537286632,0.9984151677,-11878.3433401856,-52897.9303918467
   15829.4289903845,-32083.7099852496,-48082.6730631249,33788.1799211894,-17749.9092368854,-26646.6787960588,-6598.5657605157,6398.5827100351,-24891.7998948963,-43575.8906168326,-11405.7082983393,-40212.2721423511,13645.3980448405,-21877.5312264521,13402.1496737543,16295.0677435688,-19283.5210168561,32279.1035724667,18188.5499612603,23514.5670022011,-18417.9877036801,-37341.753652003,-44200.0407241882,-46941.9016819464,-33768.0451663751,-3988.4864542807,-23772.3815830363,29804.0075806136,-7759.4082519641,39005.755143833,0.5673796748,-19506.2819560299,9127.0893654136,-50085.1685603204,17503.7238165113,-9746.072606437,-4447.8266115573,-5923.2280063308,10317.6371055435,-35648.819057178,3343.6417848936,-26795.8066505041,-64982.0145416072,-1083.7756108814,-22583.9624956744,6343.0132077174,10708.4162683636,11493.2201607752,-1282.7619182821,-44127.0208132092,-10722.025198478,-16342.278987547,-34654.5935850138,-20453.6281837713,-61389.8480278385,-44545.757817507,-5199.4947977836,-52926.20021554,-18565.8093098954,-5861.0691202903,-2100.4846683376,-55479.5769663425,18295.1348850836,-1.5092623463,-36010.2427484881,-2612.0783609259,-34434.414122365,12366.1617205446,8037.4865856402,21229.2341245565,-6712.4318137322,-18167.8049938449,35514.4341540872,3781.3213947498,14827.7795660206,24489.74252433,16716.1863189357,6137.617307672,6070.5337811637,44777.7107302961,-7679.7554449557,18750.8830569565,-18502.6122787763,-7679.0334070581,-15644.0273484387,25794.0178324198,30664.811312425,63.6555157034,36465.2647650711,53286.6041287708,37271.7197481351,-14007.0172789096,33028.556187565,563.8916785808,2376.6837580676,12147.2302344582,0.9891398841,-14376.3567023464,-27423.4274037104,-23921.7599008152,-2882.6359132558,-50597.8542651829,-7150.996042693,-1982.3906871331,1324.5950897947,25760.9294068288,-9458.2523881748,30684.0335672602,-58022.730055196,-25413.0779435504,-85699.5945101592,11572.3441135888,-10791.8978412667,38645.7112660166,4371.0966148772,-32080.3729506614,27603.8351712247,12006.1417720398,-11601.6200262065,618.5447630132,-14682.6083756844,18751.896318532,34455.2269129209,-23619.3006331013,-31376.1606295471,2657.1421272816,2304.4727850185,-47545.4724728689,4728.4581367525,-0.4218103966,47955.7281094866,28775.1436838881,73803.8523964255,50440.6950175802,50544.3005949559,-25911.1268341952,5015.9790902551,28049.6717848229,-12158.4842402125,18137.1242040968,3929.2540640117,48644.2536557353,6993.060653875,87266.3551756344,10979.7083750103,44164.8141002121,1051.1862091773,-10666.0374499777,45999.6694636155,-13636.0467342947,-7693.1927511732,12374.3404755833,-7878.9820609929,48470.0004918899,-47898.778585991,-43166.8190743574,3419.7159790246,57324.2545793665,-20140.1051629726,-21653.3006888591,57591.0111763282,-26438.5375061867,0.8382703608,15178.812036399,72305.0471893673,54248.5405579863,82327.5225783406,89459.8487074363,-22490.1809145077,-7511.3713472451,-624.2915446579,-34933.6146809566,6280.7023855565,-13622.7919117579,89093.1330814354,16007.1224137716,106919.2453466795,1759.5263245944,68938.6821185066,-31213.8355801896,-21879.4402879178,49385.2122644194,-41533.5174939416,-23117.397189642,-40486.3745604372,-25695.9128532598,25102.2082904091,-47418.5203407608,-53998.0817852142,16576.641243115,51919.563147688,-66882.0727599122,-28088.6003093177,48555.5477372737,-113664.4570355931,-1.7744064227,48511.0702162726,-7973.8600406728,-98140.1196920884,-92682.0444471667,25558.1037873089,-21868.3584330652,-90191.353419567,-3498.2721807004,-16075.4942895559,-89053.3560569896,2.3414424264,0.5371969605,19060.0101252383,2258.6162820389,-5316.4838329602,0.957653451,-42682.0565508755,-62083.3996132131,-63586.8213515188,-20994.0674018158,181112.1315203551,145257.3860286672,25711.896944023,-9734.4344452919,-33989.7507455677,104316.7665596694,43167.0147271626,-14063.8448893553,-0.5367068948,3046.7951016495,-4876.3438793264,-11602.6934645152,-33368.2248860333,-35086.7218343712,-28287.7740462164,-12510.3599750952,-55.8255137663,10874.4901156204,-15525.2313002019,1484.9457551562,-1.4549059375,35057.5932745689,143.4705550981,4132.2504521441,6572.639485307,-10489.4528829921,-9715.2582709586,-47434.2133789936,-71635.7274378311,89725.1265529641,92581.2390566449,55749.373402677,113439.4773969707,3419.3488962162,-3900.4369085965,5327.2736440993,11530.2882485575,-2.3516659404,46427.5537801149,-4401.2587046829,-97984.8998596255,-102706.9173383636,26690.096099371,-26789.4471892771,-95290.379321993,-6111.1407295444,-10077.5691695631,-97310.3370313501,0.4632351548,0.409546884,23038.7205266474,1802.9365984529,-9272.9345629759,-0.168504125,-43054.1838726303,-65637.118535438,-77876.6672913744,-26362.2757262558,196871.9614419858,150570.8570454829,36344.3409173654,11276.9424174027,-33385.1645349106,101082.8861005397,46500.2247925877,-16580.8931840884,-2.0534655526,-33708.0286997798,23724.055040616,79201.5653960655,33570.0486537222,-91294.2835193575,-3334.7553694487,38155.2479573744,5220.9881847934,38037.6725578717,53875.948585118,3785.9771422623,0.0094782369,6993.2126022153,-1292.5393819366,26445.2811981191,972.0599371692,28194.2821677398,30422.1669106525,-4531.4395342291,-92858.1333254454,-94508.4847420505,-17569.2668848372,90465.2123534455,111793.073139711,20116.2570043534,-123071.4880625224,-32061.7592829908,38485.3514620158,-0.1898074656,1318.4748188742,5747.1999923077,-13231.2020767582,-47764.4825183103,-39941.8859722607,-30519.0126522036,-13277.9452633995,330.2565281851,25836.4146880475,-4948.4379229124,323.5117431672,-0.2972960171,37994.6778985954,409.973683181,2554.1492432067,3884.8046793641,-11037.9106216248,-22455.3255060982,-57028.0993016547,-75061.0065074495,91364.2003646458,102392.9667853246,67714.7584201888,140412.7467409742,2575.6606906818,23085.0035667542,4957.4003894666,5955.378382548,-1.8029015438,9818.7270422412,-5712.2951929864,-35561.521782072,-10247.6581909498,62681.4165769709,21965.0976139983,-26196.9420787434,998.6724749007,-39807.240235595,-50071.7585576009,-251.4914445777,-0.7635650732,-8701.2478942421,-2232.2676833578,-8568.3243429736,-2842.3076542755,8495.0719198095,-10481.63531429,16805.9057835512,77266.8159834062,18097.0069249109,-22035.3898360796,-62601.1637585576,-123753.8415150785,-20184.9246930358,44552.4327545221,17160.7750989477,-10857.6494008875,0.1586515673,50543.0578857432,-16653.7723515155,-112694.9713242364,-97142.8290233599,26845.3180580417,-17881.8346279835,-94756.6072690996,-5509.8661016048,-20711.2662637659,-103917.4346536213,-0.0252673829,-0.9119421346,12043.0921910726,3285.132714062,-5081.0703502756,-0.5358024349,-49625.9034019305,-58634.0920673265,-64104.0516574029,-7204.760969582,191837.7075593953,151555.6457929596,20114.2443328051,-23458.6758815194,-31916.9018427107,126130.2422283542,50759.7185952019,-14548.3481729887,-1.4202643372,-24439.2896064468,23722.4936072428,74810.2670071375,35466.8985527538,-47386.0130973933,13017.4206430068,59199.6633890816,402.34831084,38657.8210521193,75400.6626544842,6.1090808505,1.3693684149,-20684.3917088844,-2393.0460977053,8545.7692305531,2738.8628029495,-11055.2788661544,16671.950524848,19149.6641185147,-42262.0329921811,-61639.5915587471,-24132.6004417816,28194.3708461961,71575.2324530875,41497.2566133482,-51624.1797380106,-28015.0156157577,18492.6347083176,2.2307864973,58427.3909378653,-11283.3408129925,-106634.8825321057,-90525.5862851136,33023.4598975419,-20878.0130655266,-105237.2915455107,-7951.6467540134,-15817.4600930427,-105619.4203492593,1.3026267305,-0.1685104378,10974.9819067895,3426.9479549605,-13017.2424763896,0.385541615,-49798.7037375332,-67032.9358569094,-58071.5053695751,10459.5154898519,196796.2485194446,147207.0943225774,3739.8271463555,-38934.4731208246,-42653.5415175542,149181.4591818492,53699.5273594269,-21741.5014110474,-1.4281566341,-26703.7744142948,35539.9364479484,74610.1120204242,10689.8464052961,-76749.89070183,-1866.4100828034,36515.6317593966,428.8903797448,49507.1714266296,83335.292955324,2289.0202994275,2.7879882076,245.524305082,742.4707833498,13275.8096128498,4824.0282821194,-6265.4264099824,19570.0916090944,-14766.6362089237,-90869.1553557325,-71071.3620611218,-16181.8948450025,110040.5314983784,111772.8061660206,32265.4381963762,-71516.8829844795,-28359.6181679124,21750.2480347944,-0.5228644474,65243.576068566,-8644.5729201225,-98775.7709137516,-91825.8864034907,25521.6350200076,-13480.9792915589,-93856.0545580108,-5703.5758642224,-2185.2493412819,-86118.4200997429,5.3671306526,-0.936347986,12177.9808293826,1889.6787048161,-15509.4341672087,0.194476852,-37415.8332317781,-69779.1133485728,-56231.4886842949,5535.2370459418,185440.6928421535,146227.6926872851,13421.7394443531,-37227.2853574526,-27972.2756342315,142124.8616516246,51473.5830308295,-21195.4853123114,-2.2155233249,39990.0233992423,-6228.5331964862,-88975.8902779307,-93819.8666210177,7536.6936825237,-35052.3791363129,-77779.7405366451,-3926.2074038653,-1670.1670926685,-77043.3798669171,4.5361492208,0.0396214762,20961.0436570845,2155.0730493279,-60.6405861087,9.819891516,-34688.5672147724,-63950.3030717781,-77940.9608493508,-50352.1461952897,181568.8777125511,153236.861538326,40329.0767418906,26026.1126067648,-29202.9902119364,93376.8880151427,39486.5307838385,-9095.5757853175,0.3500064075,1258.5471260523,2783.834509579,5223.2740913881,-11875.5363813587,-19700.0085978153,-27194.1257658373,266.2834712546,2590.0475644797,26008.9687332993,1756.7696217791,6.5274561919,0.835705782,31422.0303267108,122.3364555465,9486.7165480137,7801.2027817361,-8409.5589035304,4667.2344307796,-42747.3803728826,-62400.9113923177,67407.5241659606,85198.7564580269,73728.6829602121,94541.4580698213,8862.2739122684,-12818.5847434897,-4141.3944577701,11044.172639894,0.0614789999,4453.7891998172,-2188.7873467818,-39427.6102401704,-62056.7925696661,-12179.441668435,-36893.4142583848,-31923.7232756252,-202.7820677974,14840.842605816,-31517.5291697115,28.5614509848,0.6043368826,39644.9446891304,316.3218626734,1131.3412291216,3419.5106752568,-19758.8028035432,-22568.1842863044,-74475.6628750427,-81215.3904477062,142368.4106562263,126113.6067854588,61997.9521021763,109793.9597009664,-4759.8523986642,28086.1240652747,22049.3924013594,3810.8100154022,-1.6537416181,-58470.3265245863,-9874.4973736421,32994.8496975394,43999.177098339,30602.5445764263,-354.0313327092,28585.2485388066,55.9071845195,-21049.4242432602,13082.2704105523,189.12673916,-0.6200108555,8624.3745611317,6314.8820081206,6207.0884146008,1667.6579266897,45292.4069128792,55707.524718588,16481.1658833266,-14944.1145441237,-60778.6380503102,-39421.7098744524,-9682.7722034315,-23561.6702549723,-8055.7412466726,-83754.9135772123,-23798.3125294124,470.4136105014,-2.5290289541,-40740.5459612052,26715.7518224121,53885.4953893102,-6287.1112395801,-71639.8141974358,-13211.6212954814,20318.928175206,4.7091165834,41099.9264882257,26767.713768382,1664.1529833805,1.1792382593,32900.8107665968,685.807551605,16203.5115381499,9675.14475682,6949.0949550324,16463.650348761,-20487.7892545475,-97853.6860419833,-43680.3848502204,19512.6488169257,98004.5312420771,136872.2895187541,8225.3961570926,-79055.6350012833,-4134.874303425,20187.569152797,-1.6193994991,517.7259757693,-2967.4364912609,8989.1117783246,10744.6658094916,24353.8324972052,29136.0856088732,10830.3327238799,121.6770841575,-4343.8513554377,3193.946562967,-1332.5464625261,-7.7847052657,-54412.352867863,-2694.0858990443,-9978.8844423697,-8098.0100448829,-115.9037480527,1269.1310728324,50851.1597995181,72788.0779015269,-62320.7049507217,-71677.4633929356,-72925.6754240219,-115611.8137277731,-131.9255336868,26571.0921922078,-3212.8450823166,-16664.5164725537,-1.4338174242,15894.034067509,-18475.1428362671,-66287.733975086,-34718.2955600022,92829.214301944,13846.9419042696,-56060.7725400836,-7066.2582849405,-41467.4831430255,-84997.3887346583,-904.8538779486,0.160577577,17128.504622019,-3943.175634529,-15174.415320775,-1393.7473089673,10907.1234090058,-42316.6927103814,-19921.8772903557,88742.5918622992,62841.4453019691,5247.1824012253,-67810.7290313004,-145913.8316300093,-39809.7102034299,81083.9109446298,32429.2296247008,-16116.6962131583,0.6529845302,44292.3106164818,-8797.9845732313,-94641.4138792396,-96099.4230908888,13224.3384506553,-28065.8282691344,-77694.4512205304,-3900.9766253085,-9241.3245048721,-84407.3514664124,1.9347417154,-0.3409932556,22422.1967460434,1717.625865921,-1382.6712583225,2.4974580506,-39929.2956585174,-61505.0583151116,-78140.3990176955,-45225.6782474105,188858.6578111847,147557.5549307316,39921.9169339224,23354.4329544015,-25627.8024297219,86027.5223404352,40324.9376538636,-7350.860878096,-1.1070203817,34236.0639395359,-28467.7768713283,-87696.86553301,-28801.984052412,71481.7703219012,10660.6393423524,-30957.4035299315,-1210.7719662505,-35655.1008027593,-50781.087436269,-2655.6318083191,0.5623810672,-12660.8576901618,3372.0389422061,-24034.6510565363,-6879.2468716465,-12846.7077233913,-28931.8239793606,6831.4726793585,87773.4475853224,75452.3635876074,6660.4381843522,-94304.9281699163,-98880.1040435667,-6646.0680368587,109152.1915869437,27189.0381863499,-27882.4747632634,-1.7199796964,18686.2681393255,-35523.3257287128,-75211.0595171024,-9670.4178965125,56056.6183724851,6337.6839204369,-38323.9031375825,-40.7852611515,-65282.2904192861,-55763.5260175608,-1213.802425953,-1.5142426128,-4166.7057871381,2636.8474891655,-7929.5827830304,-8730.1744088084,-2657.7114840157,-21657.1836830764,3247.7764312737,63455.3481802627,62996.5427980715,-18785.5109921315,-88948.9383943695,-101815.7184676204,-21724.2610957876,69875.4096010026,37479.1518065694,-10905.0040347294,-2.4012677897,33690.9130991613,-13720.702397047,-89761.0866586117,-61919.6317152581,38511.9867708153,4819.0044071098,-69246.9623911721,-7575.3339442033,-43335.1649435947,-99714.5575586407,-0.513312928,0.5752942589,-285.2772468708,2319.0134208885,-13678.1727138196,-618.9199853236,-71986.6357155249,-37152.0305981962,-14691.2817637004,52558.6354874203,152441.1094209482,91438.4367262864,-54008.3315958102,-97741.9159003642,-25271.5675191678,140577.2715479224,40982.7326729764,-46406.2655578552,-1.4704295009,55497.9681130459,-13095.5547855062,-109055.7045399812,-93894.5126115378,40683.8551895003,-20487.3733186662,-98500.9573447767,-6885.9676194968,-19061.5607632696,-101199.4152559264,0.0026849312,-0.7846438156,4224.7315506079,2705.1096363285,-16302.9600832743,0.2871914914,-56066.4879581069,-70783.3501751198,-63335.5345540424,14714.8211525009,186944.7657032799,143565.0682828926,9331.1762902664,-40483.5242891312,-37002.8027381065,145293.4205107351,50717.1864932248,-30409.520396542,-1.0077076709,44897.9305266236,-7532.9117728338,-110397.1420230828,-102154.2901933176,20385.6027465202,-30189.4064353192,-99916.4493579092,-4290.3628110672,-14279.8629812238,-94025.797861219,1.2935227243,-0.2501367382,19992.4744437289,1846.6247654035,-3087.3206157304,-0.2326416766,-41783.7834739872,-66743.3790673174,-82495.6606284199,-32018.7603632087,194303.849544143,149151.1398332407,35930.0129602592,8100.4445764999,-30826.5297938671,98623.3074306128,46128.1436448887,-7487.6660314935,1.0418856375,54457.023255865,-7911.7906710329,-85513.443984938,-80108.8515701141,19723.9376623945,-15910.438415234,-68853.4504761319,-3577.306991928,-1809.0616677999,-64822.9681922918,4.6016899629,0.3454954308,14065.8640015836,1794.2462147654,-1644.8028202649,-0.3212733004,-40225.91989599,-54294.8250896155,-61923.7895032998,-20423.3151997172,163468.8252530986,147885.1878110353,27266.3082332502,-15494.4986074351,-32175.4299855606,105387.2384894113,38294.2013946725,-8031.7424561543,-0.7947634195,53138.216414026,-9386.0956130481,-100184.3536198821,-82692.2449854585,35906.4112825184,-9647.5651789278,-78453.4956290144,-2796.4442382343,-17306.0419976185,-87253.2635971629,1.3951681004,-0.011052352,-5153.5639748407,2808.6933501689,-13214.0590342815,-0.5934822661,-50039.1271615174,-60032.1692725882,-42902.4971918149,29737.8848281207,168887.4349109779,108099.7518915702,-11716.1888848652,-62381.9177028415,-18938.3934282018,132722.905332633,46089.8178735099,-22718.3477287575,-2.0885945523,31828.6806914345,-10397.423440166,-72557.5809618856,-86757.7832396809,3619.7816149792,-28368.0929778283,-53643.4008894007,-2277.754339936,758.8059356988,-62493.3352615196,4.2555282217,0.0817005487,22973.6623300787,2150.3452954482,65.8229073538,26.4114549548,-27072.2006341142,-42123.6682800541,-77788.8040635708,-61091.0860910638,179896.5499466329,149144.7115548264,50058.1197391075,27407.5813641493,-20246.8208811841,74847.1849597406,32450.1241787941,-5458.827638367,-1.8464740289,40533.805077457,-9228.9839916762,-93971.6367773302,-90965.837061256,18863.6198817491,-26469.3841983404,-81805.6191448011,-4765.0946965367,-8733.1377784684,-92575.3627438672,0.5957230385,0.3525639619,23390.7708471461,2061.100152755,-6782.9810048171,0.0990770896,-31276.0010804128,-51470.9623873062,-64258.7387551196,-24030.6516413684,180969.3238957019,140322.7026235617,31520.2014846471,10735.3918639538,-29628.4742105793,85042.2451995751,41454.3603558823,-19288.2365203473,-1.0284509134,44949.8529798939,-17130.4463111633,-89993.1955196105,-59250.3367447902,27688.2477952974,6890.73575886,-62979.4924485797,-5499.4644133853,-26267.2366395318,-65443.3769414453,-52.2728081395,-0.5938775346,-7080.3274881686,2780.6029890027,-11719.5083745133,-1437.6823622926,-54958.8540844668,-57971.3657806888,-25868.0696314169,36785.9031715005,138220.4909183946,97960.5288182034,-25974.5523983462,-59122.6985544071,-23167.7162222615,149619.5702539888,44610.0441379354,-24464.7278283753,-1.0683432003,15849.4101249504,-23285.5822762524,-81258.8323290857,-14254.5213870936,94596.0133521512,-8076.638072589,-41388.3736933483,-5221.412636072,-39970.5313592299,-51095.4589941683,-445.417884041,-0.6423336515,4331.6533285879,1951.1395061322,-12754.2644992192,-605.0501492846,5166.8179811638,-38867.9170833161,-401.1900970772,84659.6937437658,80434.2881209433,-14332.822896301,-94614.3007600385,-116410.3795147432,-21136.5741740498,89664.2579622087,33996.0048105272,-16993.6091979607,0.0431623033,46859.2313509191,-6227.4529853996,-93357.4418628706,-97884.6696579302,18340.4835453634,-33530.6924209711,-84399.179412564,-2400.2100866045,-12312.2196817765,-82053.4813289012,1.7879770946,-0.3631410647,24029.985227054,1319.089482386,-50.5973328202,0.7093341401,-44691.016957424,-64669.6513896035,-79339.8634408376,-46309.081479238,188912.4420149234,154644.758520895,32403.4782170768,23016.7825298937,-26689.9767034172,97303.3186620841,40773.0263183785,-7928.3120171931,-0.2696789933,41221.2501217569,525.5588469959,-28280.270567681,-1222.2700455572,26891.5852027155,36114.7866446844,-10991.2162391567,-4.8021673387,-22549.3490541289,-8327.7427867765,-950.0151978702,-2.0251893585,-39974.9800298748,1202.0667218636,-19624.7789153075,-6005.857111596,-34827.880787481,-12841.2536167808,59985.1395992274,97659.0652543002,63050.4284967211,815.1712651395,-90117.7015238306,-124272.2581617459,6729.101188839,131509.6420183711,13225.1969835573,-36173.7337788604,-1.2334299328
##end
biasActivation=0,1,1,1,1
[BASIC:ACTIVATION]
"org.encog.engine.network.activation.ActivationSigmoid"
"org.encog.engine.network.activation.ActivationSigmoid"
"org.encog.engine.network.activation.ActivationSigmoid"
"org.encog.engine.network.activation.ActivationSigmoid"
"org.encog.engine.network.activation.ActivationLinear"
