encog,BasicNetwork,java,3.2.0,1,1396973324626
[BASIC]
[BASIC:PARAMS]
[BASIC:NETWORK]
beginTraining=0
connectionLimit=0
contextTargetOffset=0,0,0,0
contextTargetSize=0,0,0,0
endTraining=3
hasContext=f
inputCount=9
layerCounts=4,33,33,10
layerFeedCounts=4,32,32,9
layerContextCount=0,0,0,0
layerIndex=0,4,37,70
output=0.6513404244,0,0.3928119242,0.0150613437,0,0,1,0,0,1,1,1,0,0,1,1,1,0,1,1,0,0,0,1,0,1,1,0,1,1,0,0,0,0,1,1,1,1,0,0,1,1,0,1,0,1,0,1,1,1,0,1,0,1,0,0,0,1,1,1,0,0,0,0,1,0,0,0,1,1,1,0,1,1,1,0,1,1,1,1
outputCount=4
weightIndex=0,132,1188,1508
weights=0.1184763828,-0.0058327087,-0.1693833598,-1.3369404239,0.1323820296,0.681144862,0.7601076794,-0.4462632938,0.3805165441,-0.3429384652,-0.1158323324,-1.4334999842,1.0700383501,0.2844648644,0.9435791905,-0.5738816028,-0.2071506066,-0.3726033052,0.3894252672,0.1829352622,-0.1325327887,0.6097122072,0.1206883929,-0.6716026324,0.119748767,-0.4188366721,-0.382147545,0.3691397312,-0.218064192,-0.1579602591,0.7999933342,0.3355432889,-1.8408576764,-6054.5238426126,-1948.7764402539,-2235.8188684608,677.4460395494,722.3810015241,751.980402909,-0.9752262316,-3213.6426358069,-4526.4234927819,-8761.8292027189,-59.3531323679,-624.1489804101,-0.0255729556,-458.6998459451,328.9580451935,-4622.9912550015,-488.84746138,-5751.579143262,-1910.7282584201,3653.9210049851,-1874.2796934743,539.593034365,533.1096927924,2300.6628611625,3229.5687253414,-2472.4866660386,-739.4230305829,737.1323239355,-10325.7341055513,-6340.2190513578,1749.1388616133,-3.2632517543,-1.6335767939,0.3446205652,-0.3877015604,-0.2871348477,0.3028337353,-0.1610674989,-0.6263817687,0.0071037819,0.3189975971,-0.7532679822,0.8569421346,0.4380883783,0.9625269459,0.6373408219,0.2811354365,-1.0528228602,0.1311903231,-0.6517334763,0.7514935672,-0.2806665737,0.0114676087,0.9786408772,-0.3099922667,-0.3127503818,0.2610931673,0.1819657692,0.5344954254,0.1433322467,-0.2557186715,0.0890837677,-0.2805949279,-0.5936876097,1.0585487353,-1.5344633071,0.1015137054,0.3156791531,1.0766419988,0.6590598752,-0.4376257846,-0.5624851971,-0.8713688429,-0.1367967325,1.0264902884,-0.9488875008,-1.0444468219,0.2438923906,-0.6618210507,0.1956285208,-0.0851642805,-0.4739788318,0.4724244691,-0.2306286502,0.4763938282,-0.0030824513,-0.1125689168,0.6487116579,-0.4728321856,-0.9326071389,-0.9998619769,0.7862589776,0.4836095887,0.5415931319,0.5378926164,0.2207494285,-0.0759580771,-0.353508645,-1.1946478538,-10607.4954037356,16264.1564657736,1120.3912932804,-988.2134365932,-1.6321336942,3994.315796193,67.2212351402,25633.5983944658,-0.3629545226,9659.3150361262,-2167.2181691538,539.9685359073,-5992.2813515173,8454.4626334412,-1815.2469828028,54905.2816942809,-9802.9493338032,12460.0863433772,1314.807172447,349.8353957267,5.3533556301,-1298.6682241982,-3.9473752457,-2686.0690339872,10867.3742294808,23208.816794324,11290.405761113,-1.737214703,10067.2560326144,24187.7408937355,-2444.1167644805,24.5403423482,-1.6112545093,-3640.5593854433,-671.7354374817,1648.9847646139,-108.9854231247,-5.3153033962,-2729.0177083837,-12.5032502158,-26225.7707376058,-1.439558285,15029.7745700106,772.7120669584,137.4886254769,-2258.2576475946,22945.2163360586,-545.4496574653,36595.800729798,-13930.238171716,7004.8340630063,-5614.8822112044,-4054.3071069801,6.6181578218,-314.8685716863,-12.8984768172,10344.4125605453,15853.5111240358,33342.1116121791,3278.2815604904,-3.3464461371,7617.0292597695,708.9360962186,4942.7104084959,-176.7290770435,0.1470134783,-6498.8765052026,-3221.0571339741,-206.9239351699,-2246.7731776484,-0.9198369694,-2311.4322367247,0.6733882736,-2801.2852810136,33.4843478349,284.6812118067,421.7481527124,-443.2092907831,8743.7641015671,24512.2720837595,557.2466658406,-5225.0579179825,3383.848693365,-4112.5991053471,-5056.0731774673,-23805.7144944817,-290.3130530566,1362.9174001185,6.8334315431,-8230.7224426879,-26083.2655108428,-21731.5081174795,-1978.062650493,-231.9580964078,-11159.8703501214,-10262.6146606915,-8506.0634704731,500.6199147978,-1.3158595494,13242.2646597399,-29618.7483450714,2124.9545962755,628.8264518603,-11.0147432041,19554.5227561958,-8326.9906187723,1187.6877727029,745.0470798894,23947.2636564594,-2658.2396328835,2067.6543215291,22864.7897418581,5069.509034034,-5398.7461312194,28394.0567879948,-2653.6654886793,-2701.826295476,-12478.5007467834,4908.1140602192,-8488.5940530164,4187.3082280968,1257.2754973898,-3159.5605303445,-24296.0565897865,-14953.5427659983,-3884.5667448328,-21006.0044228885,-2333.4553498444,-3976.0130199885,-5470.6803413498,-1129.4935725678,-0.7861319655,-2266.465894373,23057.6068322448,-7110.3835556476,-320.2756025772,-2.1124734717,3574.7444237792,9961.4672416741,-19994.9487159336,-7539.0554347047,-12745.6903026573,-3377.1566978259,-2543.7990829374,13237.1200199424,-16488.5077764153,-3120.9331512786,-34751.5792081014,-2226.0452926346,6505.8436043431,14055.494694353,-68.2995148676,1424.5605253692,-4335.8326739227,-4535.3292690889,-23829.2395414421,40.4557436118,26657.2492774494,-8395.9756013667,-5357.1013491223,12083.5527592329,-4389.3131836964,-1771.2092240657,-18.8281808981,-1.8478712271,15115.8255547981,800.7659170804,1014.8199810924,107.0112822853,-1.0895593453,-5430.0245371648,-0.1135742451,-22300.9845416376,6.0876800225,5544.4202043579,279.4687471913,6798.369171239,-1009.8040514198,7329.9432520653,1309.9116463306,5870.8386618087,9521.5275116223,-29450.9699367148,-7601.0410649027,6623.7410023659,-6.1317335849,58.0797334568,-0.7525930888,15851.5524510692,-41853.2007276828,-8739.5117567736,-453.0638866179,-1625.5234029586,-17130.724441485,-5836.4401923908,3112.5467182664,1.8651999398,0.5950733761,39382.127387298,43534.4008713878,12498.0821335131,64092.6409854676,31527.7785021363,51379.2930794922,187772.2713336179,-9263.615209239,7749.7061636695,-33527.4973743414,10195.040468898,-77598.2113838381,6190.7203615308,-27775.7775761786,394.1336897074,-45140.9371468764,112239.1004997499,12881.8460191883,97953.4329148902,9017.4983513115,-2726.019015223,32472.4970841514,32782.692011879,-39200.2716289215,-461.9236473976,2436.6794735975,37476.1734218729,46519.8672641544,3644.9446378737,10526.7927871603,-77000.9283794625,24925.1708250804,-0.6491249275,-492.6394499154,6119.4375273961,2806.0579096571,4752.6652732758,6.0233170403,-14672.2649506886,2027.6388340742,-24124.7004771721,108.3845282901,6051.1405542469,1092.3481487269,-2529.0829792267,1263.7955972615,4372.3034199907,-604.9238404754,-32507.6431941765,12433.0617711272,7159.7085610337,-8792.0721134547,3862.5001798535,-6.446860776,-1368.6576212519,-0.0199509982,-15531.9914279568,-9457.2106659169,-4651.6017170134,3185.2494267403,485.8208834332,-3925.7553812376,-8071.0398356184,-4991.4876565068,0.8067725306,-0.784548807,3210.137000035,-8508.877701425,-1413.1577362291,-90.7733572391,1.4202770231,-6739.8904480068,459.7982288507,-11057.7655385655,-20.2856167174,-6711.0568422152,4.783418108,66.3851509468,1125.640393965,-4453.3515567918,-3135.9740436031,53560.3651098444,406.1873814075,-1266.0597682939,-8177.951406428,6709.3561506583,-2797.5213402877,-7.6241012241,-4.0688682283,24704.5101185889,22386.8738964856,7173.8542050431,4169.8469506988,494.5079168219,-591.7630482953,-4282.7897161204,2613.5535586357,-253.8804118519,-0.4260699345,-6814.4529208785,-30466.4561531941,1373.2723662271,-5739.4367891519,0.7585245628,-20180.7300757591,-2900.6587974163,20756.3832723248,-4214.2586997949,24018.8284277964,950.3188997411,615.8772221729,17608.2040974386,703.0290625336,65.2622789405,76929.38883105,-3123.2287265452,14753.0108054379,2507.9263887474,19852.7104983226,-1483.373886292,-13662.8720651211,-691.3615492305,-5152.8875650973,19385.1168220551,25703.0224192511,7098.5304829053,1705.591312725,21201.3060065177,-28457.7496686565,-5389.1038037137,-61.6799842508,-0.2108528264,8356.8327326376,-814.7363942139,337.8295897163,3151.9271812199,0.8946337614,-3472.3075729166,59.8267637077,12691.3395384707,-143.2572088849,-2506.0949551839,-0.8996227684,8499.8364912831,12295.1782430037,-12077.0561410771,-21.7957927813,97155.2360799997,-5629.2654258898,1665.6769952962,-637.8775317687,11314.4308887827,16.1044994324,698.863020448,-159.923771877,24275.8956700237,13011.4173079441,4123.4163234966,1807.775728391,-374.4020594931,7573.1703169687,7416.5946308313,-41.9883688879,346.179667696,-0.3780279427,3359.1856144894,-38366.6233304997,-2267.7987465414,-2920.3902737609,2.4716957901,-4026.3041261475,6.383175257,7029.5021338114,-3979.4597073955,16975.6226970522,5360.8794392038,850.381544502,-4040.072167275,883.822710954,2541.7752706869,49370.125617993,950.7723374442,-4200.9080487919,5223.5643891192,2986.7670837607,2854.1394639147,774.6206038827,-152.4566070546,-5171.1450539809,-9840.596925488,-1373.4047846224,-10438.4127360054,-985.4127978576,-688.6144020508,-10606.0319241966,-4704.4008849548,-0.4033570713,-1.5103070888,53766.7460223211,32814.4999438246,-5026.9184405085,12611.4895518659,38270.6770532769,9054.4484595079,144557.2960600315,1961.2394574228,-3607.1531736973,-22697.1328813323,3966.0325211294,-80429.2377712711,1180.3314612466,-12743.8550845023,-22457.1893446836,-113200.9094091533,75271.4983370621,29742.6975609892,126747.2051016889,-7626.1176635246,8306.8474775912,16701.223407861,10599.7302996337,-17993.592688814,26757.123822829,2586.5880800772,11390.7499585459,56709.4261324351,-5741.5610850077,7435.0808496945,-41202.125491779,10280.0521583241,0.23334768,3466.7121589438,-23881.4900488764,-2357.2372791144,-7320.0115741126,-0.7068753001,6101.9726530272,-102.3235311519,22571.3037736739,-8848.5694472207,22380.6590706704,-1919.0272409767,7475.5820433395,11458.1102799744,51174.5614675606,7179.5645044248,40631.5126214428,-17837.1881536004,4046.6625648527,-3469.8673574155,-17471.4639055208,-2150.9994231625,-1094.8278682379,-4202.4536836835,29230.44782801,-10330.3862755677,-23874.7083062797,-830.1697957995,4434.2597755718,5659.747548818,-7852.0241664733,-1975.3152850222,171.2510731683,-5.9314018938,-1563.1184365685,-2270.9996721684,192.6177002431,-19.7775018684,-0.0974429235,4704.5572169492,19.9431194479,4490.501125851,-1163.3846387063,-14936.7082992559,-202.3948288937,-793.463381269,6323.5385314346,18639.9272310119,-1.7028911711,-49955.3698205513,3773.8748546206,-10289.251046194,-4221.3199831538,-12106.6086350814,431.0510711433,-1337.6666804315,26.9255601547,-4573.4754374506,-28734.6950829524,-6123.68115484,-1527.9598537672,654.6343034979,15746.3956319458,-5466.0588067525,-1744.1989971276,47.028692626,-3.3726768777,8441.8178403508,9921.2481014577,996.0921875682,-1929.6660475893,-0.4753745895,-7003.3829039886,9.0203970267,1383.6691151742,-1.6431875818,15194.1546407515,-140.4409982824,63.4983850269,5361.4767133002,-5221.9303692928,295.853813934,50736.9842050955,2473.3329668409,26102.6218583759,-2643.9511893121,-3621.6358323378,14.8443107764,-1122.6382163901,0.5620997714,-13178.1282513053,-11907.6875295651,-6842.2019348374,-2045.0230284893,-146.5256910894,3776.4481213694,8628.5226520658,3100.8734848704,-6.8744870644,-0.0660377712,-4760.9761137054,8662.8343089677,-1381.0275900116,1720.3178289367,3.5729250975,-6192.5858461757,-9.9493983992,22872.8099310758,-942.2948836698,23307.8113227877,217.5285629093,5247.3864463662,10370.4702266937,-713.553968435,-1231.5410080934,75779.408101665,-17843.5723462974,36956.6723985096,-10207.6827330404,-8016.5105668686,999.5548214604,1219.3828506816,-40.3794846823,27995.1094730147,41180.2527937734,33188.7191985103,12770.1830113735,97.2939812167,13963.9369234304,-11729.3532743966,10242.4069448901,239.5404816259,-0.5244254088,-224.9603904456,14898.3959068403,1046.949315948,-350.8416114739,-0.739626578,3875.1032638431,1.7841872597,9760.1816890054,23.6347196311,-31281.894416461,236.8300264347,889.8205795153,-16645.8773149786,3946.6009847403,-128.3288391236,-41490.4453126922,-3279.8928816404,-2100.9746001484,-1710.5483176351,-5268.9989821129,5.7242854053,647.9184670244,0.1026128743,-30566.2256428557,-25743.8197331154,1863.0207411833,-550.7097765791,-1.043203566,6624.5510282916,7164.8360504217,-3861.6030452524,-0.043637308,-1.0049114052,9354.3489682691,20587.4222085422,3355.8375988322,616.6139601929,-1.4357985358,4125.4895460331,-2596.1594428652,17169.6779981232,23.2818418851,3616.2508610976,-1823.0074018355,1119.070840781,-2127.9243105234,-15504.9998130926,-575.9580212335,-6561.7880553931,-9254.2361253908,14893.5145477128,4251.5630787178,2293.3962019477,-0.5259849124,-1515.4450031995,-0.6692442414,-4679.4458139707,-4568.2673607895,26272.9862126946,7488.4527190479,11.9194954529,994.6939222049,-475.7339516053,1477.7297499647,-19.3717458473,0.4094684066,1559.5937510735,-2672.5722343945,-2101.6768578913,3250.5268969212,0.1022538858,-10895.789469481,-61.7978604952,12491.8108072893,0.0781527436,-10536.2518133168,-2085.9621761589,1154.6810742329,18546.3403010085,2422.7953848296,997.5424382009,2066.1119506607,2116.1442965038,-13787.9016585154,8865.7326725137,-2781.7891643915,2269.4780244586,2689.9451786316,13.5266789592,10538.5808545776,-3999.9416472457,11710.2702599106,1065.3299090658,-796.2558766694,-7121.9168919612,22251.2787114638,3957.8612835597,0.5734164192,-1.630694934,-9735.3978131779,-40403.6221302878,948.2417202955,-1707.9778575769,-0.6801762928,467.9544994503,-1.3270521898,17908.3182317668,-6012.1426982253,12109.9653212321,588.70543633,32.9498198632,-3547.1886086063,6249.1927423547,-767.0406703216,15830.3965930579,-24008.0061289633,3787.9300140699,-11140.4588827502,-15138.3641775469,-2591.2450287499,-4262.6063822835,-5275.2069304735,17816.1668212513,-15304.6568066398,-4726.1554002625,-4355.1308677485,-469.9428340652,788.4283324915,3407.1984099766,-7401.5400312037,-1.3732437205,-1.1051072059,2998.7909182566,23362.5867801979,1467.1002732435,3780.1247215456,0.5222354192,7442.3620332796,11.261248487,-26004.8705634508,1.2761916319,-18843.1830359135,-32.9624856142,-332.1239825945,-2233.0085488483,-10281.042036427,-274.1795944654,-64920.8768529025,2805.4298187039,-8160.9068849295,7580.965163616,-13669.4741636373,-24.7388843052,-640.6822747748,1080.0030822076,-8043.6506556279,-23666.2235952779,-3741.7352039836,2304.8059794087,-1454.3601474491,-3622.2225725916,12279.2909679039,-2323.1890323055,438.8060698094,-1.0998736335,10243.1511587235,-2613.5455527285,1009.0654179688,3130.7388138211,0.2675587927,4432.8472215006,-1.8823393008,-17585.3925504935,14.4949845946,-17366.6740654243,-269.0039226792,-261.0615766872,4408.8755790945,-15759.5974909664,9.8419891331,-53865.4172170777,25139.1400765592,-2381.452443531,9913.3218322219,-7748.2153973724,656.3656130509,699.2400304969,-0.810279708,-8535.7914838495,-27292.1672251139,-17282.7468034087,-579.4493397159,5.4918464066,-21258.7511211449,6455.4744192554,1202.7853363764,-307.4274695439,-2.5268463094,-13958.0243329688,-14784.8900315463,462.2947327494,777.3408921655,0.2328693936,9083.3527028092,-98.7345042952,-8972.509168977,3.7344622442,-3090.2537436758,137.2424347732,-56.6901941859,-938.0973047567,14256.5076328011,3412.062059586,-42219.5601608518,-14820.1242460921,-17247.8060394879,-5039.1676987334,-18102.1230445347,-505.7952681939,1966.7430717692,5.6987015021,25456.4427724822,34600.7078032271,-8871.8121639463,-7631.0387924869,-781.1455786719,-6020.227389687,17764.1326851392,48.9304341128,-3.7225746536,-0.5552831217,1792.8800374584,-3866.9063022051,493.9429380516,632.5563258857,-0.6225209114,-1203.795759996,-6.6729842708,-52887.9420255923,0.0076460139,13625.2248862214,-1190.7231529997,2138.4077644734,25.2227958017,8110.6762018466,-494.5197913172,-30755.9349308803,866.3731025933,-13147.2806003865,-8005.9869416616,1105.9509866985,525.8320088901,-2685.8700978636,73.7039980846,2809.7719977148,-34.620266064,-33179.9300869212,1110.425028156,-13.3532263831,-6219.3072782346,14762.4818432887,6905.0322230964,-89.3371338725,-1.3707564461,7482.4354012943,-603.915218673,2153.9859147305,2083.1663753217,1.5174524567,-2757.40163596,1759.8229452637,-12434.8810922857,-2218.5116231764,-1820.67277424,-2591.1808753141,-1890.5453719002,12958.9952236139,12433.9675827564,18.6240773051,-128285.0893585987,-862.6407384302,6580.9802926379,12033.0038718846,-2452.5484566916,-1509.4951537473,-4639.9435395875,-1290.2701976941,15868.3260393046,12162.1363349186,-6714.6819269741,1002.1349824405,-34.0032072528,9758.4588139095,-12481.7905789323,-4873.9786165566,-0.6860783674,-2.2658649514,10241.0668227185,-31461.2068727148,-2016.5840615092,1655.0008920333,-4.7288032919,-6359.9541861038,265.1001357576,-7764.5307948896,-2.1791992952,14070.1060776585,408.5977607399,-5528.7609560979,-16340.1250522575,11623.4386457849,-2861.4136043559,-17135.9934152049,-14713.8266184315,12015.6529296054,-9764.2565301717,-27391.895937523,317.5691133292,-1161.3486792054,-2.3168323521,15737.6302884746,23349.0645786624,-1037.9357633599,1586.4605346289,1025.2148945053,-539.0994204963,-20618.5800843788,-4203.2264106721,14.11545437,-0.0578505369,652.1175112967,-31720.2882766139,-2850.1401227578,3677.5509656064,-4.2319459441,15937.1464601782,2245.1628159787,9838.5900866063,-1573.5966582101,-6804.6631431343,3064.9633234991,72.1888572941,-14630.2659461304,-14650.1876509209,3412.7886604046,11266.259626689,-3777.5993254824,2844.7593036134,6039.7560664322,-3029.1451730341,-448.2909549227,-1305.3971787762,481.9883265352,-886.4207493563,-1457.9127371501,2032.3906809169,-4859.9969162676,-125.4035383957,-3548.1870289467,7456.7898527501,-2551.6600239843,41.0198182448,-1.8047645474,11728.5715726881,-7828.5762427286,-1165.3226909594,1980.8024528824,-15.6502073024,3881.2598683594,10.0274245804,-40490.4871203896,-0.9616088923,-12752.3017794504,69.8886985907,-1020.6361864903,-34155.6797845748,-3051.1618528458,20.1663387437,-53644.3221805287,14721.8992492956,-7994.4489681124,-1678.3226442122,-10743.6710881728,341.4710512979,3314.6501602228,-0.419201598,-21733.9047731032,-24527.5597013472,-17469.5724987674,1267.6572074077,31.4163178547,7138.3555575275,5994.2037223585,1411.9928426145,-6.5507126343,-0.1784886922,-3031.8989691356,300.4332092401,3290.6167370648,-4560.2441978297,0.1288791256,447.1684623309,1545.6540241587,23644.1160244626,-9.5424627791,4224.3770349502,-398.8628515445,77.300631223,-5748.2198969392,-4719.2391701539,-280.4578059625,12807.7788500216,8048.8265768522,11184.9920658219,332.6080325183,1327.581158899,-2.1594576137,-1147.7670044955,18.4001327379,-5565.8568029362,3729.8221793153,28695.0690816639,832.9034219679,-3.1161217425,7028.0131238205,-20745.4789987997,2405.5462469654,-688.0065956749,-1.1752608772,4519.6169091005,14691.189333459,-5834.1830407775,1050.3867619058,1.4606789262,9569.5030838739,-2053.3320913783,-7451.5247364106,-249.4814713132,-24868.507252167,1581.9967645763,-1075.1627440606,-7289.7286270422,-7082.6710008535,2060.5937730049,-111323.6227167294,5770.7355171012,-4262.4818073539,3588.8884493083,-13763.9018071826,-144.321887406,2625.0689527054,37.410695855,-7127.2744002024,10071.0240304179,-5649.0767948384,-11226.4338649156,293.4531608567,8833.3862283925,6501.0285044637,-4025.9781683038,89.4635285443,0.9316949506,12675.8997183792,-14074.0433869304,-1943.4967312007,20881.4343484802,1831.8681354743,-9827.8892976025,-14749.1522059913,53001.4485757986,-6136.8928826281,23996.90299416,1944.7520241907,50194.635741307,17481.2436344276,-3323.292721142,16782.3882430838,27290.3975088799,-5552.5940648599,16436.733429265,49835.2825842418,-5391.9256909539,-4291.7102942583,8597.618246407,3202.2527807465,25936.6364484106,7275.9171073986,36110.9594836732,-1548.3470892247,14690.2613820037,22288.9908658911,4834.5624685052,-11571.5557316952,4987.060139004,0.1352098386,-6964.1031997311,-1335.83706018,-1893.267088305,-3598.9139201652,-2213.1672779208,-26343.5738567138,12904.6612165597,7739.4290297921,-3.2128925127,0.5953987793,-2087.2654593582,312.7468924079,-8441.8390981427,6244.8694649053,3891.2941923789,-5158.176779653,-11615.8173899846,-14251.0339340989,-71.7236863925,0.188712717,9954.6956009528,2890.8794866284,4896.7245609391,6004.4708493754,1387.8101100855,31256.4582681985,-29304.0887330114,-3718.4447433831,-457.0947665985,1.7336182552,-8722.3236748736,-12799.4789357209,-1749.9646418892,-8731.8930040469,9096.8060009103,15889.8422710378,24137.3251264979,19566.756409289,-1.3018568916,-2.4676329285,-334.9114912605,-8752.1725937413,-28408.8952413957,-20599.8065543096,53794.0906597354,18438.9968088651,39428.252418215,49201.1940687332,14307.5520093947,-0.5636037764,-7845.2446138144,-4275.6797393121,-8698.4310080686,1133.5345493976,4513.2303209702,20369.6009708931,4700.5634600741,2015.0797155703,57.1156418237,0.3311206773,-18789.6395713165,-1595.8920142423,-11827.1230185421,-4973.9899659471,22813.9496871123,6964.5923031632,29373.9831694082,25373.9576084726,1846.6618155617,-18.7284545312,-685.4950967791,-1946.5331846127,22.4875271263,1873.4399518969,-10321.3735228579,-8157.0385218493,-9504.9045726134,-5603.5941069111,-3.5005822698,-1.9222957203,-1922.9350923658,-9029.5831684656,8212.0579158439,-284.2340971322,1703.6996203156,10912.4266274412,16691.046734956,15677.1080063641,555.8433517414,1.6781304884,1187.6745451979,9034.9532462398,-76.4628212075,-1115.6256845049,-7816.5617667015,-9164.6992133192,-12482.2195889363,-9351.8487561307,-5.8673978538,-1.3802367346,12721.833188534,5702.8913361775,5483.5965721325,-2622.9947750287,7833.9905632211,1370.8457932873,6276.5747728293,3785.1757544874,546.4706953245,-1.7042020215,-3760.0267102896,-15125.2036284633,20444.806336263,-5032.332218032,-6253.0449459542,-31860.2564155642,4564.4930940897,12030.7673272218,104.5280747843,0.5659750759,1899.4561167916,651.1218825121,82.2007686977,-1986.3338556337,-539.1784909531,-8635.5770938943,14511.4579235368,807.2512352437,-210.1795523049,-2.3591046044,-17622.7177016135,7330.1409587964,11083.671664841,-974.8244035719,-10506.3689570646,-8949.7365554849,-19887.9375391423,-20553.1575464712,-571.738152518,-1.57517067,-1730.8130369637,-19672.0380885026,8519.7825485355,-7068.4242146699,1264.6522980896,-6522.9731541764,15907.7479930126,10590.1641766332,-1638.9858246924,-3.0566906679,2767.187084805,-116.8693184556,-2466.3732332755,404.1034285022,-10174.7452274526,-8759.365771569,-16304.9448466545,-10024.5440350326,-224.33962452,-2.6535513115,-4145.6277273981,-366.1611673444,-11139.8573806575,-6224.8069542397,5368.7378920152,7354.0025987086,15848.1804397213,8905.3492747875,-899.9806157454,-413.4403181218,-155.7802423081,-1580.1622593446,6810.1155476165,-8420.9791185517,-8242.3227018013,14898.7978204459,-1404.2079686215,1420.0721138206,-14.8259931123,-2.2279444643,-6181.4311153425,-1183.4394845304,-17673.0580741182,-6103.7782077417,-3049.857541444,6693.3885199359,21488.823137546,4566.6305115364,-21.8622934294,-0.9746863404,-5349.6113753275,-9653.4676917101,774.0527013607,2398.1635087778,-4497.8191373748,19712.2120853718,-17210.6119704499,-9533.4933748108,-2728.0579285055,-4.4687535199,-35.9134130536,-24014.4082159144,12240.1831782839,-3311.7905076601,192.4129185563,-20711.9700870481,9225.4191889956,13631.2335840635,7.1689401996,-1.1328318267,-1794.8088795219,-4726.9488872025,1763.076155551,-4407.975350711,4844.2097859476,2116.6418813936,18517.9936778227,12660.2952495604,148.9021501478,0.5176117223,4262.1211220349,-15415.3013458617,5215.6656284767,-1741.0093746604,8886.01682888,8125.5138038554,26423.6032093365,18551.9809505051,566.2373240956,0.9240341795,2498.7809715605,-2136.9021825612,4472.3385344585,230.4915917571,-2736.43263119,-16133.247106725,-205.9780122772,-4443.7439870723,-25.8380731593,-1.0102137097,-9121.4628594779,-7737.5582835905,-829.7979359492,-3153.8954957662,-5004.8107772692,-21385.8841949349,-1092.3581921339,3889.7992280089,-803.9194122584,-7.9995602529,3060.8821354489,609.8586451902,-1896.4011863451,-1395.3609401776,-1576.1513448299,6020.9402607563,-13034.8048374454,-6687.2928426997,-5.7305929001,0.840619055,5341.2612108051,15363.0284871529,-5003.6776499168,-3060.9612453284,475.1098980303,-773.464413317,970.8237194518,-11637.9804029422,-969.8735518187,-0.3850731517,22131.0623858072,4820.8060255615,14078.995333042,-8884.953922848,8261.8427310663,8501.3161348472,-3283.5207226135,5151.2814534183,-21.3535013646,-2.6643769698,-4281.3467382934,-3760.5924386047,5628.3851252116,-249.3115602717,-13208.3293816253,-18947.3302113882,-28809.5302439991,6365.0908729684,46.5599044473,-1.496671162,-17052.535984381,844.6064278992,-3472.6479389698,1545.4975561332,-3339.5341856029,29302.3608460788,-39923.8290096795,-25327.0330445023,-3701.7814809995,0.865255487,-6754.12329973,-17826.9799882536,12276.4260525993,-842.9114645218,-9537.0214420558,-26641.4700027609,-15146.5770444746,4514.297832845,554.9044159136,0.2413836737,10186.8647488526,-24930.1800419421,11089.7163973958,-113.7032091659,2203.925978075,11219.181229975,28264.7985408213,29483.4464589319,-50.018563743,-12.6005732286
biasActivation=0,1,1,1
[BASIC:ACTIVATION]
"org.encog.engine.network.activation.ActivationSigmoid"
"org.encog.engine.network.activation.ActivationSigmoid"
"org.encog.engine.network.activation.ActivationSigmoid"
"org.encog.engine.network.activation.ActivationLinear"
