encog,BasicNetwork,java,3.2.0,1,1397043882290
[BASIC]
[BASIC:PARAMS]
[BASIC:NETWORK]
beginTraining=0
connectionLimit=0
contextTargetOffset=0,0,0,0,0
contextTargetSize=0,0,0,0,0
endTraining=4
hasContext=f
inputCount=25
layerCounts=4,33,65,33,26
layerFeedCounts=4,32,64,32,25
layerContextCount=0,0,0,0,0
layerIndex=0,4,37,102,135
output=0.6284363838,0,0.2847551686,0.1238970901,1,1,0,1,0,1,1,0,0,1,0,1,1,1,0.9921223704,1,1,0,1,1,0,0,1,0,1,1,0.0924270007,0.9600671276,1,0,1,0.9988178462,1,0,0,0,0,0,0,1,1,0,0,0,0,0,0,0,0,0,0,0,0,1,0,0,0,0,0,0,0,0,1,0,1,1,0,1,1,0,0,0,1,0,0,1,0,1,0,1,0,0,0,1,0,0,1,0,0,0,0,1,0,0,0,1,0,1,0,0,0,0,1,0,1,0,0,0,0,0,0,0,0,0,1,1,0,0,0,0,0,0,0,0,0,0,0,1,0,0,1,0,0.5,0.5,0.5,0,0,0.5,0.5,0,0.5,0,0.5,0,0,0,0.5,0,0,0,0,0,0,0,0,1,1
outputCount=4
weightIndex=0,132,2212,4324,5156
weights=##0
##double#5156
   -0.0114395988,1.0086604558,0.1687504184,1.5359363594,0.0452483423,0.8698787339,-0.0957929787,-0.4918043853,-0.6820533288,-1.5606358582,0.0459399448,1.6591534605,-0.1895161544,-0.0029295139,-1.129273648,0.2364697686,-0.6370282241,-0.1658789793,-0.9595988616,-0.2168600045,-0.0798077237,0.1449865737,-0.1528101224,-0.4934137715,0.4842165106,-0.5667020192,0.8879021519,1.0517556308,-0.903910405,-0.7372748774,0.0272787288,0.7675869317,-0.7369795815,-11.0915743087,-509.0516940133,683.8769721628,171.3003992349,-5278.6683273086,-21.4874714621,40.1267732807,-0.2569954324,-52.7893976057,-11350.5356754879,0.7504543973,-29309.5640169376,-294.912677642,-30.7142129863,-1.8871584132,269.0043090266,-71.3351603406,-314.8621969812,-183.9565679568,-2.2164674512,-294.434054486,-28.7308213339,-1801.1035646797,-46066.160848213,-0.5456746462,-96.7564742481,306.4213891931,-1427.5352859485,-540.1396217613,-63.3162252111,-0.4819202316,-38083.1384196286,0.3926946783,0.0972416889,-0.7415415387,-0.510062755,-0.8047452862,0.1143956895,-0.2585815184,-0.225908193,0.336682398,0.2614148933,0.2569577563,0.2623270245,-0.4211772404,0.5230122131,0.1670453794,0.6457661217,-0.4332797857,0.4644368223,0.1455975711,0.0126734943,0.4628184517,-0.6155519208,0.1141553947,0.4097782982,0.2765050444,-0.4027439658,0.2881892162,-0.6216944828,-0.3077039288,-0.6380851001,0.6473620813,0.0537884248,-0.1206990751,0.1018808894,0.2393382294,-0.8231095282,-0.1728109738,-0.1174678173,-0.0536129987,-0.0731411186,0.5578584341,-0.9049111804,-0.4820712887,-0.1942746647,-0.0428208516,0.1790242462,-0.5896213658,-0.5746367013,0.7455086141,-0.7428650919,0.5422111414,0.6283426629,-0.0060070145,-1.029781049,0.0743004439,0.2370726216,-1.0855845303,-0.2699249359,0.4367145427,0.7898283512,0.0662437283,0.5869003267,-0.2497487647,0.0897730571,-0.5679548459,1.3006575843,-1.255156912,-2.7881363095,1.6197036618,1198.1017140536,-418.8875688244,-634.2534543659,8.9441075481,0.7332984008,-0.3265097868,3.5452505515,-1599.6213858345,-4631.7165602379,5064.2607300402,-3729.9791426846,1920.2943344466,-2676.8375649188,-757.1178205468,104.918185572,32.6263375084,976.602071297,1446.85758753,-285.2065101761,514.9147183445,-690.7326646881,37.4544824342,857.3226549657,916.1751081107,1681.7649822718,242.1695227777,-228.0247330839,-4171.8956373013,17.9035882776,-467.1279747981,493.166755953,-7.0139053088,-0.2609115772,752.3118452045,1187.5003655087,1651.1569164122,1875.5461371822,961.0229154746,816.5408709026,-70.9381784445,-0.3922217158,338.1118666615,-0.8413867905,-812.4795356336,-13.8274097915,1713.8875985223,803.9911295224,1182.9819616033,-5249.732312287,1587.4862756291,-163.3150390821,19028.2713579842,18.3255206209,-8387.8643576416,-31.9326727993,-1275.0660302239,-0.0236704533,365.2888821475,3990.6612653578,17.4216618191,4432.3646348505,3.6665128405,-0.0006275427,-1.3123506706,0.7220937018,-0.2357953034,-0.4644292602,-0.3905733498,-0.7294467366,-1.2901901289,14.481318281,3.8695881538,75.0442509139,-2.9418621346,277.1506871383,30.6062186835,-0.7630647262,40.4873859322,-418.8402407344,-4.9255623516,7.4656864163,6.8712324463,-1.709657543,-1.1269462239,-1.6727209993,12.7265214441,4.6891014629,-1.2507072119,-0.3345275548,-0.413221293,11.8518980835,44.3814944114,1636.191178754,2.4012585204,-337.3304264384,22.8835646915,25.1319906277,-1.6144046461,274.2675712276,5.6155791678,-1.265925479,-54.8478123853,4796.6438914538,0.2316950133,-0.3943141359,-3.9162665409,-6.1362519044,-1.1484755642,28.6801612366,80.4816801844,-5.0768592607,1.7500012032,7.8575623472,2435.1038733301,265.5325643319,-1.2359850155,3726.4718342935,-1.5334629303,-5.9163393643,2.392461878,0.6052657808,-133.9471231236,0.2653519591,2012.9984477355,12.9263088919,-2571.5873579947,-1.1521069216,-1.9580938722,-34.855192209,-2799.1591457624,-519.8896045803,-9.8096720086,-6193.5272766285,22.5453639607,-3.7577922475,-3.1550728249,-2846.2984049852,956.7517917636,-233.1806436757,-3178.5656127098,-2783.7246611878,0.235751658,-706.8990948497,4726.5086953585,-0.8512247728,-0.6956228645,-1841.0278579579,1.3551450298,1.2366922444,111.768366073,0.2781530322,-0.8009391774,3.5293297656,2.3481977371,-840.6424511114,806.7234128238,-1351.8887735865,31.5750230838,417.7967601746,-17.489667769,27.9206400493,314.6996431937,-907.944103619,-5808.6030055389,6405.9746438712,-764.1083298704,-5581.8971538198,-2481.2121182781,2162.1542374636,-2997.2503489645,6.6772597198,4125.5217896351,-0.1990020065,30.4626710279,-19.0340464284,1308.3448174435,2740.1198167563,694.5857648559,-4520.2560142506,-378.7380751699,3.3894925937,-2272.696808054,3787.0863104049,-56.7158348161,60.1331411936,-3722.0692164164,-20.9556470608,-1.4084787174,-3528.1372536275,2161.6468735588,2097.2946855917,7.6165719782,-0.4579281726,-0.5441224149,-1.3553833658,-1.2418616197,-0.1166506206,0.2196181525,-4.407516682,-0.6969087187,4.6945623503,-1.0383109842,-4.5001708424,-1.5793364729,9.1941715488,-5.1883861199,-0.273089465,13.192478104,31.1741453059,-4.8242898893,-3.8387780726,-4.9624376763,-0.8841424627,-0.5211687161,-1.0101314764,-0.8635059534,-0.1020162452,-0.3149605176,-4.7870699862,0.1099210462,-4.3788936311,-9.8663790527,1768.9764601826,-0.442614452,-330.6498547353,2192.6719249026,-2.7007462273,-0.1930118341,7318.5616092174,-3.1460345142,-1.2192306802,4.9321392928,5933.1312580467,-0.4089731539,13.1463743447,0.0762716367,-5.5029547824,-0.7765638934,350.0862593875,21.4631102198,-9.329370177,-7.6897358344,-1.1067507502,1642.0828481032,-0.9205737095,-1.2418537043,22802.294789264,-0.7918807447,-5.469144164,-0.5089296485,0.1980029908,4151.0238056185,-3.6841553303,4.190165807,-2.1879774325,-3590.1338535615,-0.9615197928,-2.0271964902,0.5390687664,-0.9755808552,-0.5388406236,0.3196732269,-0.4728047187,6.1902082082,1.2863606136,0.0803553893,-0.5391321271,3.7596644188,0.1046992036,30.2523462119,0.4053059757,-0.2146361124,-185.6316228639,287.9211245802,-0.1342921438,5.5159020994,3.529635042,-0.1466819739,-0.6366415782,0.1279571595,0.3569010763,-0.3128851857,-0.2567231845,5.8579447628,-0.0953784547,3.0346061164,66.4109050616,-613.8873831534,-0.1474761865,847.0011760107,-39.3287616374,0.8612696089,-0.5155178834,444.3868197934,5.5636067224,0.1698264,-1219.8731507318,-755.7545010384,-0.6381881698,-0.9618696834,-0.3926315303,-326.8039396203,0.6949367086,-2046.3742548747,2436.1982033724,5.6893545305,5.4947924292,0.7444192688,-88.981236518,-0.5697154791,0.9119960051,238.2689989379,-0.7077559898,-1.2154794151,0.8825246722,2.3291096721,1.7208396075,2.7183424246,-2163.7438677979,-0.6037581029,-2531.5279667035,0.4589478418,0.1133676757,2359.7268394079,2481.7433633525,1601.464592449,6285.4548848251,-5372.8114360098,-27906.2881173498,3698.1418330975,1501.6420574831,-18345.4196143549,-10616.5549416144,-6363.7411273124,-27178.3073096138,-7122.1992426825,-1229.9694176292,-18760.50404403,12373.4760967645,5629.8081542337,-8657.122983174,-12587.6090393854,848.5235886033,8539.2475890757,10008.5682563316,20192.0216894522,7335.6623089993,19048.1036550217,3654.1370622026,-19673.9439086472,-27620.3893898755,1038.0674726964,606.8465176376,-19830.7927886183,602.7900942955,-24.8889519729,4955.4159616735,-1001.7344213449,246.7406844697,-37033.8483393298,-8417.196108158,570.1000585924,-1879.1377891834,3192.9856276932,15693.2711228454,7248.4007024443,3882.6289031449,10342.0746397249,4460.184736972,-9.4564118942,6769.0291498313,6610.1229343272,13695.652601562,880.8293546364,-2411.8867084763,-1168.5862024649,-6852.3998234085,-16684.3430078961,2131.4584155785,19891.6924972864,753.576358248,-15.0000248246,-13482.9261005673,-12008.5383483224,240.71461877,-7795.8899858195,11880.0404739555,-0.2276535071,1277.552273448,1.0747305475,-5050.1070012154,-5299.6066483973,-1555.3840141643,-2172.1030190641,2770.8783259995,4.6802126667,-3079.5204112429,1576.0679175905,-6340.3503230978,-2375.6753196232,8161.0160834767,-10156.7962835929,6435.4971648918,1228.7069737762,-2574.1769558855,5733.1722687459,704.7802874491,-4951.2736677694,9935.3146904352,-2434.3080609894,9304.9673290026,154.0700045565,3171.9677392488,-8378.1346256777,-3478.3869984758,-3171.9177912865,5477.2207110714,-7214.1098583005,-1658.6483468164,1866.9813887725,-50.3611171306,401.1601387941,7.8928504689,-1380.0937883384,-4618.4157205196,-6249.5239736222,-5.8577116279,4331.8465641645,-5201.9862459142,9492.8084560745,13.7085695753,-1299.8505592594,5238.0593232841,932.4257365051,-3852.3560475541,206.7008663649,-1099.0182225621,-3931.8305201514,-5863.0765424168,12415.167513216,1940.1475220428,6590.479082488,184.1290533801,-4891.9318655053,3429.3110474096,-8084.328551475,1.395848459,-2362.2232076837,11029.611689728,-4.4803404826,3302.9138466302,7065.7571570926,-0.3059134545,5559.5921650403,-8949.6999011604,-3835.3978755617,-13220.5628603566,2820.8147014205,88772.8254401687,-3263.6811437505,-28.820808574,21949.697430589,38479.2023006414,6431.4935704292,18761.3479649273,-5371.1036707677,35743.7581381979,63857.048799345,10461.8289166033,-182.279360323,47084.0672683174,50782.6129380862,8319.1614080412,-5675.3720220424,16786.2105631024,-21870.2581993099,5698.412197572,-20168.7297378573,6699.0634252098,25078.96033101,78634.3740262036,-736.7136567904,6108.1705713852,38787.5033533095,-333.8405785841,-20.8393935888,9910.3215698706,-1810.7237335059,-4896.3348337024,86737.3612478594,36448.8162876954,-13771.7446117145,2730.1802760363,27957.3462660195,-11746.9793294043,-4425.0188131815,9679.2479726568,-12818.4497494264,503.0287093882,5.6831943337,35675.4610331192,47830.2849091831,-3866.5013637614,-4828.7157139326,30197.8171378261,18673.4247000724,252.8810538678,42502.6974414068,37641.617963199,14630.9537882574,-67.0011906662,-133.7263513403,74951.5011488028,39264.8896720523,13360.1822685098,-883.450871449,-8212.5003764916,-0.1124830207,0.9177949759,-55.7439948116,1.1108315029,1.7409188521,0.1080662182,8.1049089811,0.6900855125,0.4164351301,0.1125840452,3.9284272695,0.4702723978,-2.4493045715,0.4515181127,0.7713342995,-4.2280715409,373.4006909392,-0.0400646458,6.9854497301,3.336090262,0.8292496377,0.4315138352,0.9433050126,1.6509813756,0.5875839759,0.3483217805,6.6339075248,0.6035184201,4.6062828519,25.7750007356,-4072.634884817,0.8438497088,-13.8662654443,-40.577108948,1.1805273369,0.0528028323,4.5095385498,3.1325248231,0.170511329,36.3503635558,1166.3945129302,-0.0463369333,1.4720473477,1.1435956295,1.3336228044,0.4295787312,-34.9102298123,24.3530694856,3.3749541311,6.612566327,0.3871269305,79.7101739917,0.7252935005,1.1662160088,27.6206375339,0.4886614295,0.5760178516,-10.810587346,1.7660125214,6.2754938825,3.2213408701,3408.6493895006,0.4213853565,2771.9494389241,0.8015718863,-0.9232663617,0.5267839124,10.8325046905,-0.895275555,0.2494460841,-0.8981349427,5.5629977154,0.1778608274,-11.7072949614,-0.8861850451,3.2366683773,-1.0722774346,-27.5299739906,-0.03733338,-0.3495156887,11.906107971,-7.5379175514,-0.9554952416,5.6498776603,3.1811933126,-0.3425845556,0.0991408646,-0.1700022455,0.8808199296,-0.5055309857,-0.5229504317,5.539011846,-0.75920312,3.4538764956,113.4014627387,-2141.3623589954,-0.5272014101,47.2265253796,24.630461506,-0.8776221133,0.44873264,-5230.1035338906,1.57596848,-0.8258280981,326.8016354188,-536.50614088,-0.1777625748,0.4569084957,-0.4426508034,-1.9265485121,-0.2898882165,229.0954193724,17236.3538269336,3.4530948695,6.9309754016,-0.8664557119,-4566.1572410158,-0.5161003142,-0.4572879669,-384.2652635305,-0.9702652898,0.3261396806,-42.3039828082,0.7378511389,167.2757786567,2.6257377477,-2940.5182625385,0.0846935286,4089.1920511818,-0.9294224108,-2.381452104,30229.556192078,-17859.9002793429,-3628.1704057477,24005.4548089342,-8331.1668236326,-21048.0208946405,-2720.7414768599,-1.3915114752,-35620.2233013849,13832.4694925791,6676.676161154,-27970.1379484519,12977.4213497662,14985.4318711146,-1027.2877494446,-19341.1220427358,-10451.713496732,17922.7262676006,-24250.1154489402,1892.7594265587,-4104.281685294,40148.2515369021,10412.3716927697,2552.9473749055,16677.7024168683,11422.7956180341,-6294.7923404691,-43028.9724969504,683.8878074168,-4112.4744701578,12441.2477100425,-4142.8558970808,-186.7623274381,-13199.70222846,-271.0102780259,-10505.3823274448,-38085.0664287204,-14882.5359260401,-14569.1173075475,1726.8613650836,27666.7541879131,16659.159477012,540.156413989,-863.1488037395,-2383.8905104164,229.076062961,47.6474066994,406.7181512767,-2858.2810044482,25880.9364431454,-7282.4891321652,-7293.5219857486,56723.7369082614,9096.4175115629,-9213.9590075633,14021.3130485906,28044.561768307,-36767.7826618805,6.9060775355,-50696.5106552047,-9806.6002975648,30037.4922512598,-5243.4083260864,16728.2940121171,-1.5183909899,-0.8532314846,-2.3045336022,-0.6565204746,-1.4833617135,0.1256746593,5.5966996283,-0.0593804586,11.5802290624,-0.5026499304,5.0938091307,-1.6285213986,1.667743527,-8.5701945965,-0.0886594529,-9.2756158771,1.3044302703,-4.9331256277,2.1236226682,5.7016876735,-0.3927317307,-1.0671306973,-1.0752115068,-1.1618425981,-0.9582970168,0.0062541623,3.8874533058,0.1664343118,5.0739195953,48.1205726445,873.8772070819,-0.557268137,-9.2668860534,114.093039401,-2.2251860361,-0.5765988292,1634.0237227882,0.8445557761,-1.6437875235,-154.2914621235,168.592732666,-0.477300155,-0.8768372839,0.0579904388,-11.5808547761,0.263875622,12.229234767,159.6779209874,1.6753650572,1.4410283737,-0.857055462,4797.6532383052,-0.7009664215,-1.1698835627,1976.3121311974,-1.0655035761,-5.4727609351,6.6068292432,1.1708046633,2.9720978313,5.6603498429,-49.5231794525,-1.4981484611,1129.6644198716,-0.7834125704,-2.0151512817,7.6672608072,32.222712592,0.3962170245,1.0629300506,-343.2451803473,7.4507698628,27.0012139527,65.9315767631,0.0884490661,5.3682173347,-9.5870972553,-1.3872995954,28.0743069758,-4091.3116305247,-1143.3096640974,933.7684582135,-1.4065715574,390.5389764938,3.449967816,-789.7513854316,0.7058127209,0.1889679093,-12.8665313615,284.0810170047,1.3397140428,6.06416251,1.3773438394,-56.9972793268,4510.783315657,1326.9572605122,0.1265913874,195.1835482981,5.9962528758,0.6009371032,1.5890342496,-126.123278796,5.7010735034,-0.4348606331,-3819.2313038797,-306.8533007065,2.034301612,-2.8284486074,-1.2791354876,-10.0293231128,0.5658044091,-290.9925266565,-42.3065068173,25.5612951782,3.4626637484,3.2383157105,-7.6771469404,0.2239772228,-0.0606274869,3259.3976737514,-0.1032758054,-1503.1334472052,939.4947239324,-2944.6474928737,-6.1395220013,-19.0939983362,316.2083549025,0.6712915777,-100.440505944,9.1252765359,0.9008142624,-2.4411298004,-120.0413614548,454.2119184198,-0.210432347,18.2783141599,4330.4299003594,15.9143021197,-97.9830801451,34.1297110613,4.1392494283,-1656.9718138485,97.6903572379,-4.8465681762,-13.3822474106,-253.6499625581,-909.6366631585,-1.1176714582,1137.6840707198,-52.292387488,-798.5831065541,-1143.3411644383,-1.8280419931,-80.5814858652,-2.6185215127,65.8369279654,-10.2240858671,16.107375093,342.6564990261,330.8551158154,-1445.3216591867,1341.1280149848,-188.4322483455,-1.2294936502,0.4760808978,157.5336717453,1640.8882139139,100.6458674191,53.6133102484,-3901.5410558978,885.0616809842,-12.9093744983,-209.2870607715,46.1082360711,-3.9361756633,1059.1812967501,-376.4396793734,-15.507215763,-106.7302265937,43.1784918946,-2.1800968859,-311.1209309546,2346.2458822112,-96.461960703,2969.7696946514,0.3070458497,-2981.3855012343,367.04592721,-4104.761987272,8.5674978025,-437.3622402626,-2396.6141433292,-4.0101038699,3447.7814348406,-42.6157360315,-2.8615800723,1488.7763082806,13379.6924636689,-10688.1156534041,26789.9761306188,-4784.2082532112,-23343.8159903286,3666.3858774409,-17.863812669,-12715.5644645863,-20244.5989471529,24609.4568437653,-22019.0732648022,2436.9100251742,1710.8859540826,-8395.5092654615,24147.028168415,2852.4270074198,-35222.6173855604,17274.803059402,11552.5723470046,-570.3280845631,4568.2298102584,22043.2137627101,376.7610875739,13537.8078618697,-25040.9255865328,-4771.4769594277,-19935.3965795775,2481.8418462655,1639.1288247019,1346.1571741976,-822.7309131351,-16.3110429123,-3940.1510412802,87.6752886204,-4561.5410469592,1218.9118587565,-4570.3016470097,18686.7200823179,-2468.7512033042,-4004.8857338504,35917.382129114,1621.5554574595,-990.1285241392,3090.9549530893,233.8853178374,2.0924625946,-16308.7294630016,-6859.7460836934,-1798.6668958319,-5439.1630650606,-25641.410996807,-4402.878106927,-285.5005765639,-23996.7578394154,-11930.2856501988,18.4083254262,4808.551750564,1.9282082561,-7033.4897743892,-3067.7351038041,89.3522987633,4078.5175313941,1715.6899520338,-1.2130389757,-1.8609260431,-14.8973818643,-4.3002609418,-1.9824073584,-2.1038000516,-3.1713526825,-1.8557291673,-22.9993259713,-3.2558705853,-2.324871318,-2.8923683493,2.6371347235,-2.8778878012,-2.3833924615,-3.90459999,139.9835973095,-2.1264324984,-3.4818959692,-3.2216253791,-2.3897380299,-1.3893427188,-1.4373330559,-1.9759320042,-1.4065283874,-2.2639264009,-4.8321523502,-1.9684249291,-2.3711523704,-35.8512604478,726.9813191304,-1.7577894812,-713.4609400882,192.1552423801,-2.3020592297,-1.7752116455,5927.4635748773,-2.8981865439,-2.0732539555,-66.8052448989,656.276693448,-1.0796506138,-2.6995754418,-1.2855457075,-3.9650148477,-2.5073897549,-246.1829269966,1595.048699892,-15.0665642139,-3.9390649603,-1.5676981328,12265.1564433824,-2.3656520169,-2.5015811633,267.2551053737,-1.9238383311,-4.9659737738,-133.3787993829,120.5584975032,-45.6093227472,-2.4943225488,99.5080589125,-5.7706923846,1852.1750686972,-1.7687802437,-1.1958923626,2557.4582662769,4969.6502350979,-1104.0507254408,14568.7383094859,-2685.1862848286,-36472.6084668094,789.0027835105,-6.7809295603,-23060.4728513039,-10030.0496775445,4258.1492109458,-26737.2496626826,9065.8861952913,-12722.0869119553,-39208.659761926,16943.6458596323,-8429.6141718329,-1866.7422899345,-32368.4696705694,6139.3006310565,10228.5328954608,10373.582315812,23098.9332667052,823.5539891417,39308.3652243576,377.495350811,-27707.271695337,-51429.4065376239,4844.3466466684,3063.2695641111,-838.5445226535,-1017.4726248863,-3.9241294341,4263.8363379398,106.167529311,-14550.9142485867,-45129.9450893688,-12459.6755178297,10042.3468461287,893.9655499782,9367.1659865121,24842.4086357938,10825.911529872,6547.0318236456,14869.2993829069,-1138.1481697106,-960.4336454889,6209.3409892157,-12479.00633816,16917.3631737428,-1522.1769296215,-18113.2909478756,20583.9838271537,-6112.2553424212,-18389.7001090085,-2113.367630803,2973.0414439277,6787.229382412,29.1779498831,-41360.266217927,-19962.0224885258,942.626384925,4066.6847085487,16144.6579292108,-1.2499984424,-17.5832975575,-80.8377656353,2250.9353452752,-1178.2663675105,-3561.7212319549,-0.5919653164,-0.2185123277,2.0362504898,-2.2923814307,-30.3134412519,-4429.571421557,-381.1809376429,-3273.7113132418,105.6070028174,-18.3698077003,-1271.8311140835,1410.8451076903,1.1819816778,-13.5139144411,-3710.0620476782,-864.8963550269,-38.7623492634,768.8256362757,-2.4079744158,5.5909008321,-6.944059907,-727.4700902804,1.0842382995,2939.8129873931,-2058.1784543501,25.3502800863,145.713675671,-17.5472575655,2465.9068544286,-4.3115527542,1261.1638268158,-1.4205031861,-1.4980648202,4545.7430768104,132.0674605578,-847.192926542,-2.1049544004,646.8934441122,-1283.9776241962,3.4471336757,-411.6750254052,30.4267849216,-8.1444075392,6.6810954921,-2476.9909444088,-1603.4264370912,2064.0350882134,-48.2632457671,-3644.4404643974,-1.930303671,653.200011729,-9.4392629727,395.9811934952,1.8915300729,1.3769308792,5545.9714705465,-3.0619053061,-4781.1205949113,-1.4860336326,-2.4471919474,-0.0173432611,-628.6644039889,-0.1835143614,0.4744974469,-1.0142173336,5.5023718427,-0.5140038897,-3.2525295714,-2.3650289386,2.5311292686,-1.3714396336,-0.4332675399,-1.3636500058,-0.488314625,-432.676699135,-233.4860491431,-66.6321228729,2.5979411737,2.9497707554,0.0739765698,-0.9752856071,-0.5005377375,0.4139610183,-2.0686031158,-1.1586944998,1.8622266891,-0.7693407715,3.0221210237,49.6241136511,3208.2937883806,-0.1577692314,-174.1995756756,123.3497620808,-66.3309938408,-0.4386971917,-1210.4147592916,2.7720734555,-1.9701563769,728.3283096831,-2726.0474429278,-0.6190385182,87.8180362149,-0.0341603507,-0.9453202658,-0.7573570618,-438.4805997167,1.0901497744,3.5683574931,-59.9242889558,-0.5365709348,432.2638066191,-0.7789589867,-2.8094046963,4629.9131242442,-0.9721074491,-2.0933451986,-143.258023005,-23.0964299648,-15.2052790889,2.4446505442,-220.9809058474,-0.8275197541,13680.0953390097,-1.0679413337,-0.548694298,6192.1808855221,-479.9189606291,-13135.473411011,8066.7803169178,-4430.2856329267,-10938.0876657108,1826.153969891,1.6307753996,-19393.9480595275,-9647.2017701764,7404.1815542435,-17998.4698869549,6444.3767034603,2530.9847106079,5937.5902003459,12478.9565591751,-5.1581498961,-9233.5350818828,-5847.4607733412,4659.0797665733,6428.9961731842,1824.2837427989,16876.5710387728,-16.9889781364,-2171.6828140903,2824.4407216019,-8366.1295326307,-19107.6671565962,1983.5621282205,4154.4004545688,5624.0023886544,-616.5736984417,-940.9238650316,769.9717276916,12.6788470788,581.4858223,-18446.6380221541,2452.3620118821,-6549.6182363864,-2955.8050128848,2013.2426788048,23183.1564846871,55.8749395034,30355.8041994997,3207.5513108411,-481.0051043475,0.9317648997,7362.712252746,24034.6080885649,2286.0605220305,1536.4069913919,-4805.481151207,6129.4345493404,-5138.5491494986,-12348.395467629,-2061.729804348,13317.0022374763,3705.2076076765,-0.6785097709,-9233.3042965299,-1504.6430834411,2182.8163149549,-7690.1386965088,2632.9919690089,-1.8076183584,0.4970224395,-24.6322921375,0.4268150812,0.5241191643,0.3833360085,-899.0849715884,-0.3279359712,-0.4542600258,-0.6345462566,3.0290788104,-0.1137939253,-148.1316577845,-0.8876722987,-0.5372255023,-890.951655268,-445.4095780097,0.0752800568,2.700840441,3.5790575339,-0.4985341514,-0.2116323764,0.3907451951,-0.3356491013,0.1034655317,0.6519288158,3.5985821747,0.7255914463,3.2531176856,56.6555254479,-3666.2256745406,0.0164295995,1.7138745185,5.7076180514,-0.2967803967,-0.7699987967,3292.9656335249,2.7218081562,-1.9579403457,932.9676160536,42.2681519919,0.431376078,-3.9175097766,-0.8144581576,7.3659983095,-0.6332915818,-254.4118583566,11.6870093421,6.7379864476,5.8688351099,0.0870403338,6907.4505066569,0.1561512378,-0.2973720392,-6679.1666258112,1.6686769917,0.5587785925,0.8727045388,-0.3499118695,-5.1028008199,2.831044129,-4375.1779998284,0.5014954937,-4272.3531022133,-0.0744027721,0.4322657141,6.5560423856,-1.3900301479,208.5219833522,-2.5210402874,-187.3488391648,0.4926902661,-624.1799575925,45.8524269052,2003.5197178239,-902.0790165757,-44.8565530408,618.5897085448,-4563.1074138363,592.9238380899,-1473.5009434182,825.0800084056,-126.6048279313,1008.3428898731,496.7098796999,-330.1843146972,115.16400284,8.5536099996,-953.0440799592,72.5324742171,-59.6242845477,-6.9969020419,271.5093069681,30.1655037654,113.4938674246,-9844.8285978995,843.1690088043,-933.7987916228,-413.127811878,41.711059066,0.4168379126,1386.2323703428,-0.9758690209,396.7775601464,-2226.5064584222,-6820.6674436465,1.4024839439,-0.2280140048,0.1652510619,-3583.8063968671,-1777.6738936131,-10.7306643561,3.1674712031,4.1118166491,2473.1976978499,-521.3342287271,-2782.3297949805,-2.0883499074,6.8625490097,6814.1157568905,1339.9743151445,-292.4645814228,-515.9442822995,574.882697261,661.5780704554,-244.0344441717,3811.3774815606,790.5072746676,-9647.3973586355,-368.1694049048,-0.9924085874,-1.7574142181,-0.6023789277,-2.8461648287,-1.2659076926,-1.9568187198,5.403466045,-1.4391168637,1.3135901899,-2.3201566865,2.4923812311,-7.4573428827,-0.2801226846,-7.0391098157,-0.7435265479,10.869387272,-529.8764365763,-1.747347324,0.3675220585,2.4243447643,-1.8915207472,-2.0631881988,-1.0737133055,-1.2541553047,-0.7939912427,-1.5468764137,3.6395785136,-1.6389525098,2.0827539043,380.3237785364,-233.5762902702,-0.7296543002,30.1725147939,-297.690559277,-1.9400836588,-2.3801456089,-2.0898081026,3.9587029344,-1.195315568,0.1741333186,165.0110170892,-1.3682845613,-1.83801511,-1.2195654247,-20.8991984328,-1.8977342011,-1671.6781586986,394.1530741141,-15.2403269157,4.2163613786,-1.7261596217,-3.1984064517,-2.0539849713,-3.4824879779,-301.0541117551,-1.2405351005,-8.6026990076,-2.6159657069,11.8339086121,-35.680397206,1.6541981293,-420.2929522039,-4.1969073763,2667.5123439617,-0.6211521556,-1.3357998656,-0.1387021345,-18.3108928343,-0.6396037209,0.633564574,-5.2450363632,5.8278087959,-0.058074933,4.93462342,0.2568435058,3.9361631489,0.5680032871,0.0756975561,-0.1411468101,-0.0555184983,0.1653442733,21.1548572385,0.2005045437,6.500050527,3.3374530405,-1.1295435421,0.2202651069,-0.5653732844,-13.7500646046,0.3744261675,-0.3820556798,6.7658095413,-0.461506172,2.6503231147,722.9851497845,-1703.6271392098,0.0137285093,1.7708042897,10.3079653411,0.2079670528,-0.688889731,-4470.3966430317,5.3870958033,-0.3030828709,203.7002285112,1444.2890864701,0.3072147305,-0.9496832203,-0.0566164834,-155.8319007062,-0.4181777756,-24.4827920142,7085.0879372858,7.9514339432,6.333175608,-0.317337475,-2642.0241917532,0.4465111158,-0.3689169099,-1098.7918019554,-0.550286233,-0.6774119137,1.2494162756,-0.3097405306,223.9515030729,3.4396598112,-352.5632551339,0.3174963162,-3883.2650948736,-0.7773407763,-1.8384744478,-7727.2375921599,-18009.7091117848,22091.1086951457,-26591.1249213705,1037.2631610161,6968.2158189309,139.9913570199,32.6556050471,17339.4975984096,22189.8620209368,-24650.2413503373,16008.5429483054,17120.5075524134,-21051.1828070726,-2414.5398371447,-17569.9472420213,5642.784778931,33837.9619639488,-31881.324752171,-11841.9974881689,5459.5459437224,-5657.1684419032,-15290.0489215882,4960.7425391228,10221.7005334003,27859.0681650341,-584.2725856016,21237.8188735206,-4305.52111534,2706.2255865864,-3394.0361825262,-0.1050796329,1087.9269744802,16573.326834137,5.4218086011,8811.8216364142,18084.0117500798,6732.7601002684,-18029.2492817263,1492.1254779472,-720.6001321724,-42674.9771868529,3177.7175172385,1211.3714397379,7310.884357565,0.6566526815,-8.6565013849,2430.3075140697,-21865.0830412627,10259.0156013307,3826.4146606969,24305.2883477632,16070.2117609386,2947.4700036894,16475.3548726413,17669.8678207352,-28003.9919536914,6530.6530727213,-299.5713876713,-1114.1219553935,10896.1553757045,4871.3926471534,-572.2862215827,3384.9623812373,-1.986774969,1.6697853249,9.7929414253,5.5583201564,0.1919470443,0.5334547582,3.8364530914,-1.7303975683,0.2096109151,0.4251422706,4.2767791381,-6.0053330693,-10.3414225658,-97.1944790077,-1113.7972966068,-1358.9990072523,-4.2701239681,-0.6146764609,3.2719576869,4.3318309808,-0.018571121,-0.4729184349,0.4439415205,12.6754145781,0.1224241941,-1.1186829634,3.2217339517,2.6578366034,2.9749948946,4.0793734389,1441.2290748947,0.3530454323,69.1482288001,0.2428310363,0.7273510964,9.1064588932,-616.6000984482,1.3852392556,0.228413254,324.5581317534,115.8041362706,-0.1396140976,-0.2013161451,0.2308082424,-1088.1362617272,0.4359104697,115.5339222915,-27.8168458779,3.5153139025,6.78162854,-0.4059113847,-368.0227929038,0.7101680938,0.4246902834,932.1525225448,-0.2126810524,-87.4154504296,-12.0007019224,-248.7009913218,116.287525928,4.2171670242,529.7418456161,-0.0934502517,-45.2830228143,0.2420319862,-2.0245887716,-0.4817371337,-11.9762194507,-0.2964908437,-0.3632542822,0.6279774384,3.015044785,-0.1265038221,1.7107592565,-0.2071745136,5.5909869378,0.2060705985,5.5049690246,0.0894671939,-0.0610463847,3.2759066387,-51.3292404054,0.3508594863,3.7485858151,5.7145834397,0.5149498263,0.6648832079,0.5427301978,0.3647544161,0.3466378747,0.0704647644,3.4784889243,-0.1517963401,6.4527125944,-1.3246591891,3.5268900875,0.9949346419,-19.9527146782,0.2376590619,-0.4097304169,-0.447776736,1.416300585,2.7659735915,0.1083878714,12.6395765885,-16.7016810918,0.8660575328,-5.5051293534,0.5951063249,0.6642088378,0.3780095895,-15.8296303825,0.5373818139,6.1990069906,3.6126670036,0.1963199637,19.0119813363,0.2718816698,-0.1759965199,43.4701591606,-0.38838131,0.1155678687,-1937.7376342143,-0.5584391545,5.2808485547,5.9186013672,1971.6070594327,-0.5248093758,-41.6361972533,-0.2831331624,-0.249460249,0.4267778856,1.0992623785,0.3640528551,-0.0923391654,-0.5825311783,2.6013737171,-0.0858447867,-0.4041768801,0.2746073796,2.989119591,-0.9559857977,0.1040031058,0.3395841259,-0.0682927712,0.2527864698,-1.4361440185,0.0077477219,5.7690492746,3.0506981219,-0.5193754464,-0.7752606111,-0.552017264,-0.731727562,-19.8556089063,-0.0563112496,2.6296065606,-0.375306777,3.8612483655,83.2421066421,1380.1664723782,-0.2217603878,1.8007883361,11.2620046646,0.4371497865,0.3956701521,-1891.7220971548,3.0013781182,0.1888379329,1401.3369947411,2454.1769591506,0.5223292602,-0.5341379942,-0.6248165988,-0.7262283647,-0.8079635163,1040.2872251295,7061.4285167146,6.4956595071,6.3704398657,-0.3674253962,-2931.1942631439,0.3981638151,-0.3436539967,-1651.9293236012,-0.0910465008,-0.8099841401,-0.3466287839,-570.6984025766,40.3413091006,3.4378110524,-3078.2637567119,-0.701197055,-4469.2943267142,-0.7843551585,0.4461558632,-0.1901566407,-94.9165758874,-0.1040814993,-0.0733543766,0.0489706833,6.4065312582,-0.8002741002,-1.7183243735,-0.1868186856,5.6045371387,-0.1821519011,-4.2623183014,-0.2889358057,0.4464208431,-2623.6638713747,1574.1921717076,0.7575891153,6.2038689921,6.7735242007,0.1765945217,-0.3247803394,0.296720758,0.5102814855,0.8847307371,-0.4417317258,5.4563639858,0.6767955887,3.485377671,196.9234336799,-3175.2886101834,0.847877444,6171.6146373701,-2.0646114219,0.7999992556,-0.6553254053,-13.4891796657,6.0968135015,0.5035078247,2150.3289650168,-5891.0900295281,0.2044544216,3.1122646599,0.0839513183,-0.4938942929,-0.8482375467,519.3161768484,23583.8057844448,6.6504329254,5.4271745094,0.8453662641,2052.1510454914,0.6035370597,0.4301952935,2332.1176631762,0.3173371746,-0.2891658979,-88.5331061627,0.3952117493,-15.6935058897,6.1227117626,-5248.9677803019,-0.6840386856,6950.3986569153,0.1890355289,0.2182677811,45.7447287208,-8.301568495,-565.62146782,2544.0897752844,-4.6738749919,-3834.7654838491,604.7034887652,138.970951168,-1313.5453087121,137.1038312189,4105.7507992672,-4801.8365954394,-2757.561174647,-182.7817909663,-5468.0900353417,3639.5556352841,147.6590118142,-1058.565161201,-6714.5809738882,1683.184052658,-95.7374127776,-2050.2226335436,4842.6761962792,479.2286056958,552.3166703724,2167.5731999213,-1889.3757166927,-3676.2364735742,1780.8345123726,-3091.6855498483,-3459.3221384574
   78.5777059621,-981.0479216635,-48.9055685439,42.2472988118,-9349.5684844213,-12696.2861779524,3375.8567616429,-3437.1689504346,1271.7698245389,8.4371668637,10755.140102901,123.7958071512,-2659.5668993543,2360.5451738091,324.7763889617,-21.0990870427,5087.0931889909,6788.0511828553,60.3916079801,-2075.849440282,-4240.0865818147,-45.868997675,-9212.7411099476,-2953.3933005353,-72.2283501243,581.5385385484,-2580.8294440733,-25.5130369131,249.2022937417,1569.9969556498,-10.3775778999,2731.9818797579,3482.0917832664,-0.4936286971,5482.7891303324,-11010.1680166776,2264.3278101787,25464.5206044468,-4435.0495970401,-22066.7463319274,6663.0708872543,-234.6127980014,-32850.5093445249,-16554.3320350368,7796.7741512668,-36809.7479216947,-24012.288265749,-3614.6959918955,-34837.8872931017,27779.4200168752,6026.4637220455,-1576.1028046044,-47771.0434473802,10307.960188554,19742.8100285002,4920.8589358718,32338.6882083765,11811.0663468065,15416.5296089691,-25920.7463573764,-7524.4040005856,-46645.9059442318,2613.4937188842,-4270.4578497072,541.2983553821,-1288.4693391286,-87.7494710049,8742.3041788585,-168.4136153525,3005.1756509256,-26712.3116819677,13761.1275963986,8851.0768746867,2742.9417210618,193.6465839656,18885.1561586169,20259.0606549524,24357.5328801272,14315.2711833155,1372.3326202797,103.6320898881,-6507.6663473363,5865.7782994327,8643.3792595242,-206.7474607203,4563.7510777268,11840.3392492062,-18.0370779433,-21997.3349045075,13148.9016245324,19439.9079241205,509.2237367072,-142.2296890955,-33867.8397741905,12531.3125983612,14338.2304197462,-3741.4011347819,16058.588990366,-0.8611100781,-1.1302919552,-12.2520519267,-2.2982616567,-0.2697259755,-1.0413801352,2.8241920937,-1.1168599249,-0.2166277263,-0.7247360798,2.178866604,-2.9906757375,1.2992712598,-2.5285570021,-1.1570202971,-44.4625483693,0.9171137725,-1.4691732335,2.4727534659,3.1086218854,-0.2026646682,-0.3893163976,-0.9654558914,-0.7120286716,-0.2070480223,-0.6345957185,1.7688990789,-0.771199796,3.3195411951,835.9768713008,-1442.0609401951,-0.0117248562,1587.5900776273,176.5174088634,-1.8790872309,-0.4843334393,296.8484980206,1.7108114108,-1.8458198914,4671.7322725597,2916.9591123401,-0.8554906229,-51.2022556763,0.1102066272,-1.9038255453,-0.0012382188,-28.9964151449,2996.7941346321,2.615589082,5.8929313279,-1.0570899151,-3254.812981107,-0.725716472,-1.2619912698,61.928180972,-1.3406771707,-3.6901435075,2.4502272121,-0.8376515131,18.3358155227,2.7597564636,-823.3424515671,-0.9556105242,-3346.6822275749,-0.8223365179,-2.5796756174,9970.8492566143,102757.3493821257,15638.343864787,21824.8834251054,-1190.3180806135,57103.024219731,-10098.5144841147,22959.3049819883,10832.2367800033,6529.5505228544,37525.0654072144,32906.6944057317,-45501.8897394497,32542.3911552221,10303.6345067454,42546.1959376506,-8333.8659737342,-5729.5161261922,38199.2449164316,32188.0093937012,49825.8685076072,26638.9021629472,48653.9543105356,64343.1119601845,72621.0089504428,50086.1361027315,21591.0320203072,7827.1379266617,64271.3047795792,13440.9506479667,29185.5459512995,51081.1383944318,-0.1393528337,33916.5171737797,13567.6711589411,10181.2587502866,36853.3343919373,-22999.0983835993,40475.8773855105,-49381.5045100149,35667.4961385808,17578.5878280533,12902.2009544231,34724.0214587541,27842.5613333459,8147.1350992163,53647.717233388,25379.8953403004,24194.177987924,1934.1788034529,-21052.2530032232,27820.9080013116,38625.3751893461,42240.5928812516,31104.5058378197,32301.5324811872,10217.0431257862,42496.0116752805,27741.9780371017,23553.6835242307,16936.6946542917,33699.1643035732,13870.6259238492,70984.3379414858,9175.4519910853,-0.9926204849,-6540.2307598339,7831.1445049186,10736.6833455614,7407.3313507916,-8568.9362864115,-11499.0665224665,-14241.4414847178,8417.3697729933,19214.7020105588,11566.8198793443,10387.0389817737,1313.079690504,13200.48067856,14755.6095407734,11248.3569594358,10487.1598322788,-2770.2254709329,9962.3888842739,17506.124728279,15482.8578824254,-18886.0102282065,9737.9247433334,-5589.2534421749,13783.2265618489,3305.6094523695,8009.075365748,16026.0744425077,-11566.2499696173,-4295.6781287489,-11070.0952053184,-25053.0355151604,14238.2690319302,-0.6107202431,12001.8789164372,8585.0200329382,6572.1595364515,28640.1101546824,803.5254582056,41932.1823816899,-19359.276456911,16837.32459813,12552.8072577598,-3363.2565652707,25979.3932262813,23898.4689817848,-156.0828535822,41098.047015659,16706.6055760115,25942.6431061918,2383.0784722221,-7789.6231925146,22846.7899947614,34667.4904508946,49950.4336213551,28921.6492354563,26471.2238752684,8400.0554406311,40413.9882631112,19958.8573112971,7712.8445856745,18209.2141240777,38906.7046580556,13644.6072170915,56266.9145262079,17621.6130897094,0.4002962977,6162.834485855,-6327.9517310157,8455.6399193158,3897.1623772992,1870.7153303642,28405.3334398722,-20049.8995281273,6025.8986607045,13580.5525988428,-2665.7843604107,9951.0039047852,14031.3405955571,11005.1769137635,29248.8165878405,5273.4515085971,5637.6690795405,-4506.2615381241,-24659.6302503328,2944.763671357,11820.3202962541,13728.296139222,10839.936321411,6369.3987495411,-1784.2417834763,23677.3317727186,3572.3744810563,10370.960700581,5167.9116664361,13286.4243983962,1633.1457154829,45701.7835124403,2424.2276950002,-0.1457643983,-14933.8299734598,11101.4316174007,48063.525712313,-4723.2087631101,-16332.6871707631,48984.8878270988,-24797.7835284377,-5079.0462983384,53975.3147505795,1307.0910480286,54604.4821297484,26153.2810747611,65081.4259075245,44930.2800132686,33890.6405444328,51093.1775816737,-25568.3740054032,-23740.3688896356,50518.4182999611,109092.1875484884,42916.5480799124,48921.5891740882,-44943.2424314195,12486.5367439642,43523.5670528595,30881.4036212079,-11247.1093830673,80092.654860312,37777.5073573165,-16475.7058295265,88901.3734383471,-66014.9398925093,0.411969781,28965.8892807708,9636.6210541259,-12177.9868499409,58112.3899430262,-3344.3826783379,-2188.8193432739,-13498.4315525778,27371.5222904315,-8559.9055837437,3971.157802584,2692.3453531807,14304.3218430934,-23972.9910816769,23917.7352078052,5090.8441161449,-5748.5863017871,20942.5457570808,4561.0528384322,-15238.747984309,-22147.0939592179,-20732.598355185,-11611.4882584431,60903.1075410004,-6864.1458281278,10278.3784265886,24329.3636602434,25114.4667914733,-37979.5150384009,14307.0261450643,31443.6174153623,-11256.5536424933,56398.2561610315,-1.0019641084,5732.9136106576,14438.5531454588,19354.9633720755,-15590.4550217163,4555.4348881114,-2914.5489987974,-8207.1784195902,4526.9006916092,24561.9914767482,17000.7437688289,4860.1924389478,6388.4925137388,14530.8725196493,-3628.4416560518,996.3771425675,15386.7521019557,9849.8860078827,23715.4641116741,6064.8759525932,-1457.9722257944,-14415.3430567117,10707.3284015565,1825.99767049,17422.4117149329,-1019.0163929441,-2205.0532866352,16757.9576182821,-15926.1555783335,-1926.7311775939,8962.34537117,-32765.7949061827,16859.7661198934,-1.1766976879,-17852.9111582115,14998.5686939381,59846.155436432,17453.107437564,-14666.6103492166,44567.4129518317,-38705.7642645766,11356.4349816316,59975.6391011614,18743.1347792977,25291.1594660208,40844.555371878,65923.5134251973,59897.7403310562,33893.1355788345,22524.660430183,-24814.2604096719,-25334.6862014582,43235.5229348253,80611.4736512269,-5358.2536708773,46721.8072501345,-14808.3550259155,-1801.1956423058,31077.8768997967,13982.8629576621,19607.2770417308,54774.4830089226,20297.1912959536,-33060.5905071147,44283.4777439067,-50440.4497201424,-1.4677978751,-17369.3722787898,42114.6699013037,49751.9198012978,-14899.2532764513,-6112.4921763537,43294.5272427588,-16386.6970282365,3485.0121956126,32772.4155655641,34194.9676952707,32595.1259036878,45117.523228324,46003.837034589,6959.1124236215,23824.1211460999,15997.5960369575,-17800.2445211116,-13105.2881731623,54789.7695504296,59979.2755167798,45699.2349292783,62696.5971055442,-13047.0422602665,23609.1183324532,31121.4397810665,-13705.9517146391,-7952.8608587864,51426.4881459398,25186.2117257937,-8458.4054925056,66453.9642973162,-54023.5745549282,-0.7723242118,2421.4502463644,16520.5772360456,4398.526407031,10014.2203194496,-3007.125481598,37119.7376540282,-10767.03504313,14467.454135382,6897.3480225676,-3401.8793754912,15552.7893228706,20558.6568076543,3624.7610427589,25951.8080872958,8715.5801206575,15056.9949166165,-2778.4123158359,-16549.2577940014,10470.6483246205,18813.0130971338,40171.0045953981,19160.0024570627,13179.1592887263,21393.451964026,31238.7257152728,9566.2673269606,9171.8484715129,37772.5722604538,28190.5872286553,-125.4442618529,62029.4532099084,3027.2942631409,-1.0489467208,-28761.249183885,5870.5622692639,34468.2936114723,29530.3578772651,-687.8787773953,20009.1537668037,-12101.0483235919,2601.0250764568,26260.6265547534,3606.386421761,16413.6207468623,22012.8249494067,36363.5441510398,33896.6303885796,20629.2896985795,451.6451165788,-11030.7411717452,-4579.9827032978,37795.8379019879,46840.23840864,-30144.3280022407,8316.3969396855,-26988.2589787974,-6831.0268236085,27498.7633380987,-2912.5684618179,13794.1173359912,15096.7625178153,5480.1703344379,-12066.736584869,2252.4541924679,-25511.6484689593,-1.6858150442,-9509.0583386773,-7678.2194478881,7516.6205028162,7782.8493644411,-5739.6190513777,23030.9999832078,-17056.4615418802,-453.9752430323,7751.1512498437,-1669.8309578252,11156.8656040474,9008.2769716223,5121.5643208735,15766.4647076096,2001.7298518514,-1526.3432997147,-169.8379426911,-2993.3085223575,8645.5406526618,8210.7137358113,22434.0498864806,17522.429697809,9927.3367901071,-6882.7635361012,15584.7344471353,-13676.6894186456,11729.4117743974,22741.4370789601,15332.6821680571,-7451.9679916988,25619.1906671085,-3921.3094662262,-1.6855626504,6745.589261756,5443.4649363746,11201.6355066027,10824.0942259665,-7009.7116015438,32173.0570295664,-31076.3410617556,17948.0251883836,17673.1540793749,1387.9053279339,23931.5330800047,26493.3167524029,15746.9444545373,33560.5575212349,9072.3871258256,17967.1393690675,-5035.0693600627,-19907.4022693115,20392.3326689216,23690.4195932371,40476.6800542453,16543.0974759451,11843.596202206,9618.9473610922,39838.7414014034,8682.9335426953,9029.626064463,42602.0361900128,28444.593521838,4420.8331920322,62839.4475872743,5909.8925100933,-0.1088671656,-1935.3379776067,-3388.9923254164,-2393.6588509693,7757.0108637803,-4260.2778737548,20668.4632399652,-7960.0632553107,3400.8514032767,-2300.4245971355,5572.5004717704,2723.2777999409,5332.8490318249,-1363.7880818243,16460.6055109086,1710.1653842258,-4062.9518729436,-784.5706886291,-14844.463784026,879.4266469728,1806.4995700577,21777.6470075382,5610.7425027133,-2097.5321039917,-6092.627433909,20381.2009673855,722.7709113992,272.1461075703,34926.3907142697,15942.0943604778,-6116.3378917413,40977.2202801163,-2443.2465224967,-0.5666244253,-322.1379174045,24512.0541521803,5999.4249527862,28285.8975028618,-2263.5206067474,13345.8188523297,-16183.3847810969,29059.0914371884,14143.16734277,-2837.8611705166,37867.2387170764,21286.6360205321,767.7099287578,25884.9473432547,23328.7563892387,31328.5191360378,-1496.9789162571,-14052.1787667037,37538.0607357002,44918.6385933133,12542.3452965893,5499.5109361007,12013.5840950732,28585.4043123414,42791.1095947122,38361.577345058,8476.2192420836,9766.2496152125,28261.4989555167,2403.5332089965,24884.3938248849,10758.117225166,-6.2878572421,-12181.1081307199,-2312.0375224798,12781.3440510467,12854.7955681921,-12267.2854056655,-17514.0458829252,-786.7837762944,7433.3232342357,13996.299236009,13769.7786557306,9642.6160833665,-5151.369890406,17876.9514125077,12289.4546978312,10310.3839707998,10105.4776365009,3320.427911266,6849.8567812029,12231.1322082972,13809.6671964499,-23341.1628745286,570.3131847606,14361.5358597724,-1298.5073674414,-5270.0859407121,6626.9787940692,17977.1275605473,-12851.855799929,-9443.8381275856,-8370.9202383623,-28378.9748176618,7519.7767352844,2.1744142987,-49651.900526544,30981.3908566497,41112.286687531,-19649.2555908322,617.9045922971,19461.9492606099,-5832.126319284,-7138.1412538166,46294.6837940745,19523.2863483265,29632.4313660794,17752.7788204031,51146.1169725028,5251.9230483133,10851.5185891525,24705.8230732957,-29579.4731842851,-13452.6944742693,39773.9955644324,50622.894276927,-12370.0250538124,28526.1750142874,-4910.4936219247,44285.5778269501,11187.1816564792,6683.4147657773,24566.5517510664,5922.8528155504,8374.9056163536,-41318.9296839027,-20406.534550237,-29339.8800434223,-1.2898785673,-39878.2331645977,5940.9407919961,51875.1720207072,-54189.43230632,1085.5071281194,37014.1968522255,-8360.4192364363,-29762.8318529338,47378.0905933248,7943.2839055445,53985.5300935051,875.5503553476,78806.5329854878,-7564.1846617838,13479.6950820501,32190.1901797196,-24601.5210429426,-5783.5065987748,83375.4771390322,116287.5217825535,10875.9736025628,34462.3019943951,-62691.6520473594,3440.6845673372,47289.8134119807,-7203.2396013577,-1210.699939338,36325.9862683256,28288.950190532,-30822.3323723304,67294.2678445508,-68913.6069506885,-2.0726533267,12932.3241364201,12839.1667195762,9187.9765495777,13110.7526078222,2017.9791034265,41574.632324864,-22328.5288722187,20159.995945189,12566.870189592,-5207.3253748169,19968.2463483321,24818.7925975655,7248.5167400931,30466.4274437396,6058.1623136439,24059.92814889,2886.2390503675,-5801.5929814362,13391.413422253,26253.3517379597,49848.8490247455,25209.629693147,16079.8639788607,17044.9413245469,34951.0078114954,12240.7428595474,10641.301657536,38842.2494787001,34878.9624866187,10598.216448564,63788.0376214461,5169.4657804813,-2.688056765,2467.6967132661,10653.1231375359,6544.7499884707,11910.3249529959,-6074.5069986026,23216.8973678445,-10081.1660911984,16028.4983186701,-1869.9129937014,-661.9923753314,27319.5960278164,4281.3252772965,-6775.3453282092,20355.7763546303,2402.5837546714,22229.3766444008,8622.9009302223,-2196.7083920783,18888.6768270518,23290.075651762,12135.2576928158,-4435.5822847806,38026.4905020652,23842.885107641,30574.5523018168,22440.6241173081,12726.7075099492,-135.6420620211,33175.3532938536,10970.5942706654,38974.8199567948,32981.7616234679,-0.3673841496,2309.9985189549,55025.3877918011,20531.8506004969,34193.0942896307,-8089.5361257498,42238.5613418047,-27898.9939796265,37186.563018085,16240.9802983343,5958.1217278336,36802.6196130928,48873.3000578942,-958.1458157326,40016.9241288019,18173.3325078133,26949.1755668806,-6873.8716655101,-22571.2366633809,29319.3489547481,49797.0546098045,42220.6683763024,46288.9112650697,24452.3745265573,29933.1095850197,47963.9294728634,26813.0448733734,12290.8229362759,25228.5543127243,41080.6653653284,6133.6228551283,61960.287224698,150.5264344274,-1.971127831,14326.6769148564,-3098.6973241003,-21791.5777131235,19848.5560787469,-18431.0675433128,12940.5344818723,-3302.7294558777,24312.5242412216,-6722.9020636724,3471.5752453908,23026.005738998,3854.2192178051,-25937.3915442544,26526.5079290196,14986.471296179,16719.061225042,3224.5492011922,-133.2143817792,15310.3152693728,21915.1184199049,13622.4168803806,6742.0969080934,34107.4670788577,22155.7456258039,22126.6333704796,23149.584342723,23684.2479719956,-13514.7762868995,29179.402275843,1691.7851796789,36235.0965904898,55504.0471590135,-1.3306715509,-7883.3176212661,55696.9546800025,11095.7137875498,6713.9211162346,-1411.1045664744,3121.5412697716,-13499.3447901507,28757.8862217633,19488.1683365703,19598.2417155378,17102.4032692627,15660.6676623555,8447.7758556162,26602.1681726235,24154.5614019391,29254.9319297752,4694.5091326044,-297.7999947277,39919.9022982577,23300.223555817,2769.7741634323,8168.2363926007,47842.4967888105,24455.6959585662,15215.0037787573,14173.2987278859,51467.2751287439,-19635.4827924612,14356.1653118309,9773.9183534195,4743.7693653745,43937.8713295421,-2.1451951711,26520.0791817726,54556.4189511428,-27812.6879421937,103076.2436386343,-12052.3146990579,987.3329266255,-21553.8442804131,55464.4981954302,-8111.2536996156,7209.7879662025,-17552.5184710422,53090.0060549632,-53280.8525008656,64092.899538561,-11119.6300974771,5200.1824118383,16442.4552077174,-5637.8988436012,-15313.1333614086,-46395.6515767995,-9258.727627067,-23605.3201890749,121417.6417041886,11789.6017085738,27793.7896989181,46248.0836686013,56872.6703234143,-57171.5071074228,13766.6743734356,22571.5880881612,-40799.3009202059,108165.6738448865,1.0420757107,-15152.5651613578,4871.5187489706,21399.1094796918,-16267.5512846814,-5241.4630101124,39653.1810110709,-18463.2303636782,-6410.6310804159,28796.892887217,2780.3274108977,42977.9819547453,7144.3032054968,31153.344061061,35688.9300181998,21549.0995999773,29217.5853617787,-22652.2391768143,-20343.6731060914,43686.4344655157,69213.7358477895,28898.9424326915,38055.5513979695,-13319.5751668375,27206.7184342913,42303.6312582288,15278.1932339932,-12584.4226367051,51938.166825197,35322.2537368582,-21860.4245641342,69228.5194849795,-43191.2837006235,-1.7441655505,-5684.575894689,6559.8716754351,21779.8589107204,26783.0541121569,-1408.7747170434,36993.9934294665,-15457.7677801821,9138.9096127709,21876.1565543593,3832.7121736847,27674.8781245403,21801.0091180093,31184.0109336047,44535.5652827024,28449.1367753344,20159.1004858606,-14717.0673951177,-21059.1815520328,32066.5688437393,30082.9930748265,31806.3467009669,33934.4006788195,-7916.0914698465,2297.7783146537,38200.2799952295,16013.4695507014,11777.5555188858,54822.2731625818,26428.0348620443,-17812.0744826346,70146.7647448988,-12533.6624753776,0.4132586202,-33158.2755156757,-8630.4795694903,42942.4334890022,-46408.0880561906,-4312.7188837017,52272.0666975644,-17619.237916184,-7642.9098129073,54636.7663229714,11726.4717638031,51759.1769158511,9128.3307342693,75164.3647482889,2281.3699782097,32150.8041963324,45986.9141314882,-23624.2415928793,-13328.3214709703,52411.799860362,97411.0407255633,40186.0188369286,38666.1680767082,-68354.4512376572,10807.9248394334,58270.3450779641,-19231.309257179,-14072.6670282187,93387.6766042366,39444.6143474862,-30065.4112124808,92819.0100148967,-74250.0876579167,-0.1895063075,-10423.0823385462,5969.2821700253,6.3997842357,8682.2396241728,2883.065905578,-18767.0007460804,6830.126961012,4412.8834857641,14613.2805193283,8609.074599124,5979.6061268204,-13086.0357170813,3989.2736699447,-719.7459532202,2142.148403587,14388.6260300701,-9857.2244740387,15283.6288841595,11345.7755894632,9308.6915807563,-17915.0341305092,4755.6677351481,3523.0158529476,7201.9455580232,-9411.1754806891,7962.1055923585,9476.296907529,-24192.4928832843,-7576.2067951928,-19747.134974592,-33248.1327572776,13895.9562364875,-1.3035443456,-32723.9115822282,-20135.9849354542,-15129.2079385351,-14980.9473063691,14178.7236471602,-12261.5277636542,39983.5317496508,-31775.2225075155,-21170.657729006,-17404.9441310089,-33625.8436837215,-27846.6888787324,-10599.5844590492,-28291.2705115825,-12080.702942248,-32146.7176452548,-6953.6831359707,21512.8949100192,-33497.276807793,-42128.1320115882,17315.4032145241,-4733.5867584813,-22110.3887224612,-17577.8007861132,-40100.4171454431,-23055.9000999174,-28126.5742264491,-10047.6984195931,-25968.9406248333,-14725.6591950091,-17856.9620930603,-16004.5387965865,-1.829753766,5035.4248645296,27427.8150502477,10843.9807689996,35390.3568509122,-9174.4796527149,34379.1010652005,-24932.5568330233,29245.1485668494,26546.6059672929,2371.9299894729,31005.7740739279,30823.2023648987,14371.4959495497,59641.7075302881,23585.0687828421,23389.1412684343,-14337.5795110539,-20809.3393111772,31708.2415859375,44049.4250275812,33654.3966503799,39448.4715581437,-5931.6651732666,15298.8226877662,40075.5015222728,29999.8210982668,8334.0428902774,49184.8731852214,33311.4644141892,-9594.6138235382,74249.1363471125,-7430.934277015,-0.2098990882,-29017.676110685,-8875.9820990169,-5158.93364694,-11412.554184825,12353.9812246554,-42175.2149651495,75592.0427085945,-26861.1189895793,-5355.298870731,-7699.7053402453,-26444.6866105698,-30037.981223153,-8316.5696482153,-25128.9375723722,-8066.6300913003,-19578.0291889679,-5453.2340790165,27672.0233352843,-21143.8690431072,-22333.4704543018,-47638.0591099913,-16574.41962382,-33604.0313158997,-9615.7772809765,-35310.7647740096,-13099.2881306153,-12531.9312624746,-46133.5842328163,-36683.6867426427,-17260.9914826942,-67728.7046504866,1282.700782716,-0.2056670619,-18469.2784283209,6143.1999004801,3521.8917151407,-42559.5103402442,27174.2601662654,-30911.7647376521,43673.4370226987,-26781.3701490318,-5024.9952493317,1821.7990671243,-23358.4797959094,-13394.0358107045,2599.6575230798,-43356.4085009881,-28622.1124186073,-11968.636418778,4209.4872693103,18081.6275851381,-20461.021820582,-33937.3494647699,-39557.2581663806,-21473.8774245704,-18742.1111564335,3996.3874773165,-19122.8215959628,-31245.4351934796,1047.874541281,-30413.6540760837,-16029.028975899,5251.4474744263,-50802.7330426488,1320.2405866458,-2.2254346256,-10681.3235599589,18065.7785888585,6692.4973241431,8537.7425307,-5570.8310798497,-15149.5966786936,-3526.2592009522,13653.941815881,14911.3987391247,12821.898385806,12197.2975341983,-641.5630401107,11897.0267386881,9278.6195350536,9020.3858772855,13936.9524954078,-880.9844095398,7801.4434897497,17947.0350236373,19339.5290874707,-10627.3311185261,7897.1081296132,4335.6113310291,15723.6205819447,6497.8715409079,12019.831995884,16491.6689752951,-16007.6344652911,-4147.6501005912,-11634.7409453478,-21455.278129385,8689.0831536515,-2.3744644103,4361.5092801818,231.0588726002,10916.3836778549,-2576.9227414782,-5159.2242252761,-12347.2168809119,-4052.9047387151,-3060.6496070337,16296.5061162248,19538.8613774536,9856.6061218852,-10379.2330034214,15388.3116001841,6432.3851727807,3547.7298218615,15313.4739092435,426.7620753712,7723.5320422194,12022.7459475235,9251.088220018,-24615.6741892057,-5383.2198685112,7008.1996891741,3727.3644057968,-1880.0819406305,1686.1579824316,19156.9389690515,-18360.0925805028,-11028.226674107,1550.3217506342,-28197.2509913542,11393.903131252,-2.1470516251,-39768.8253632698,-14912.4328922333,-13873.667954412,-36906.9205138814,31709.9396602004,-47995.1889966867,67478.0741357555,-37139.2782037823,-18632.0167376997,-14090.0244989544,-35821.7129869054,-40690.4166740959,-13031.3195696809,-58862.198741003,-30325.7917373349,-30295.0019664808,-4516.6772971639,38074.6805534302,-32054.7509315004,-44629.5055451245,-54005.5865118321,-36895.3154523115,-37780.8943144054,-17624.8707402183,-44775.0227279232,-29222.6521343194,-22622.055322087,-32652.3542872957,-42208.6690371466,-8408.7010371792,-77367.6178317214,-13178.5561116461,-3.020789433,-33173.9618161721,-15059.4127638705,45643.7136771371,-35667.687469128,-5880.6938229016,25246.236080683,-19829.9641185155,-27809.6296928871,13138.5037872971,-23.7798113673,33592.0714478197,-2372.6666723678,55247.0722769223,-22157.0256185013,25739.9639057679,38212.5622235523,-19660.7230736261,-13511.454314728,39458.0485344687,83262.901118941,26574.7928031418,48335.2824680787,-73400.1403464691,-1765.8799105955,22023.8379571973,-15887.4585835104,-5265.7622332268,83579.425866715,18840.8930955682,-31912.1244754297,48975.2176638716,-51853.4937108835,-1.0406828183,-2793.0529526171,7089.133307636,24213.3658564504,-4752.3546679584,-5377.6455012452,22865.5955425447,-13243.5368360111,12784.0836699892,32510.4034985464,-7799.6271931499,23593.0389854878,11802.049438146,10236.8078510225,43454.1545442006,29126.2603652688,8597.3569574667,-10585.4496008597,-29100.2636205769,21467.5018501371,49756.9589426887,37907.673412569,44429.6951424747,-13227.9567194644,15433.5702406376,38474.6858862189,33639.4740677608,938.0758683018,37491.2027230953,42249.2480217786,-2376.035054681,66291.2533806906,-29404.2373869562,-0.3732250756,3013.3540106798,-27271.4411462945,-26940.9012605904,24317.9907677792,-8967.0799669419,-13459.7170462481,1557.8127927638,16440.8006137308,-3986.6738326212,-7212.0051344886,-9410.518047721,-21332.8187948259,-22225.9869292746,29076.3391834685,29219.4609579799,-4165.5045452459,-3577.6656226646,8074.4596205274,-6484.0321045912,2605.71260292,-918.1629802055,5140.8190556149,10.5858718694,-12991.6304984327,-21212.1447506256,7659.4033893376,5865.249769806,-31246.1921838006,-10781.38674453,-9366.4521410154,32084.4500208065,17278.3962838846,-1.0078609257,-40118.6471117155,-18048.6238315443,-14169.4509611984,-36153.5172220412,11331.4827226235,-46403.5713068195,67395.9284959622,-38828.4131528472,-21342.442880668,-21752.7075492864,-35317.621904927,-41064.3225040692,-12506.5174852735,-60384.6059936192,-31042.009210128,-32356.1799095641,-5421.6130207034,26823.7189091294,-33668.1048232539,-44541.9009188583,-51566.2590365652,-36165.7116909172,-37826.529668029,-16801.0238421702,-48018.4085788351,-33742.228949174,-27205.1229108636,-52154.4812753616,-43430.3509540597,-5948.2679339183,-76358.7839000116,-15545.0770514334,-1.6950019951,-4250.0643453323,28640.1138673608,7718.8979302825,34077.3775267061,8704.6782421128,36690.9858580843,-16688.3166210112,26623.6053993662,12993.9463587264,1338.6710684615,28942.579769526,31896.1819778281,-1690.1139308419,50012.6499646217,20151.5947820947,23872.6472100638,-6293.0226376894,-14132.083633506,19173.5790584874,36737.4070950604,41587.6985218338,32055.3435727117,19949.3478770454,23182.674706286,33794.6968189609,28906.4588041237,7529.8337248218,44856.805703178,30261.8900999285,-1815.5460095881,57878.0929520471,6001.9683587409,-1.8326405792,15784.8069189663,-10527.5989471408,-3517.1688373997,2577.1618196367,5027.9189621946,23117.7733605424,-16749.6385572351,-6056.545813974,-4277.4043483775,-1858.9340869917,-3449.999300843,1413.6669862844,-7119.9532312654,2273.4520015187,-3376.4531715031,-7854.9112673121,2135.6048297025,-6282.2789740677,-7599.2700831847,2994.3892852552,9646.5461632287,-12441.9158416835,15275.3501773025,-12650.656319512,16867.7665856175,1406.8375136363,-4020.9067910392,-276.5347887557,27272.9613014815,12862.2897703763,38296.8901379757,-5470.2522386312,0.163671941,2766.3586754741,11995.4750598253,3699.8508853272,12641.1150582279,-5916.9579650863,-20479.4652204079,-2737.7401079801,6536.7302295908,9841.7526453395,4455.4895408376,1403.3244810238,-8774.1303553742,498.4845559679,14913.1348302204,7426.879803099,9818.7816763532,5998.0409953302,5889.799607155,-5407.8402024545,9873.8857831968,-11188.1137921777,3056.6135997002,15668.960685914,3474.4526694214,-10345.5438255143,16037.8000953263,10690.1888668705,-44727.5658590863,-10287.3476332408,2061.5766277536,-32388.0439147406,32644.4325876562,0.7248434724,-2126.8946867316,4753.4263435367,5382.098207773,16373.722436092,-21973.8133417916,40675.1764855456,-15316.7593763793,15758.1543602564,8926.5724000235,-2767.8444080148,23210.3966894867,27315.4222801492,10560.0415744788,28157.6133909961,4416.8457309077,21222.5167983212,53.6526681204,-15279.4275572326,17002.0913504652,23826.391426388,41704.0244326,22898.4784113872,13512.6225922538,9654.8136010038,35124.2272751501,8684.3700209102,9405.9703539773,42754.576310597,33496.0067146172,-2337.3314888323,59858.588660085,-2361.7134621544,-1.1797135687,9347.5170274281,38346.1141265427,21483.359469515,56511.9261085944,-12559.736694043,15811.5087603239,-26524.607580353,39328.9311734393,-2893.9175864473,9586.5352073898,23628.6299648746,22062.2547388212,9444.5833506018,58375.4419818365,1548.4759513874,5753.2315147029,31570.2515915246,-7341.3047447257,24410.2873773593,5893.708956027,11642.6196240134,10132.9133990011,92967.390937995,15113.8430975076,47295.316883267,25614.9190262498,55882.5598677772,-13633.9795127432,20838.2274698934,27194.5495320277,12535.2087162,93376.9387622307,-0.546076611,-10497.9268323677,-9409.6110952924,-4521.5491199128,-4744.6565778665,188.217516139,11060.7722688761,-12579.4884212406,-9925.321697905,-7054.534197672,-10769.5574071253,-13761.3175534478,-2393.4352791827,-5033.4795648,245.8399014401,1056.361448297,-14376.7498208768,-8199.7374840251,6169.2799947193,-16729.355919149,-20991.3815424039,31019.6267019748,7159.0729911059,-6215.7590474366,-6754.4249517603,-12405.0633744159,-9956.0440711734,-15113.5710458394,12981.5007549003,1482.9178481404,-4230.6802167872,8474.305942267,-6055.1435898426,-1.6792951743,-7749.2011946993,15848.6023023794,12602.5303921588,-43635.6431058866,13908.4206767584,-10437.1553597435,44679.2732227424,-13905.3891108785,12147.6115027721,10951.4984451214,-13613.1185417451,-2239.6177684743,13276.307270472,-39096.7908460163,-26593.9290695727,-1258.1710504548,12711.2567446892,27738.1366339781,-7728.7429091881,-26945.5760573051,-33245.3168709528,-11101.1946792081,-4053.7302401098,10017.0286441246,-4480.6761552457,-28992.1303172027,12379.3557823875,-18413.257250486,-5313.8482465189,8953.5590412666,-40856.01146852,4792.4482909976,-1.6415219811,-29607.1930214302,144.6475483595,1621.0270582048,-5663.2105281239,3307.8737690086,10621.8830101616,-5643.2810929533,10126.6930046784,34038.2078428029,-1169.0488805445,23062.3770058557,-2021.8993528883,16255.05711501,16015.0386213938,4167.2245836644,22491.9355808212,-16737.3444298635,-11173.4716443102,29472.62693991,61794.065164021,-15961.1454647191,-5496.4774108243,3772.1233411935,40189.2120067915,26486.4003556894,20037.4256158984,-16836.3190961885,-2171.605650594,21759.1508400871,-15333.2043588359,8298.1301760052,-28717.1103824494,-1.8540321196,7603.8508045248,-24978.1539561191,2753.2485047626,-42092.2316331915,-30669.7736665878,15625.5444038963,-40353.5084375378,11261.0730844238,35230.9446759985,11187.4480859893,58500.0022133612,-27896.563163762,41655.3421553618,18415.0583701198,39326.6173547014,54571.8276926821,-17385.5962994955,-44911.9139187074,52607.890439667,107791.1107896253,2056.2256017939,397.0095369162,-38030.8070635038,41903.1930662131,44797.3624314211,27099.3252622658,-5372.231311424,59133.5552750481,34327.5427265426,-21840.8590198898,80594.9387976514,-51547.9407711413,-1.7523064651,4288.6184579311,6130.5620627151,15500.0214144657,30084.436897526,-4351.8241831948,34319.0931178744,-7946.0376502897,18851.5522767544,13633.2223593791,-5236.5119514184,20570.9404966693,24680.0747978357,5273.2195834721,41797.495685003,20106.6092421322,18904.2228108395,2595.3842258202,-3708.7674366733,18529.708299974,28808.191621222,49100.3034450858,28958.1734995644,18711.8027434645,16248.4765584096,28189.2623201703,18709.7461593973,10468.0147018101,27800.4909163227,29801.8803019864,872.8809161046,47362.2696439763,8850.0490800355,-0.2780660041,-29964.9420400493,-12697.0955375755,-5055.0372006865,-18221.1718019586,9005.2994048735,-8261.5137163494,29692.3813507542,-25078.3720876515,-8156.7280151059,-18114.7049739249,-24028.248527054,-16767.7090296839,-3838.3386113688,-21255.5480761046,-16292.1010476302,-20955.9994451636,-9146.6615882875,20881.88650506,-24386.4176502631,-31833.7048447546,18008.8639379805,5097.1426422559,-23629.6342203061,-7170.2903302456,-27224.6373436344,-18243.5819572879,-15452.0915810211,-1529.3089900574,-26319.3464599794,-16704.4329470046,-12673.1242507115,-6640.0689867548,-0.2863031965,-13781.6929397119,1887.6584870444,9398.5843664284,-312.1833282063,-7810.6672950172,-10949.5754048498,6987.047619023,-4011.4794970727,21477.5244095417,5067.0688780897,1002.5999988042,5632.9264752902,16611.6935032159,10522.8239941874,11159.3893721279,9422.5627462833,-4848.8060322899,91.9004444999,7732.5802272398,6939.7821389945,-25920.2824119185,3881.0291409985,-10894.2743394472,13772.7300877618,-6527.0760560142,9000.7724194043,6407.1546962512,-8622.2808547242,-19406.8309412963,-18651.6260558054,-23901.1533962915,5914.3427552508,0.0670988564,-8681.3721702944,83678.2982806224,21634.3797432412,25579.0192116256,6351.7381329788,67507.0743867321,-7600.8659047325,18738.3854996166,6185.6323493908,12776.4560212476,47787.4468371692,48223.7512231048,-18572.0987067097,30806.0231175466,3632.7907749002,33875.526118677,-21881.9168116964,-15105.2795555474,50385.2731472151,63490.4207148008,45842.784627773,51211.1724062942,37417.6437523393,61031.2357084397,68636.9477203295,18151.8898548386,14213.0591565698,22089.6681958816,71816.6711766982,10032.4519024952,50774.2278757653,17182.5240667223,-1.942793647,-11744.344923883,4790.7760359845,13118.6986486563,-35711.780388604,6514.0244151141,-18725.2566534593,-6031.7436533832,-13010.6138922126,3559.0510950192,-2453.9884644732,-10783.7393190292,-8605.2171696638,12407.8974980981,-34305.9174541266,-14371.423293936,-11017.3298818189,3274.9450021468,-3028.9668695685,-957.5368097063,-15636.794743244,-31192.586598052,-12295.1025320479,-7628.6187648431,8340.5011708029,-8063.5405510936,-19670.8949782853,-1892.6972788167,-19942.7202421473,-18495.0342104512,-684.0679175345,-46764.357865121,393.2494447364,-3.7100075956,-5521.1643837991,29937.1005927665,44923.567325437,25624.5296617504,-13177.4279215331,48292.2412895415,-30782.1187710166,-90.5849140546,52277.1327098238,9348.6097600267,51610.4633835436,37858.405898537,51694.4432933523,46289.0598146158,24794.1680523869,47623.9711969662,-20445.8951307566,-30479.8708931003,55535.0777185659,91417.2119662968,44630.9073424639,59525.8714090825,-16900.2662697855,13718.1462755494,48904.8363024449,31520.2577594111,-6627.1542800526,68686.400043659,35408.9366396828,-11084.2166111992,84434.6599686586,-44212.0955855554,-1.5808046225,-19950.0601028947,9961.5887553451,3125.7649126029,-166.7585649039,7194.6049973747,36563.6671022633,-7478.592021143,9348.5093993634,10388.3076131041,3098.9924965554,22966.7939861213,18233.9531450778,15538.8340469414,10468.9522138402,807.6425780129,8914.9211319368,-1920.317022014,-8301.5907110327,21364.7956850057,22493.4760968992,40577.9876653312,26028.3866817668,16046.4530854076,15872.9828967719,38461.9592429006,-13820.6824737824,14976.4181392574,51152.8778144704,36068.8620492069,5425.870558563,54859.5224480623,5153.7194332868,0.7332739703,28794.0655743691,17418.2198516268,5404.631974418,36297.4826756975,-19191.1462592232,43299.7074905344,-41832.6622806552,31752.0433513247,10922.1473715996,8160.0327994132,33869.5384516638,29378.0210885189,7207.8011738112,47242.7504592241,26637.8548986816,22780.6937655096,-2533.9241025493,-29972.3178976529,29637.842044157,39604.0374092604,48796.5685307852,29595.8213260627,35822.3889726758,14178.8588347728,35560.8239138604,25036.580385927,12601.384181371,27806.5014167169,37648.2377197144,9788.4646866705,54910.0273990776,5924.8749354802,0.4120956333,1187.2198243373,559.1784962289,7044.9003799932
   8264.8012969739,-666.7354414784,40703.7106888566,-17530.9214756463,15731.059704146,10787.3980642981,-3371.3775133002,19559.6106573657,21008.180979872,12481.9977507146,26655.5329176894,4318.5021530187,11170.447045125,3172.6210048183,-6070.8130186885,18255.1087924562,16468.1905440012,31181.7125388184,13647.0058692267,13526.819701879,12738.7517592241,34818.6737787431,1341.8078333046,7119.9411087989,19743.1033840328,29349.3418094617,8194.1729525658,61667.2491666652,-1979.5627647649,-0.899360581,-21592.6751429351,6010.3732181705,4845.711189658,-40599.144693313,14997.2640304584,-15084.3931810035,37617.8353557514,-11354.5867058514,613.7514734439,3571.1357042879,-17642.618954612,-12797.1444301977,9903.7466157182,-40279.7969590858,-25377.3005041213,-15305.1895348104,3180.1211760748,6882.2909044412,-11222.5874124654,-27375.0141046169,-42111.5462911111,-16449.9425539058,-10699.9926586639,3626.1449633872,-10960.0556701119,-27829.397130986,-1620.4094097453,-26716.7468718228,-11115.9419171719,2846.4468090739,-25240.4632381072,-3868.5081223394,-0.7827889384,-37073.2290501682,-9044.0069328066,43429.0871838621,-52671.216348677,-9950.6134875001,41705.5348216226,-12765.7746973709,-8484.7338391921,58781.9154677743,7146.2725479196,55820.6288500949,-5611.9245280603,78531.1164273599,20393.2913359753,44741.6240069206,29572.9341546004,-26760.6462862261,-15563.9762968984,55303.2799911115,125760.485468979,36250.0396650672,41122.5700366895,-77641.4151928432,4834.4933768398,43036.222443992,-13050.3127419786,-2033.6957228739,95019.72763508,22970.9340186261,-39530.8030808865,103449.6634384843,-83851.292686231,0.2279324018,-12229.9201951447,4520.9344223418,6709.9550406933,2208.4592162934,-13244.9179698079,-10497.2626358881,3612.716891421,-2573.6951213126,14470.4417755305,2814.7070730367,5918.64631859,-7383.2553343106,7876.8181365429,7283.9505919821,8573.0792770551,12625.9064974125,-9139.9939930943,-6266.8107121534,11353.5849908885,8981.4413252517,-4641.0471284507,2729.1703016092,-4909.5352056698,6243.4340923008,-4848.1836412669,8677.6206222268,3947.1852830321,-3588.0496490031,-10410.062589458,-32106.4034698131,-22009.1909291083,5815.8593658438,0.5410642397,35631.899067672,76695.0500757206,27353.9414728529,24113.8310163307,-12630.4299613187,52434.9503859491,-55258.6125272874,25795.787988102,11943.5316656515,21072.1121365256,34905.6968200455,42685.9126685859,-7920.4082149918,43859.6512076941,24078.9186358458,31107.6813795434,-8634.8998442127,-33426.1030009746,30866.1456736889,43336.8436899087,55257.5521280045,39267.9019715622,52707.5440053416,39026.8592519655,54547.8961616905,40520.9668415957,33203.6625258092,66323.6448993166,53371.8380050106,14412.6286523676,63179.7156935044,23260.3317780026,-0.9135709764,-29485.49485918,-3967.1266869125,343.7616198556,-31428.5705903792,17806.2652627572,5826.8994408206,12018.0940736212,-23175.2355183929,-5541.1661684894,-16634.4056506032,-18809.2494181534,-8626.5575477186,5759.8779928332,-31270.3011256769,-20520.6552728277,-12945.8978801927,1071.3535514726,-761.5280991568,-16216.7577207964,-29847.3058672721,29962.8344744169,4545.4362323729,-7012.9791782611,-2861.3652077873,-23781.962859906,-26706.9139701806,-15756.0508803578,12122.6429711735,-8049.0547303006,-3284.2758182629,-5018.3056889433,-13430.1152617364,-2.6192530755,32681.5120549577,20917.674761039,9715.4165306406,37146.1156155409,-15888.4823789655,31366.6056357197,-14151.1036258859,25260.8915864252,14117.6982507932,7307.3433929442,33159.0515530745,13826.4955352241,-13921.2121823498,39067.7699316398,11161.8761033362,26660.6753815454,2598.0961422532,-4383.1162090011,23492.686386025,32954.0017876747,9521.3990180185,9151.2108929473,41975.9767046025,25819.268753983,39677.1888388988,30571.2456015151,11408.7144702661,-8889.812383538,34457.3419443527,14618.9159781251,25233.2312228463,32155.9837637546,0.554273391,-249.9641521786,-854.202308023,176.6191862459,-2320.9651129857,51189.9831144511,19870.0559161948,5573.855743198,-0.6036985988,-29407.3211976488,12772.8702230927,-1618.7800071006,-3067.3371724574,-66836.19413146,8597.8935946041,4440.7067480852,1840.5877318628,37500.0383156727,63702.8798534458,40561.6464035989,36546.7732331325,-16288.1374221801,-84642.1199483081,-30790.7351667881,9146.3396627171,-23778.5357904062,-1.8154225444,-3739.8490415774,5786.5362606788,-2011.1681652047,-16904.4338026398,5024.2827092641,4670.8182761525,4381.8109610791,1.5466686411,-55057.777563306,60878.5843023226,866.7634438883,-7867.9235247561,95613.3499911803,15527.0539561361,2991.1904326607,-119.4315431405,9325.5162326914,14664.109241254,13076.3881533716,-9642.2401964875,31492.0167833943,43843.146568762,125066.4964646577,22499.4388559971,-45502.6632107746,118.5455858698,8052.3071086329,5451.3677566251,1965.5572669054,-23714.8928686442,1564.1655891962,-2829.944210738,9850.5547675631,3.3942009987,-30756.9964433841,30256.1860611553,-713.8060810294,-9876.436960741,47206.5230133581,15600.0393149064,-3071.3617867768,-6004.8912164388,-5774.3937646956,-11803.1563021307,-15450.2019965467,-12305.3227221516,49373.6759124179,40368.2731108503,69555.0823101535,41211.4130837803,-20440.994645286,0.9453788566,7020.9752976487,-4285.5905663928,-8178.2666355082,-28032.5214942887,56319.6148803608,20698.4766360961,8578.4040395608,30.5862797506,-71701.2029626133,-37045.6115258294,-4643.5273746451,-23500.8222216484,-66375.9046408579,9005.5193708352,-6749.2214091917,-16215.8042394122,34697.8057135832,26139.2734878364,13012.930617679,34509.1955508362,5589.6361901512,-33314.9161195099,11076.0847206446,15564.8621447322,-46336.2733830521,-1.3710620969,3460.5564112455,556.7219087,3749.7955528138,17123.4190521842,-50815.6613147885,-24039.9588929303,-5870.712302954,3.3396869731,67763.0363018263,27304.2565882823,4503.3474694959,18491.4313178021,82585.972168622,-9084.0888578608,4217.8056946602,8181.2543697319,-36088.9075951986,-63869.4527302557,-14945.6056700997,-15947.6136347476,-2232.4132980443,13795.7763725567,-11437.360324732,-21789.2782336983,61763.06514258,0.1621379224,884.8695537566,-3335.01229395,-2775.7640934772,-38077.0845444216,47723.4450445128,12295.3496028391,2575.6838768194,-2.5699698259,-76758.7040165931,-44273.0795645563,-5806.2543558838,-23103.7561054512,-83841.1235135248,3311.9146855484,-4149.2406911708,-15611.9727749377,22385.6430704878,-10230.9272468093,7444.3307811203,19328.5732408989,16934.2957315782,-14599.1119982296,-2556.720613357,20803.6969254851,-51991.7596303165,0.6310397411,-2320.5261342,3333.6047453071,9111.7814305799,35680.6273319344,-56756.0660906472,-20893.1824088378,-8070.2444082591,3.0560599138,80122.2747579879,38240.5183593426,5056.1308193803,25656.9939964067,76745.4130789696,-6977.7077163826,3126.0681374646,14313.7073927173,-38857.5333809118,-18674.0098596644,-9393.3238617327,-21660.449815076,-10292.8903519903,14734.3930650735,-7270.0277973583,-21246.6594495296,74743.6054309496,-1.0340495414,-1713.7284960069,-3416.7817354741,-10107.176223964,-27875.1917285826,54718.6302778626,21332.9231256323,7644.3086452883,1181.4459382239,-61717.7304086763,-13140.5812322721,-6646.2717434454,-23061.8383993053,-60665.4710641923,14259.0525044242,2517.1887916986,-8763.2582965574,37234.0943091229,50499.1335607751,26920.9910907661,28883.2006999097,-1897.1115124713,-24159.2507927786,19810.5586123046,24531.2567286311,-63207.268619621,-2.3153403895,8391.3346948027,4464.4279567037,950.5010803631,-25026.5901691191,10029.5980367262,-1087.2360700664,11610.8716795045,867.128253912,-49253.8865671945,23131.6556770373,665.616622883,-7077.1736520312,44327.5999501936,18765.6604744273,-6204.1634348782,-3632.0751686341,3848.2555149224,1993.3563310776,-15448.0455770204,-9751.523789209,52787.1134742054,36732.0601571498,74027.7068129914,44748.060280303,-43182.4628361121,5096.4350997636,5031.9113514091,7702.4142583293,7222.4405960527,-814.866689758,13230.0395381069,9736.7080384043,10220.5830984186,3864.6645520007,-47102.9677858708,28324.5887988206,6206.0084417779,766.7743074483,48411.3257668784,29788.3799769642,7364.8386219207,10739.803786853,12889.6892184877,86804.1394187976,18622.243922182,-7486.0599412592,24792.5320735921,11551.9091010786,78609.9741304898,28338.2287601739,-46636.9953382003,6368.0161392907,59.0790575078,-4014.0657829686,-6126.6294882294,-39673.4358745566,53024.0455894296,11541.4991321208,6375.1733809944,-2.0746917069,-73145.1154044586,-47209.0034781878,-5617.8515541508,-22262.9246745033,-77034.1604788553,4595.4184891114,-6362.6393289467,-14758.1469577828,28662.2654685049,443.0090934797,10381.4844932238,15356.6707957356,17843.3899799313,-22831.3723336309,-6240.9688954473,21130.1958207832,-44494.7469858139,0.1583761645,-3797.821537848,-9106.4459719537,-4586.5369840007,-35785.9366536437,51949.5133596982,16283.4594369288,7519.2347982889,-1.670687895,-95360.4757346745,-28910.1593986376,-8272.9620688854,-22603.082652971,-58836.3651905888,8272.1754239405,-3717.0620706715,-15411.1896406556,34507.0794923151,13407.2552718922,19608.8481424772,20466.8250954474,10140.885091022,5405.5244879221,25830.2160913752,21930.7421662968,-72533.4771690054,-1.8540069342,14549.9909417753,7735.3511987605,2609.1902600528,-26662.0519701746,-1077.9275419073,-3839.7333841997,9970.9983516847,-1.9257883089,-26201.1437394117,16161.8041463481,2366.9333603464,-6028.6966280666,29538.5574548337,10651.5203633164,-9612.8651721798,-2334.8782899653,-4450.6543982981,-25355.1805384053,-23512.5410449376,-14105.2438036443,54594.8217505625,38165.3182657531,55801.5037009514,47063.5617286383,-19540.0641892996,-1.1166418166,-680.7748485915,-2768.5306508458,-10958.8170972614,-33828.7214886043,60310.9156140324,19762.2774035529,5682.2606226127,-2.4812552711,-94240.2594065859,-26395.6770543327,-6468.2929986008,-26149.4969224567,-55746.769974313,8467.7010198047,-4045.5059571181,-14440.4075857808,37296.0404415791,42835.1135363011,18006.6644280977,21227.8319602893,7701.8096490223,7869.5122686875,34520.8108313669,15409.00264863,-85990.3119282255,-0.3449957266,725.0186161407,-2897.1719558292,-8589.8662550395,-33566.6952892954,59025.8158112606,19616.539330578,7044.4320867133,-2.5645402711,-78254.2192435271,-36912.5510867144,-4768.3517421141,-23015.0911212951,-70967.8620392417,6117.6467316956,-2712.8521195977,-13802.1730852535,35228.3499035347,41953.3816539795,16398.3118297414,26426.134368291,776.2124059087,-25565.1097447282,20604.1473086304,18943.6802770879,-56715.2847268802,-1.1496130064,-6385.0008439099,-9460.5080010329,-8224.0095799277,-41534.8218594696,44227.2249289297,11854.2873557104,5260.9876534043,-7.0151307255,-69152.0533477453,-30568.155660416,-7126.2427382449,-21723.6238212314,-58793.7906044482,15127.4782437947,956.3349750962,-12398.883848845,20289.0314057296,-5110.4876712543,22955.2717663533,10184.4519415624,5612.231605535,-20264.5347101885,16260.0653790519,30869.9852284617,-43459.3586863568,0.5190221552,-9119.7452524246,-1459.554312477,3992.8595552491,8159.2034096956,3842.4246820003,6499.7185633778,3201.4859913375,2123.7628371556,32055.827863014,7201.3438371928,4767.0155546558,3470.1038878178,-3412.5126096146,6557.6916389363,7582.780083639,5874.5138113322,3823.8116617624,19177.337955909,29063.8509229669,10091.3936303962,-8533.2439081071,-42320.9917243579,-17546.9915721322,3353.556468397,1806.2560846213,1953.2006834834,-2921.9365201723,2017.1189297533,2212.4790949085,31293.5138480032,-53230.9855874964,-14821.1626037834,-6193.1505974336,3.0455702819,71551.0066550648,40588.314844266,6031.949267178,19655.4054852009,86367.561191211,-2514.2576537715,8020.7309029476,12663.942904905,-28761.1883274698,-16774.0662601369,-2035.7386984536,-14967.214204718,-17713.1356171093,14694.4924308551,-2846.4808819597,-20325.4602479253,43399.047945383,0.3526497928,2450.8409523747,-1700.2546955907,-6022.468008531,-39740.1085830847,50417.152054192,11971.3749576965,6849.784981227,-0.6614453651,-69321.8278628213,-42333.1714112957,-4612.5610867779,-20627.8704119581,-68046.5026251688,11874.9108114055,-625.2554682625,-13003.3466245165,25610.2564535363,-3631.0419072276,19640.3602845748,16872.4932285861,14148.5689410631,-19139.4769306682,2518.649155392,25484.2349597825,-38061.6839439868,0.8942524799,2983.4449403564,-2526.3893666823,-6693.3584141514,-38647.2712958883,53091.3432995723,13177.160435546,5734.5815736854,-3.1039336557,-67428.9844751438,-43942.1416770316,-5045.5444565295,-23355.7439930964,-79192.5041297844,1740.8311834129,-5886.2313118272,-14285.0141527624,27984.9937398179,1280.5492274994,8695.584050396,19826.1432408668,14786.9064818646,-24826.1446325931,-5465.3085744397,15934.2539545119,-39212.5255692455,-0.3234170125,1486.7521262591,141.4741947018,-591.898649127,-41547.3981582482,47016.6979191673,14429.661581471,8087.8072924217,-2.2060785971,-85500.9298264168,-38473.7295795579,-5056.4074857394,-21662.1336683657,-71137.8319094566,6872.3634609544,-22569.137872359,-20411.9026743385,20604.2278463665,-3211.7572481937,-8495.32197005,17799.4321058164,25048.9863271731,-299.0312321763,8072.3347117222,20509.571215712,-47577.6309883353,0.352092381,4025.2062850625,-1676.4150234394,-2317.8347208242,-42811.8919397115,51312.1801186621,11308.2579173871,7410.9736941771,-13.2858456386,-72941.8672644167,-26026.7621308454,-5534.4495575395,-22205.3627515469,-70250.5274514685,5022.1219240896,-17353.99916714,-15251.5639271069,20838.9602597752,-4944.2903611437,2661.4163975484,19739.5231556785,18147.748592302,3887.349749773,18426.8326342793,21482.4460495422,-52253.201902677,0.6789850039,8200.4591376332,-7671.6131473901,-2933.2013675772,-22270.3893753537,56072.6309318379,22711.9750832241,5207.3805211416,174.9922222968,-41788.2399097325,-37461.2656224788,-2846.4814867596,-20440.327684726,-72137.0340379918,12033.2463907834,-4426.8119660106,-7025.8574441125,38826.5697541384,2021.9372172411,36216.0963614271,31848.4084615191,-7817.1797364734,-45677.5431670417,-21637.2217279728,15110.3152611052,-30075.8198837193,-2.421509344,-5057.6067849907,221.1052381151,235.1607472003,-22804.3556329781,9904.2617792141,-1464.3990014451,4473.0663719291,473.2484625022,-63312.8337222474,22295.7624074134,60.4583597516,-10216.0847380195,47688.211334689,17691.373621253,139.8291289228,-911.4794029296,8813.6002022502,13123.1153893191,-4318.2346544964,-11423.2609302592,34828.56565849,44831.4172501002,79604.5061342667,33038.6646225785,-48941.5690707498,2837.058724219,-6077.267259651,-4978.954883688,-5335.396253986,-36799.3652933696,50833.9792330393,10386.0577442548,5382.5039286857,-1.4631273436,-77342.2806267013,-39729.9092675789,-5416.6181255562,-20203.4959167654,-73181.8554743345,8240.0821814007,-5706.8281847508,-14649.7559990486,18204.9865289694,-8247.0510423026,12965.6522065593,14130.648991369,8109.8925101879,-9083.2728027006,6641.1296234311,24209.33754511,-48441.7595013771,0.1977060245,-1105.3147889276,-4302.7628182422,-6232.9764713484,-21043.5452339803,58988.7835220806,20619.865868088,4571.9823864784,0.5745608664,-106383.5281747204,-5621.9520826903,-5199.6587662385,-20951.6132111607,-49375.5559767749,12306.5164307072,750.0487846178,-10037.3844270717,37472.3172009762,91184.6360215709,25204.7001926761,19652.6303203611,-4381.2475914215,-761.1481667756,51465.1599288112,23373.6600480311,-107229.8637981561,0.1085279101,8886.4154729051,2453.0565773899,2321.1152051882,-15358.802588899,13362.5801716016,7701.9269467204,8824.2355244214,5361.4520554021,-31123.8445349044,30046.088956955,3685.7208381455,-9101.1147619542,48818.1257330551,21216.2750689971,1702.573154434,4255.8823992761,14240.2800110988,7741.7086453358,12813.3936943874,5545.4210572859,36357.8180263805,15790.5566106599,56884.8389094005,24714.5884706449,-33840.0881063611,7221.1787022528,4806.0679153863,-1269.5431253886,-5875.6699215618,-49368.9490022847,43614.382605362,12339.5947998275,6699.7797888255,-6.3155317485,-61046.8204396052,-48843.8658930521,-4847.1147097734,-25597.2595471816,-84042.7890738565,2963.2233516719,-13438.1651781426,-16593.9806531508,24507.0663169067,-23261.9096242544,8481.0140738809,18350.7567312892,20476.3258288434,-22259.665469577,-16340.5838915281,19537.6408978172,-36224.5483058888,0.8817951535,-3717.0248803827,-2380.533793167,-3247.5667193705,-36492.7272192957,50956.9529489083,13786.3735712724,6452.737258815,-3.4382215278,-74068.904081254,-42447.5677844625,-5417.043225077,-19100.721797679,-83401.531664097,5547.3979473939,-5293.5081298275,-15855.6669220237,22566.1570219243,-6822.3898283083,9008.8084572159,16054.1631217705,7986.6431178262,-14492.6984841869,-8238.521866682,22081.4474811345,-53356.7609436549,0.1694410424,-23069.9099237816,-32.7060514007,1937.9907477383,9351.9643791393,-706.5920735406,4152.9695574633,1638.3168767165,216.6368849126,10402.545020657,45160.186597818,1786.4925293728,4740.8511236276,34998.5484013316,1193.7940289109,11911.092262844,6813.4734600778,7515.8252785772,52378.9839060975,24916.7596532367,5548.6607641378,-13003.99138745,-33266.3586967085,-9009.9244964889,-6490.0459306529,465.1935506486,-2.1824575065,-1136.0135829786,-3263.2157493263,-6205.9978112896,-38186.4781604398,53603.9135514399,15972.5402705502,3255.2796326865,-3.7130521018,-81543.7099094914,-44774.9965897721,-5433.0990360283,-24735.1788745866,-80174.2818508074,4794.6618033652,-5744.7756253761,-15628.6959691505,27754.2828750861,-890.6963408501,8528.5810957543,15817.6570431896,13147.0515422994,-27500.6895788488,-9659.3944806395,17060.2500988925,-43762.2904660739,-1.4409372103,-11559.2195604339,-1676.9607098535,837.3704940461,10235.611125662,29385.2629666574,10639.7150744784,8423.1209055513,1557.1945948256,-7058.4688577581,1863.8777401534,3089.6741557191,-8840.2020915814,-6194.291522975,12976.267359663,19121.6952449883,6967.4866652981,26657.5758591736,-2748.0065308132,38205.1907577947,12241.0678289078,9746.1126316631,-2182.5987973153,16041.0142144327,17789.6986873113,-25551.713945319,3434.5758126115
##end
biasActivation=0,1,1,1,1
[BASIC:ACTIVATION]
"org.encog.engine.network.activation.ActivationSigmoid"
"org.encog.engine.network.activation.ActivationSigmoid"
"org.encog.engine.network.activation.ActivationSigmoid"
"org.encog.engine.network.activation.ActivationSigmoid"
"org.encog.engine.network.activation.ActivationLinear"
