encog,BasicNetwork,java,3.2.0,1,1396946141940
[BASIC]
[BASIC:PARAMS]
[BASIC:NETWORK]
beginTraining=0
connectionLimit=0
contextTargetOffset=0,0,0,0
contextTargetSize=0,0,0,0
endTraining=3
hasContext=f
inputCount=8
layerCounts=4,33,33,9
layerFeedCounts=4,32,32,8
layerContextCount=0,0,0,0
layerIndex=0,4,37,70
output=0.098010007,0,0.2380531021,0.6927165692,0,1,1,1,0,0,1,0,1,1,1,0,0,0,0,0,1,1,0,1,1,1,1,0,0,1,0,0,1,0,1,1,1,1,1,0,1,0,0,0,1,0,0,0,0,1,1,1,0,0,0,0,0,1,0,1,1,0,0,0,0,0,0,0.9689592128,1,1,0,1,0,1,0,0,0,0,1
outputCount=4
weightIndex=0,132,1188,1476
weights=-0.0907855828,0.5383649239,-0.1813218299,0.0389586294,0.1776210616,-0.725993798,0.153471867,-24.4352108462,-1.238202594,-0.0150537383,0.2504986704,0.4258463421,1.6891168812,0.4565926377,0.2055134106,-1.1741075849,-0.3620030446,0.4438325276,0.5881186638,0.0592049616,-0.8060266535,0.0005007529,0.1056205257,-0.7756556138,-1.0053266369,-0.7066804503,-0.9998612856,-1.2439249546,0.5793582491,0.9237956025,0.4110322217,-0.8451483066,-0.6459405528,1.797547897,1.6976513827,-253.5867475569,2.6472110711,29.6988925026,2.855728307,3.9494113111,2.6697781585,0.2699923883,3.706327863,-28235.095140055,-14.5889834319,-15.8139075156,28.3468562061,-2418.2014966046,4.5876533233,-5411.6565248237,0.6361005614,1.4552307835,3.8734605955,-2972.2522254157,0.8689054264,-49.7482858798,-1699.5673299723,1.2352495464,3.0608613006,-72.9078570455,0.7472055279,-29.5515602036,-0.4774370255,3.8865343427,-1947.3045408722,4.5137550386,0.4951249269,-0.1242472603,-0.6374881624,-0.6508752557,-0.195720151,0.7819531151,-0.5565252028,4.9738218771,1.5828756844,-0.6543089094,-0.2477114335,-1.8195911954,-3.3297966928,0.8091533154,0.4521596514,1.092817788,-0.6656321206,0.6377945167,0.4574590568,-0.4015865736,1.0322633282,-0.2487232762,-0.6366503109,-0.9737128307,0.8383197589,0.4028619393,0.3270080899,1.9736546999,-0.0827849271,-0.7619921259,-0.7238816758,0.2734110184,0.5378255226,-0.3301830725,0.5472130896,0.0285562498,0.4690313854,-1.8869589373,0.1813660399,-0.0066672113,-26.6801939679,0.5453078674,-0.098490625,-0.7000782867,1.2473035727,0.2450923053,-1.3410307312,0.3307595009,0.4983919218,0.3524094862,-0.7621285396,-0.6188265142,-0.6295685856,-1.3319555961,-0.2380657355,0.541103903,0.8755026494,-0.3535096694,0.6381932984,1.1123531956,-0.4952329216,0.437667477,-0.6051518835,0.1921631716,0.2541279926,0.5740310344,-3175.2247436258,3561.4327421617,15323.85038294,15185.782205626,30277.035452377,622.4369855771,12792.8536148316,5702.0563822969,5640.1376171966,11915.0209867386,-3317.5704082959,-16587.5318688927,4171.7276847808,-3452.0216061708,2186.7396520565,11064.189698144,-39068.2843639778,4474.4617300456,2844.7666916542,5519.0204452337,-5991.9208733313,5176.0119480437,2254.2311788404,14640.5282875329,-13572.1581719672,-19216.3505762117,98.2354897432,-762.9213156158,13177.4446551793,-55792.2907183247,-16734.3987065253,-25997.2926318805,0.5546997372,5896.3107346694,-4412.9687956074,2030.8287210568,18345.1333371174,-8047.728608863,-25.4267944343,968.8019235731,-611.5898068523,-80.1996322647,715.2471047979,-912.6239282078,5307.4343864113,3541.7119586944,-4905.1444954617,-320.0583988126,-2068.9739195999,-37802.5816432227,-10434.2303131297,3059.8137644164,-4945.7908863287,10260.9511600726,2263.9117374399,8146.1435461505,-1276.2253510669,8663.9086518307,5488.9516111843,0.4666537735,-3755.1442374934,-5347.3981289987,2966.4559527533,-13075.8653582212,-6192.4325207233,-1.8056666061,-3942.7935855246,641.4774966516,530.3909520768,-5874.5774198797,-3555.1101713478,593.0830544029,-94.7234808811,8435.9804092445,-3.3253198466,-818.212524115,-4027.5710002698,-1518.5581145451,100.2504037267,-1389.1880131686,40.5446763599,-129.888411475,-3775.5212020428,835.184997823,-3601.8709734422,1.6209762063,228.798750513,736.5611804931,861.1938242432,-2658.4851361636,10637.8561518759,518.9434632988,-17.2888260327,140.5001110808,-7.145360742,10413.9389765252,8867.4615851834,1089.4918947177,-2.3251268914,12814.8305818513,-2995.3365627637,-10313.7912063555,-12800.8376840041,-3339.9282182189,2947.7351055014,2257.6443845818,-4841.8281870019,791.8592099827,-4435.7412317594,5062.3601800226,36535.1066157299,-5505.5023740713,7418.8032783771,3165.3557913462,-2600.8976911659,18737.6708236508,-5938.3039511047,-11361.6125180798,-2839.0416330984,1453.65109848,2706.5792081798,11246.9853909081,-11678.950578014,3693.9698412467,12020.1750507946,1876.9305431532,-802.9172454268,1585.3749818702,1360.5588814729,-15949.0147044294,22240.7889958575,-2.2806704176,-2768.7801156,-4450.2668195616,-1039.5510173559,-465.9656860785,20359.5487189143,13988.9622567012,1493.0747119712,5322.1384373447,6554.4624869923,8777.3142229252,236.3731971604,16543.2250823595,799.8212893786,-1412.1473160726,-1082.1632106019,4938.6915292103,14898.7871495136,3971.6291838649,4434.0946509986,7767.7333370207,4775.5490620031,2748.6376721439,-10355.6661186175,-450.062477967,-3403.4168911856,-477.1974763155,-233.7940047859,943.4188374279,75.469261448,-11359.4111906621,4224.9812374243,-2107.1418943899,0.9618785037,3312.4215700549,-462.0027755197,16808.8190547973,1108.1088801089,2944.7495284969,-6002.7730060827,1094.8340568775,-269.5147056615,-2355.5898742648,-452.5606686201,103.4944526758,-19439.9206768101,-475.4993166827,5473.858025861,39.9813676721,9511.6341454202,-24663.7473351435,2845.5785219183,-3874.2929595211,-3154.1454978108,-1887.045037695,2852.7315802574,6572.948088511,-2098.854304844,-12286.4244184406,18548.6734128589,-2126.2631422898,-3612.3230636206,-7044.0605882982,18023.6997497471,-16353.9158450998,-4822.5359873625,-1.5851441924,-7559.0337841733,-2013.4089310879,-3281.4035032611,752.2566734803,-967.9572218889,-3.6409377368,-764.5764636964,-744.22611253,-1585.2431380078,-73.0121847154,332.4761059492,-27782.1934605674,-2659.9682682859,-4522.5787075422,276.6350305325,-830.4089730092,111260.3720193862,875.3286742552,-2157.8694717368,-4093.5375026193,8264.37178149,-6654.5849634421,-8086.5225502691,8091.1630931393,24736.1503158584,16016.6773849175,-8.145971683,10112.8835599931,1497.9393577223,60559.5357928162,46805.4993954711,11801.0503059301,0.8089361402,6066.1925435628,-7017.9179124122,-2251.6520160627,-13070.4828924513,4715.8558260452,-309.0014232801,1580.9156985555,465.7885008571,-1914.2162519423,-717.683674054,246.538944362,-9627.4809304926,1479.4007504442,1479.4930084887,-4948.3417152858,-1014.288292292,-24227.460832926,-2722.2615062675,756.9745988755,-1.4407299735,10189.7494947102,-739.0518841937,6754.0880091823,-3024.3862020687,-1654.6415891099,-11281.7325642617,1571.2859656763,-8466.868614007,-2556.7054048994,-12785.4486111735,-16335.5974834144,-9042.4301465175,-1.9212046027,15431.6949372506,1361.3585965353,13304.9477463489,13927.5165490352,-4649.0536179514,-4630.279264039,-27.2202290919,5989.9674559983,-854.3328277987,-4051.2207854501,-7019.827357825,-12756.2842511425,3179.4457199336,7014.5379916869,5124.786808797,-434.0135130135,-71640.1051573442,-10025.3403294648,-4622.441617462,205.2524699047,21651.8866337012,-2170.195527747,3000.7766530967,1404.1796536168,3102.4959967665,1785.833245679,-219.756804194,-58.1754830259,-10494.5494816871,-469.7935723789,-35250.5171730336,-9284.8529069549,-1.8717133562,-1995.6208222941,-2167.7238964445,14867.4265860173,-11172.136083057,4278.0104572791,4309.6742589066,8403.4071496197,9138.3655282378,-74.526928556,5582.6068712555,4629.2005384757,-18141.4608444041,-6786.017949108,-3192.4225144214,-321.2020530221,-5724.0622288599,141281.0732222167,5833.6133304192,7528.0298549921,-3064.3070161753,-1389.8837674834,2943.3708851941,-1424.4787420991,2788.3089525803,20302.232046866,20020.8129765905,13.6955535282,-926.9527051075,7649.4759504424,56878.4527959699,45462.4288369631,-2549.4668887195,-0.5224693766,-122.3010358189,-5.805523802,-723.9623399867,-213.7924541179,1819.249949279,502.4448193897,-5.8971514739,645.9702304302,969.0382234287,-5.8199165992,753.8756851674,-2177.0259774147,-4.206910527,1134.5015307695,88.163534053,-722.8860718828,-3223.2375529815,-3.4189076286,2219.6828091076,4954.0782214327,18.9965676004,-28.6256207335,0.7575947447,271.9396956165,-925.2903177133,-5.6577709118,-4.0634090137,-8.2774370775,-38.1324909079,2603.2572816237,935.1572733526,-154.0115153188,-4.8305162805,-1389.662499523,-4094.6082427448,-207.3962813772,-3099.4641620258,5589.3435306286,9483.5112896637,-18.8773590216,1796.2825820799,-282.1363050774,-102.8935871248,1006.2173901401,-13599.2428711971,29.4219501408,-70.2848415483,1893.4630813545,-1394.442770394,8367.399547999,-3501.2639839946,3139.9789032859,199.9684392429,-17.3719822836,362.3035296173,-3623.2347964029,2009.1720519219,9713.0452806062,49.8232331597,-196.1638804236,-730.266329251,85.5760904968,20222.4117660506,5821.9404508414,-3424.4436215656,-6.5985730777,-11535.6289090389,11119.4801472434,-10414.5461015962,13724.0380844357,-6251.5495438893,-23.6080955093,-5107.4705678933,-4346.2290074739,-1111.9406577455,338.970759052,-2479.0140152175,3895.7038918557,7262.3600461827,-1384.1971732743,2219.4645319599,599.1869645334,-21521.2932096189,-2184.0571791182,-1471.6789132947,-26.1602432322,-2011.1411951746,613.8406720352,-3273.4304130663,-3426.7217436638,9565.7579470528,-1123.3794443192,15.9449722526,13193.5817402893,-4439.8429647098,29192.6257138845,14262.9935196108,-40547.0257132396,-1.0321574327,-9637.8640679763,-7290.9712648898,796.5945564147,5805.6971057036,-3608.6791752227,8140.7891237761,977.0491090305,2829.0306247938,1.9109505994,6686.297258004,4176.311521388,4292.627118906,-8128.6211831902,-6880.0895666585,760.1998508146,4709.6852367278,3480.1776983076,-655.7887680442,16373.8530454901,432.158088281,-12000.6724731255,2657.040202066,-9258.299047011,-8599.8193482004,-14801.2812139094,-1275.7590952586,1697.0317798599,18774.0112131135,-171.9313709651,-3033.0104678734,32175.9565209302,-11087.6707463597,-0.241173052,-5483.2567687216,-54.4467271558,-183.1097242334,-2744.6726325371,-137.9531722193,16.2386481709,-8.9857209322,253.462147708,-181.5059153736,22.963868255,-5003.8689634749,-4447.6291897856,-126.6730992985,963.6480176629,-707.7414948044,-3324.3941163877,-4059.0630589376,-2.093294788,5759.7129073797,440.8733652507,-353.0635201129,-726.4093735647,248.745340683,-2681.1592416325,97.7990455778,-54.532518607,230.2561146445,-100.2278156331,-19.405592927,1128.4363829486,668.3624122136,5328.1748313841,-11.689047642,2932.3594987835,-2078.4094629824,-6451.9630267336,-140.5639892511,7405.5635924679,2234.4509331725,-721.0528203568,-121.0110082105,-1024.4745242407,-3.5345187122,2527.52702975,-4880.8876553456,983.757516035,1182.4875755215,2353.1010627683,-4978.0028552607,-3531.1700620042,1045.630371667,3933.2726315526,-259.4898292808,10798.6622238502,-157.0161939166,-16885.6785378448,-2276.7767700017,6952.4058438067,-1460.032195498,1.274770173,-3365.25586178,2545.81075051,-16439.9001123449,-21201.5113108321,6556.5010809739,-0.008426835,-6418.5068011248,-2700.7703169217,-962.1101255513,6.6180747936,432.6438332625,-25.4094454996,-1.2629015003,4258.1719191461,608.6425487367,-1418.2350045061,-3836.0844315634,-2073.1136232384,-5.4452275989,-45.1240657796,1226.850304518,-2853.7312433308,-2738.4200830078,2096.6459515403,-509.000485835,87.9369137299,2836.4008066536,2164.633339585,-3.1474961536,2167.9477465371,2105.033414937,-220.6282665679,-7.8076618281,561.1774518924,-12.2067456448,605.7681297184,-2427.7024823349,3178.9272851872,-5.6104175067,2064.8202198726,20422.6736937069,-1405.4680608311,309.8539774832,-6130.2417200487,-52.6845120575,-1430.1807638033,-234.5615201053,45.0371349727,-6878.9373642037,-7085.4496204038,5152.2750592844,18080.0503341825,2193.6461212832,2154.0288932194,-2091.3294318722,-125878.1033594682,-7947.6856876477,8926.5517504571,-6.4057220807,23544.587806953,-6098.986187927,6532.8091589139,-2392.9744435753,1366.9757534977,-17627.5897387071,-167.9765366211,-9118.5049321792,-1364.7654498132,-57951.196295976,-41801.1006227585,-4515.2015390381,-1.9256802942,-3842.9211998432,-5154.528653137,11238.4149118137,11124.9554327562,11936.3301839966,8254.8260711177,32256.064981762,18216.6738079298,10575.9011580424,8660.4765155321,6340.9746968333,23701.147337603,-1424.5139097802,2529.4000944925,-4111.549573877,12104.9474668209,41874.3421157706,13427.8086695813,11744.1938258857,8213.7942916615,-22351.4105957865,3873.2129949418,-28101.0882533695,6591.6407964888,-16102.8500919598,-13184.2381055607,-50.8511424505,23850.4016529944,12544.439720264,-30776.4925043858,16168.5841952997,-16572.9138615766,0.122030492,-4388.7498922758,-7089.5535157169,11852.0073451718,-15117.8341103994,1076.2005094272,4947.4109055173,1878.9284729783,3947.887307367,-1382.8349264608,-54.2156599598,14078.2659995286,-8480.7533998112,-7928.5362661426,-541.0919162058,1940.0041032754,-1430.8221779696,90022.4031832961,6683.1968119828,-1233.8412056444,2088.9408006979,3791.4776502114,-561.9360755907,10250.7857233406,8459.7514376492,6797.9620161,1857.7558696413,66.2179060641,14405.67709153,2707.6774237816,16803.7342491348,53583.852374915,19439.7413193225,-1.1897521121,1427.7778784784,1094.2379841151,1934.4201212645,-1148.3855158854,-1611.6175102623,-2751.3547890182,-38.5714306161,-2060.9447857081,-90.2826363321,-5.7144615396,-774.9525648982,-993.273636552,293.871173112,1004.8736538145,711.9074549728,-3602.7448673594,-1777.4766975242,-120.1707849118,4671.5182606983,-3169.9904481961,-82.8358699039,-847.4662530094,449.2891751676,-1711.1380567506,3736.773968417,-580.7648504236,-10.4902583197,-43.1210276148,-72.1196334004,1042.5581290924,-2603.0014951946,3116.5565196089,-5.1156864439,-4916.9347373506,-6188.8459990933,-9408.0091143292,-7714.3172713429,15450.7157551665,-4189.7911992172,-1329.0742082096,-80.7906248706,-1635.2030503701,-14672.4179812229,2989.4565744504,-7181.5122892363,-1552.1520204167,2192.3200252713,-2262.1999834381,-4518.3754247696,-56381.1779607507,2369.0510090382,-9269.323709227,-4129.0287212966,8497.3658600134,-22657.0735139117,6625.6778008601,4960.8787007411,10051.1525770063,-16108.8804513975,-449.5110744033,-10495.0035783345,7185.5151675522,-2362.8186493306,14260.7853748197,14846.4341754175,-1.8808524191,107.2294273388,836.8913265758,-1404.7792756121,22007.0601462637,5583.1394842544,2657.1944863846,21.1239004388,-128.981463769,570.056904977,-783.8950077082,6455.4164531381,-27983.8285335883,-1704.6490066614,-1356.4505232148,844.8442170405,-2288.8650945575,25467.1988305686,-5422.4177372262,-5146.1689371271,-120.2342270335,1422.2475634317,-3301.0027772645,-1552.0481462567,-4526.2551078525,5775.3326544341,-1575.5218984311,51.6420551875,673.4752685845,-899.3192679434,16882.1562205009,761.2248604112,-5683.4027140891,-2.0249735992,4416.3065749723,1217.1833580275,2954.2231821472,-10723.6933828835,-3444.0340851102,52.0526745451,69.5028123246,19.899226726,-5.3634344505,-32.5792477027,-89.0803384118,-16098.4652470568,317.420108649,2938.2730541858,1945.2910745304,-292.3708854109,-20622.1415753667,-4616.4609821016,4150.9124238803,10.8185033815,2427.491903131,1197.2035745147,-99.8851819551,1813.1625186678,-17342.0665625845,-1435.7466467242,-837.0408955125,-1495.6403492172,-764.3876411862,-15734.2973917022,-13468.3439180902,1768.5073395247,-8.9252274634,7983.7777422246,-1059.347492911,4765.7984401248,8484.9294268711,-594.4263909727,2.5788358071,-3706.1701059901,-2973.7044324366,2317.1282055558,-550.4970031399,-11326.7580140969,15886.2741238828,4090.0621002937,9095.5131412625,1068.9896299662,-1677.7848696919,20912.6621686717,-1871.6910219357,-5055.204783345,-1454.7561439622,516.0894676786,8643.2648699207,-54.0490649404,4590.4967540769,-870.4458916488,-4308.1253595874,2.3198463983,-9269.6688827041,15.7321496366,-9547.4050433524,-13606.0556161537,-32538.7191113647,0.0968936283,3296.3432812052,-3670.5900414446,7904.8548560809,-14942.9225340473,-6837.7073583253,3122.1110747574,-4575.5418908913,-11845.4683495257,-4372.0833389852,-943.0921727729,-5260.0682449875,-13298.681197548,516.3902674588,6468.9609472347,-4819.1081918873,-5851.0931551478,39769.6054313259,-3867.0209093404,-5695.4084370373,-326.1749805292,-2921.1192288476,3707.8030862335,1659.4048289524,-15576.8555177232,2519.7108341878,12899.6177498216,-2.644213547,-4629.3575707995,-2140.7674555423,42223.9932077125,16102.4994592945,34102.0490206358,-0.7213482521,1116.2701849664,-6133.4047213769,-7401.9349563849,75.5095527283,-3646.6623681275,4888.9592682444,-1116.4831905045,3732.0162544553,126.561494054,-645.8276168768,553.7008885632,16292.6043912756,52.2753019655,3577.639018188,-4323.5692829886,-2255.8111208889,-13060.1366632482,-1033.0071481691,9414.8112128836,-1219.8366229185,6518.8592545204,1182.627201567,2999.8149010056,-8991.1326299269,4213.5667344165,80.5209500037,-328.0612853345,-1068.4057108106,-2109.5083846658,-3534.8478759156,-14824.0096071384,-6923.3251134672,-1.7173642653,2731.1301431266,-1426.8955529437,-1717.887820123,-16462.4535041541,14246.7741162243,1037.8941412011,9164.4315518564,6221.1339166886,402.7548418653,-4968.1735627247,497.2285765971,10713.8548087506,2648.8951954011,-1817.4136590923,-2759.2384679399,-72.7008987921,-61973.7432258035,-2206.968260466,3952.7965848011,-431.286009244,3350.0291270959,334.3026403338,1619.445006698,-4326.8048995779,-8513.9616618368,-17066.7574449718,-285.1514489684,-6532.7547007683,-876.3926697881,-43091.0526850965,-25226.9606906664,-3143.877919925,0.5384125892,-1014.8931304591,6.4977843329,-4649.2331920431,3190.3270283127,6073.1379190951,1580.3453496304,-162.2747158305,-1340.8662747735,2345.3635615737,442.9636625047,392.7722884402,-822.330231565,-3.4373510993,-412.4562362815,1873.6762659243,86.6425079658,9969.4709390332,6933.3138039363,2548.2126646869,324.1946637639,441.741378817,-36.4744917719,-4518.576278081,-7989.4061399887,-7295.0242746013,2180.5724362263,319.3891200051,2069.9074846584,140.9113279816,26382.8692631173,7505.3945031857,7556.5597825817,-1.6674971009,6755.585687943,8874.0007648176,-7426.5505809013,5092.4075125868,1037.5231340298,117.7237343811,1338.437571471,-2534.4469437944,575.6401504536,2032.9430466986,-4529.148875594,17927.8629527406,5985.2024251113,12.124204563,1025.8140043144,1483.2637695026,-76503.9042911182,-2446.9396250911,-4598.6872434204,-1325.4312214619,10790.2063411095,2334.5297289709,652.942587963,540.6460873447,-8727.4953142027,-7557.3778878223,-936.4905781839,-12756.4327769482,2114.3607114858,-41179.2938805605,-30882.4379013136,-9405.0833083053,-1.4460916463,-5862.0824576558,-3994.4984192748,13446.0399278303,-8724.6700205215,13176.8749406633,9694.4212644429,10405.5087306255,3537.3642651933,1046.0154344042,16568.0412596544,-2512.7894846891,-4326.7359525025,-5342.5100468871,-5589.1605171392,2839.2677176854,5405.9074043627,98276.3781210915,-1402.3258603025,-19801.2069874121,-4904.6277562476,1423.7477880197,-6206.6404269332,-1298.8416616587,673.011762046,1917.8125990976,7705.5356920415,2304.9788401523,-9510.026644304,-12158.1448313756,28933.0240850109,44952.8570140675,-432.4421277823,1.9465826794,10137.5345501059,-607.623865603,1500.6654752934,497.6706576022,-8537.9290662616,1017.7076677448,96.3196618514,2394.0757853771,-21.2329291189,-908.3129024159,-319.5409345437,-1422.2842476682,-1627.28811231,1845.4394363639,-404.3319156353,-1392.0721542673,-4318.3940620966,-83.2974717436,-1101.6931411042,-570.8719191584,8398.942890396,-382.7301016349,1.0650457426,5717.9686851524,7010.7784049386,-1556.1576828928,0.0935797266,-50.6721648429,-16.4049335165,-1876.7938754363,-12302.1360504704,975.5847738155,-0.8794030592,-4877.1977660636,13918.857628489,18945.8391841947,4.6647269212,-25553.7917612547,-18522.6881531301,-18936.9351113676,-64610.2381311184,-7.0221911345,23140.6238991993,-2872.4371583452,3508.1805749173,9530.4479040487,-20527.4424482126,-22050.6673540848,-32430.3117740042,-38625.6968609554,1.6638274037,15679.0824837648,-9355.6658558364,3209.6377940722,-4199.5385098382,11828.5223241973,5610.1637795762,33426.1003175504,14092.5658868349,-284.82600104,-4913.4749488575,3608.8356300615,3570.4292129733,-3488.8778689386,-71.5970691766,-14508.8926834934,-20394.5616974784,-27956.0047992788,-1.7941814272,-15051.6292871706,-10941.6828435609,-9084.2799215041,-3395.8635040579,7515.2085987196,3996.8128827407,16879.1066980299,34565.6466261828,-4.2929084425,10324.6115528158,-18265.7319889197,-590.4968754447,-3606.9116758298,59126.2022799499,-713.906032832,66128.1668265575,94267.0725848636,-7.4618410222,25169.0808125863,3766.6231487854,-11710.3823318301,-6887.5098021633,59930.0922213758,7892.4981133317,13990.6450937579,77108.9075249577,2.0149376611,31468.5526065484,10864.1674792716,-7380.8563711764,-4645.3491199252,46340.9564575915,9111.2881592232,43684.7561511193,92923.8148882931,-12.8013370807,17279.3128508809,-20335.6188241932,-3314.3693202291,-11063.5947945869,86916.606359887,25496.6098512357,66812.8583121014,108647.938835158,3.4329481674,-9881.1369046911,-2794.0123434548,3277.3809735163,-213.8973362949,5002.693864409,-31188.4708164273,8464.5024691485,5373.8814824474,8.2033507874,-23018.1499203572,3976.5767600324,6686.0425835367,-9765.369345733,17631.4887526072,-2804.1805375997,-3405.0456757759,3867.8920103854,2.9783158627,-12909.6117383537,3802.0803726658,945.5535528255,-6461.080064916,-10012.9532260229,-22440.0300291495,-17234.9530408849,-40126.9950977952,-3.0016083786,22841.742613698,8365.0175287555,-14.4429907595,7145.6213670018,-24691.108007289,-8767.4599020625,16653.1646194077,10670.2982286647,-104.2013751186,-878.3431356649,3145.4648939807,-84.6447569485,2147.5357085804,-11272.4645845347,-1684.8023955021,-12308.5865098023,-40164.8605189729,81.1781514287,705.8142335385,7327.3684192826,12488.8947971518,7391.6837470022,-9088.3752144497,-29393.1870929326,-14536.2702411743,-31209.5387128835,-43.4397565719,20278.519739908,-9416.6994242881,5059.275430447,478.6536627629,22875.1575069548,-3650.5434601546,-7762.7548490096,-2091.8279377601,12.1078923046,-21797.4506537613,-16268.5263691696,-1050.5976561361,-6676.7562345532,6674.3698694097,-6763.8868909538,-17659.0046520688,-30152.078577784,0.3806505768,-6315.2953684001,143.2637142955,6018.2780355214,-1411.2269480444,23837.7358258834,38455.0605708942,4097.7858250829,2055.3978264732,-3.6107955859,16129.103084644,-6561.2954271934,-8787.2094127303,-6547.2652756805,45931.7675140775,-1928.3118469116,39170.961046447,8851.6748224921,-64.6903602537,8752.5278476345,-20311.1386463888,-809.7198845742,759.5877205629,97753.5796489263,-3570.9642225988,66937.6799943616,75805.7983325534,-760.17467331,13943.5263844321,3689.9775169594,-3275.5526287814,10239.5134400625,-41876.1674377846,-18102.0374632669,-15891.0973972252,-16619.5093645028,-22.4564430357,19003.945146746,-4608.6645033223,1559.2484525042,-2249.329639017,-19745.2056992806,-37205.626720943,16111.5608906257,-14626.1097757712,417.6911372561,-10997.0625665374,5101.8530033,775.7776886503,-775.8444540798,-37719.6224975431,5226.6793511141,273.4619942126,-1328.5400699133,-4.4164225492,5659.3525497441,1735.2500782246,2468.8122226652,-1169.5469667398,1262.3684961723,-8188.3775965989,-2457.3045288233,-20013.0740623042,-12.2044880241,-5815.8905410087,-2713.4374732359,12696.7521817998,-1668.6210751129,-33532.7409593148,-12663.0720967511,-42159.268310443,-66040.5947951444,-32.9950748894,6727.3853448257,-8252.3442344889,6210.3896708504,-6027.3446148042,-5206.3446903177,-6217.0003687638,-41807.1654341755,-46656.5656434996,4.9468225716,2843.4487300448,-3102.1566486504,8890.382025948,-616.8809922298,4609.7573915344,13945.2644179226,16915.6428831127,34008.5708982231,4.6856230875,-9691.4579215627,-12860.8153302244,6347.8428085867,-10247.6228002344,27891.7029108385,-5467.5687463032,8695.0396559857,-12789.4865014692,-1.5494244243,17865.6013983143,-12923.5993177729,6820.4718899831,-1760.0686646793,40775.9244361515,13712.2376958265,-52.5524243904,3972.2907592561,22.3804934513,4126.1409510443,-13009.3508236624,304.4211632536,-4423.0577329257,-3996.4589111852,-11603.0727801124,-297.1892021825,-33647.4897012197,-4.1301880278,18.0833979865,6.0168655238,-6288.5177973049,2.8196356429,-3.3038662368,6290.6069283605,3679.6318136727,6293.4269134935,-5.395580703,5389.0964626624,9152.4154769614,2900.2547255214,-4835.9515947187,-885.7681588115,-11375.6847223969,-16462.6329343482,-11956.6032677616,-224.6428982907
biasActivation=0,1,1,1
[BASIC:ACTIVATION]
"org.encog.engine.network.activation.ActivationSigmoid"
"org.encog.engine.network.activation.ActivationSigmoid"
"org.encog.engine.network.activation.ActivationSigmoid"
"org.encog.engine.network.activation.ActivationLinear"
