encog,BasicNetwork,java,3.2.0,1,1396902723680
[BASIC]
[BASIC:PARAMS]
[BASIC:NETWORK]
beginTraining=0
connectionLimit=0
contextTargetOffset=0,0,0,0
contextTargetSize=0,0,0,0
endTraining=3
hasContext=f
inputCount=16
layerCounts=4,65,65,17
layerFeedCounts=4,64,64,16
layerContextCount=0,0,0,0
layerIndex=0,4,69,134
output=0,0,0,0,0,0,0,0,0,0,0,0,0,0,0,0,0,0,0,0,0,0,0,0,0,0,0,0,0,0,0,0,0,0,0,0,0,0,0,0,0,0,0,0,0,0,0,0,0,0,0,0,0,0,0,0,0,0,0,0,0,0,0,0,0,0,0,0,1,0,0,0,0,0,0,0,0,0,0,0,0,0,0,0,0,0,0,0,0,0,0,0,0,0,0,0,0,0,0,0,0,0,0,0,0,0,0,0,0,0,0,0,0,0,0,0,0,0,0,0,0,0,0,0,0,0,0,0,0,0,0,0,0,1,0,0,0,0,0,0,0,0,0,0,0,0,0,0,0,0,1
outputCount=4
weightIndex=0,260,4420,5508
weights=##0
##double#5508
   1.2415906547,0.1914222918,0.3118566234,-0.4028182354,0.9184182135,-0.4696522526,-0.3927849596,-2.8207217367,-0.5152937435,0.5883071401,0.5325570839,-0.2164209626,-0.3364158796,0.3926688238,-0.217989756,0.577125413,0.0242216955,0.0602553302,0.1839238842,-0.8994185285,0.4212373989,0.3326723097,0.5973984259,0.3889458143,0.1734289443,0.5619630926,-0.8034433693,-0.5242884256,-0.2506971041,0.7509097011,-0.536070268,-0.6289560541,0.1471901993,-0.608384506,-0.6317340389,-0.337735081,-2.044683511,0.7023835706,-0.6244068144,-0.1989072894,-0.4151811444,0.3588007918,-0.2924748721,-0.0123229473,0.1449356215,31.4788204738,-0.105956544,54.0988773754,0.5283123588,29.2269246121,0.1595009007,0.0427889696,-0.4582542519,1.0560498538,0.1271442557,-0.2980155975,0.223644424,-118.0368147195,29.170968349,-0.0927766323,0.4327312805,-0.126377123,0.4905681007,-0.7886824565,0.0780190637,-0.4209477715,65.4449153154,0.9734958889,-2622.7771057966,-128.4409795756,-2002.5383569164,447.0287407558,-569.7492644448,460.544927162,0.8462363479,273.8585620399,-66.1504069866,553.0973699725,238.075442705,-3.2636173701,-170.3549318412,14.5286700212,-4.1109753588,-142.9040762042,-23.3834357753,82.0116488147,-1570.9656889999,-1.6634970439,-1253.5760974731,222.4279487154,-0.507005464,-0.3619393322,2.3915144219,5.1638050681,-420.9332489266,-90.2726689381,558.2979729848,1.6853425656,-163.8145032956,-268.3878058621,376.1331892418,-4093.5807926614,-1784.7313516592,1737.4924446258,96.7122970093,3.6491052573,81.3032558401,-5944.0632749534,-99.5390033273,438.5576458985,383.1360268603,-204.527858186,-1398.7269260469,131.8864305939,-491.4802704259,55.337179171,-1713.0959994958,231.4021814788,0.4801305978,-1653.6888847868,245.2227038211,-1453.0423991461,-1688.4048535112,-1077.7381976766,-212.932326638,107.9440976646,-196.9928267338,-1793.9821492929,-317.1726393703,-0.1568212526,-0.0288214431,0.7657052304,-0.0051731769,0.9904009801,-1.5125813677,0.1455859799,-1.4666245235,-0.4131721593,0.3389985963,-1.0398019518,-0.5586662849,0.2358873392,-0.0305020963,-0.6117552166,0.4757603372,-0.2833487271,0.1968731837,0.1143046852,-0.235462822,-0.1946466166,-1.3615091633,-0.3194114834,1.444105702,-0.1285036066,-0.2866508295,-1.3484393086,1.3478144612,0.843219928,0.6103328497,-0.1696746277,-0.336826676,-1.0338434012,-0.3540253489,0.7744110257,-0.2652763437,0.1461438802,0.8782478073,-0.7094891635,0.2973185202,-0.2279243513,-0.0945419128,-0.8590744012,0.2315020342,0.01781791,-1.3669605652,-27.0398250367,0.1220391818,-39.7743146718,-0.0475015687,-26.1060527619,-0.1183851472,0.2311754641,-0.0729991784,-1.4096752785,-0.2772312405,0.0805409399,0.5422033296,112.0233217501,-29.5459301695,-0.353795513,-0.5991486842,1.1230942616,-0.582414233,1.6504816152,0.6529318452,-0.9661241116,-1.2976797899,-0.7911199487,-1.2498061406,-0.0889307415,0.3716108648,1.3542762673,-26.1313598516,0.1641232557,-0.1661263305,-0.2007433712,0.9848651883,0.1387547499,0.1533439223,-0.5818490234,-0.9798783528,-0.8213783153,0.3551166557,-0.3889722141,0.695172885,-0.4909813182,0.1397977114,-1.1599528933,-0.7398554765,0.1687040315,-0.049412743,0.345397816,-0.6095504177,-0.3011924813,-0.726866478,0.5961614435,1.2619087779,0.0963301309,0.4906356705,0.8409520268,-0.2666803537,-0.938936995,-0.3667554889,0.9182802628,-0.2653343889,0.4489090686,0.2323794013,0.0726846588,-0.1140924779,-0.210821912,-33.2869139859,-0.1951618806,-40.8341004096,0.6900144649,-24.5160047183,-0.2512069415,-0.398384321,0.4336061918,-1.6390200476,0.0264704242,0.3698453215,-0.3010611911,-62.0463697683,-80.5709804683,-0.8515226395,-0.067147055,-0.474491677,-0.8387347387,-26.6089107766,-0.3370533335,-31211.8367351731,300.7040417783,-30819.0604972506,0.1753353796,-16013.4720747494,-10230.6306241661,-3324.5921066714,18726.5725297107,6920.3615347145,30672.7384950307,0.9397242294,20744.7208577441,-13993.0870335591,-17070.1741332471,-14396.091713303,-0.0774637165,-11159.5412831416,-10554.0695558251,-14544.1294155247,-8654.3324304558,7582.9114869015,18561.0950217531,13077.4069807136,-22.4335855786,3979.3805953537,15534.0612325162,32268.4108653613,-0.8913849554,15607.8280675843,-6162.7269045152,24823.2390664751,-0.486673998,-2.1795690462,2436.1503807504,-48707.6810309311,-13149.9905977956,71716.0713737313,-3606.0859886585,14807.984938741,40159.467844113,21448.1822441143,0.9531825722,-91402.4591853904,-11040.8282363793,-4214.4717369324,17433.9735095654,65654.5063746306,62197.6659634626,7698.6165488194,24622.0439240272,-4684.1071933638,24913.7249953981,31894.929209433,21195.9747391326,-17945.6053804807,24067.7664751365,15833.8201133851,-29148.9401427802,22286.4278200194,-12804.6958323488,38852.2944874128,26779.1489466863,9391.8411607244,3902.5406845154,-5.1848612846,-501.2800770207,-5460.2369354547,4438.7207987281,0.6560324212,-1737.0210325785,-186.2625219436,-20770.4654762768,-8621.5441920432,0.2461280154,5166.1404215144,0.9174241188,668.6315409479,241.1056001862,-2594.7515562338,-12393.0728000857,0.1543320796,-33036.1697037219,-15157.3354129122,41233.2870543794,-8789.6131728453,6459.6078577004,24583.407184693,-21685.9280083689,-3.2541754982,4722.510726235,-3361.7792980178,-9478.5467593286,-0.5783502777,-8947.7602035488,8239.1619542994,12438.1009639301,0.0698013605,-7.5552634806,-8855.2672770391,-63632.0141469063,-6989.5460906604,109.8604913855,-338.9548857038,-1021.3102547527,-8216.0888545319,-0.229926463,-0.3437333081,-106050.7534375317,6151.3173744155,-35127.7658592825,39.1276832131,74179.9290880258,59173.9279851356,-502.4065235156,56837.5168543512,5376.9644687334,2948.2727159164,21628.0367051173,-988.5315441808,-34179.5060887763,-29.1474708504,-15829.8211138036,-42129.1663675234,34201.76823974,-0.0792116782,48304.7156697251,0.1622577595,5239.2728674825,-0.0060729238,-0.7899766518,5578.0317520564,-10947.1288193555,-35537.1753785392,0.8908406531,23421.4067773782,-10753.1912563321,32233.9911217953,5772.5227493137,21327.2004019015,-16426.4695363334,0.352571607,6807.4151271941,-25288.3149353121,15561.7965724822,12651.5801540919,0.1280271889,19606.7867538843,-33010.0538712004,-40983.1921284669,-2003.8817738064,-14806.1452501379,-19521.1967679607,42317.8019784602,0.4054253144,14204.1745089111,4724.5135396286,10529.9704548746,-0.1562208924,9700.8188875395,-14839.1876025244,-33740.9550759207,-33.3355583915,-3664.5616136224,-14505.9192246896,35957.143885828,-27517.5963579311,-12034.0627354188,-15412.1586977213,-37472.925944244,2439.276050812,3.0812046619,-1.0032582261,20583.7336700844,-41754.2363865017,23372.3674948127,22456.2280009139,-18001.8982759362,-13165.2213577854,-2743.4245119091,-31396.4595956803,17666.9376938876,178.7724981041,1134.7074557668,-14880.8496016993,19365.9219521311,37269.6406766494,821.6964304012,6924.3674901262,-6628.8175833976,-4166.8449218175,-19882.6782240233,6405.8557538258,4310.1846805954,6.0083495427,-0.8035956854,-9.700305456,1148.9793867303,-4378.0424669677,-0.8875956735,969.8799671538,192.694887317,5232.2378217887,-10731.4781463117,2.4923736384,-4751.4899313673,-0.7276961533,-5552.3544713115,-10145.5453012409,13800.9303549129,2751.5429045073,0.085083475,-8930.7666039662,4020.2910009954,-10959.7274464247,3347.9733436756,23534.5612544313,27188.7052829756,-3294.4648318383,0.6275513045,-197.9727046561,-2018.2711739093,-14113.4924116136,0.9313877516,2955.8685271289,2889.7421813175,26315.011774242,-0.862522976,-0.4682039118,18093.6319556576,-24593.1463507908,-1949.3593040877,-32.9056499675,1538.2945032246,-881.6002016209,13477.8228250764,0.3263531178,-1.0451006765,-14313.0530488431,4513.2186256304,-1331.7239593805,-577.7824908174,59363.6885872867,51049.8480517038,-4499.412232868,22198.1936629373,-359.2622302459,-15879.4301677944,15448.3979429656,-2.5069088133,-50819.7972493695,-0.6707709963,-8049.788882079,-31481.532943962,38101.5542300072,-3.7316600671,23442.3666417287,0.4913962242,12809.9664258329,-10.2083861218,-0.3556508731,575.1254998556,2303.5691464418,-12020.8420723459,-0.7915463631,1812.2947730362,529.9784896498,3890.5777095364,1842.6388986283,-0.6486318202,-88.2837481941,0.8973173915,7942.3084216403,4605.7071556852,10602.1963981032,-5047.3257650584,1.0221060682,-21282.2636494302,-1568.71645156,-36062.7423413784,13730.2043240687,10929.3843362909,1436.9315090066,11810.1871407061,-1.0061999103,-6769.0958541976,8268.6201195895,3570.8771976231,-0.788106266,695.2653249647,-1368.0066670879,-25773.7667712944,0.7340276547,0.4021868385,-10720.3438364609,5596.9324650135,-7064.5990694772,-194.7677446328,-160.859640348,334.5259659337,-16397.5519997365,0.3983874361,-0.7310796152,3059.9748943749,-34746.7061062291,-1635.818383839,-665.009441613,86950.586349429,65427.4167452483,3885.803867784,40798.4085231774,-6839.5041162713,2167.3614031479,-15795.9887681311,982.7126587517,-29978.7332969178,-0.2744557895,-4305.0476201814,-48852.217897451,33630.8956315081,1.6504808026,2549.6853041847,0.3605510021,1146.7461902076,4.8705512943,0.8634427191,-48.423634316,5920.1636796146,144.3873529061,-1.8925684138,1205.1904918743,184.5489128989,-30261.770212046,-7945.0131862636,0.7718445269,0.7161383533,0.5443602458,-5192.7915613002,1599.75671721,10488.132856289,9417.8801877831,-0.2267916251,29168.3605319837,15399.8530104516,97893.8461186939,-3986.1834502784,20748.5742390546,26481.1972868175,-6473.9193199251,0.4211662462,23195.7274798289,-677.0823005571,3593.9937913423,-0.4525343944,13379.1642106686,44108.8161112833,48010.301194955,0.2469151344,2.0649898313,29276.8585252426,-15265.7037738918,-3030.0688197356,400.0085424822,52.761701674,-354.9294060443,41910.0126940578,-0.2677361226,0.5603591749,-45534.8085167561,55466.7258899461,6219.0901909517,-172.0334198184,-63305.0914217575,-49172.7524259611,16414.4397975009,-17673.6489809968,2900.7777860626,-3080.426925037,31540.3966042112,0.7648429758,47130.1432803469,-0.294422589,10077.814106702,62702.082963772,-25245.5014483721,-0.6962928756,17735.3968170222,-0.4378679465,-360.1724538385,1.1095964071,-0.7588593667,477.5529587182,-5120.9336676268,1517.5539498134,0.8056991608,-710.5284634913,-186.114910406,30996.0846648352,-3273.405900592,0.2975875176,231.6080628782,-1.0412197312,544.3677079053,-3351.8424137813,-94.9558620623,-758.1288363282,-0.3341897337,-1933.0031231248,-3788.5091485439,-13012.0206113281,-7389.010303202,-2046.2746714619,-26.5670125225,-6954.7431039529,-0.0483540084,18698.1495571722,-9923.5979855499,-10551.2455529421,0.3448834584,-1994.9628757004,-36882.5758771315,-16723.7085625432,-0.8648969758,-568.3589974954,-5687.3299389039,22603.9380365581,-11690.7396945073,870.3492903214,1333.2629414764,976.2617052954,-19015.1912515649,-0.8727818947,-0.0313416114,37517.3367104755,-505.7336895022,19664.6103778959,237.9370726282,-43251.2405811043,-26654.7610500382,-7982.2480726758,-17945.0810131941,1345.5299990223,-8312.0277613302,19233.0250397185,-0.1796347881,-4045.3333445763,0.0275171063,3446.2970720319,-10117.4875867151,-16903.8949317034,-0.6633171758,-26096.082928918,-12.0769991274,-15320.6396784097,0.0684458842,0.1546943541,-790.1767324608,-121.4649246664,-15839.2787239334,0.9099834769,-5492.1331850662,540.9391426411,-22493.3166637154,-4963.1731204247,-1.6358447153,25.6044976248,0.3710402658,-16331.053179775,-13996.1989409504,8810.1084207487,-10155.0207350268,-0.4299789327,-33384.9472865738,15326.732816973,-38897.4155344861,-5118.5018753431,-1971.0467509192,19841.5930860561,-33763.6827813894,0.0677895285,-16506.6024138893,-4551.3934117751,-21855.6011823154,0.0907736569,1203.1094031362,-7726.613205531,33761.9151864286,23.8129496255,-3.209551655,-233.9245804371,-40237.7445510059,-2122.7787814249,-269.0731545361,2979.4491550424,1400.4467026982,5525.719571564,1.1963738213,0.3899678745,-70161.8534216789,10254.1338993504,-10027.4408274288,456.1800396806,67230.0592971093,54322.8908569312,-7510.7672830738,25435.7964440998,1349.1114678936,-773.1315442989,12868.0832244327,-2.4727805778,-45660.943642301,-0.1234009217,-5805.8466522043,-41263.4143396504,34636.3997269562,28.1703308514,42710.0010618181,0.2801560916,-1066.9548720765,-1195.0567999439,-0.1892305261,1511.5222832902,-2883.4756186981,-2545.7305451369,-28.0143685059,-1205.1648728089,-183.0699727216,-132.1192079513,-11963.1957401882,0.2537507209,4.2669286271,-0.2741390388,6111.6947403276,4361.2800329079,-1399.2385875563,-1167.4128291673,-1.5413379091,23832.8335534985,-12246.3975760887,28616.6093543646,-10924.5168729039,-5207.4127089047,17714.984548834,6577.0107719282,74.0845204359,31414.3046057094,4801.2172805189,-24869.475079193,-0.8528164161,-20117.5995153639,9294.9270511021,35318.9055422225,-227.6375791578,-0.4154065878,18383.5891471782,-20214.6942797941,17447.3996264689,294.4297694893,-1293.0926707415,619.8158666364,20857.1697382878,0.254987382,-0.3498274134,-12783.3731551959,40216.9522499938,32905.4932581573,34.6362817136,-91800.3655956653,-73259.955639593,-3.4451779025,-45684.0767437906,6237.8204843212,2291.5746506181,38450.967247306,-155.4882216344,76626.7503469323,-0.0798470098,13052.4229459416,63493.2704415138,-23891.5899156522,-78.8686923112,7700.2958186016,-3.8044913431,-2951.0105006326,9.5536864568,0.4533227454,7467.6842468572,8194.3447589085,3665.5659772409,0.0608865449,722.461676434,-7444.7157707157,-14759.5704803697,2439.7175884845,-4291.7692662092,8588.0366671505,-0.0333735755,9522.4532073457,-2986.5088230526,-19673.7538584008,-6316.7895757909,0.6173411762,7364.7484991454,-6355.7949778925,4561.8396798194,-571.9749695349,2486.6338280521,-1590.692534664,11753.9270033786,-0.4497831398,14947.0946805995,9682.1033663592,22531.6768239466,1.0412131143,10769.727184268,9110.5390971372,2244.1346656286,1983.470130349,-124.6528475788,-2641.1227932881,-22244.5693070248,-15784.2885979785,1401.6882789111,-11318.9148187935,-518.1941667213,16903.0395532912,164.1668818688,-0.1901435122,-50482.2587557318,1653.5756016225,14604.8888750617,-5991.0223449255,-7406.3961081405,-13143.3140889309,6900.8459839484,-13682.3188139039,5964.0782771552,-3792.5121066494,27921.2582543649,15672.3430980435,55586.5384438047,10813.1214713261,-4675.6894397876,3865.6931509425,-10838.819586931,-2539.8994524438,25554.1708091189,-10249.7181885941,14494.6602338078,4793.787309143,0.2985401288,366.4500432707,-332.9977967713,-2377.9099050061,-0.7864306191,-1867.2775257381,-195.5686278104,43950.3897375277,8978.1532672163,-0.9855699038,-870.2631480885,0.0031842657,4618.7893360905,-10194.2837307855,5283.3923189686,-10238.4734587182,0.2388752737,-12052.4675702618,-39355.4640273137,-44962.6248940142,2401.1489101612,-5072.5931591247,-37774.1935274627,11977.3658232994,-3072.1568838788,-29772.3364152683,-7905.8548146166,9493.745135483,-0.6001536017,-57.6670498173,-32788.0841526127,-80480.5629510865,-32.6718495482,0.3768168012,-19944.2651549308,61457.0032586116,-5393.5019922837,432.4612204343,-708.5726172865,80.7543921438,-48813.690290535,-1.4926207929,0.2221278792,70458.7634987011,-60582.4344786062,-17658.3374550774,114.4722479132,42466.0134931346,39637.7878540607,-14151.7219221865,-4345.1392453543,4703.1757275284,-5046.9227344306,-20090.2516813771,1.8052242888,-64906.3178689274,-1.4468954917,-11565.532107522,-74175.9389041677,9210.7222659189,-0.5751404769,-31606.6425653151,-37.8714199868,-475.6663361208,0.2805017903,0.5553975964,26.6439183783,-475.5831914801,-2085.7274634564,1.0523227895,1858.1493348377,184.6744796884,39585.7479098771,13084.5477930322,-0.1783571534,-1435.2491535033,0.3015535233,-1718.3391537345,-13641.2699160491,7998.1487905767,3482.3973404604,1.3584719082,17634.0712276388,3565.8659792472,-37208.4742629435,12345.0404688652,-11608.4602163881,-17719.5237010303,6583.3117203196,0.9921830774,-18436.3829063153,-11961.3054939158,13212.2831273936,0.9900702911,5482.153339818,-12649.9009883729,-31448.3109245844,1.0724156295,-153.4607796414,7689.3601626471,68141.0064170654,-8466.1431015458,-64.7833838558,1306.5472578706,-333.7226572049,-30928.1785017191,0.4294865647,0.7110069874,63598.956867595,-21656.3055975685,11415.7236088043,-858.6126948297,-28709.5268765832,5872.6717289562,-4242.6775305893,-27483.5898538445,-1348.8480830639,6684.953132938,-14473.8556203589,6.8866751395,-22822.9761966611,0.0497409875,4911.8803466247,-16351.274099488,-20496.3055990956,0.5076011524,-57692.1862199901,-1.5048184112,-2360.1737410633,-1.0702323064,0.5535729843,193.6812954706,-1500.6355585903,-7117.0692757441,1.0142823075,-1205.815904404,-184.4554243136,-3977.7574331729,3012.0794649848,-0.1585972662,2580.0914349947,-0.1959262674,4753.2402758399,1667.1086381061,-771.0913495621,-2996.4624710229,0.0279398294,-7876.0575502558,-4108.1106879291,-5173.9872288085,-353.8853047795,20902.358552646,16157.2212101771,-18569.5361657508,-0.8438554154,-1076.5602817606,-2140.8853788445,-1405.9248788164,-0.383796914,1516.3036624329,-7215.4281773836,19834.709300402,-1.1262376466,0.0928074634,-9747.0593824395,-3687.2720523345,-47.5899906933,428.0225207304,-876.2067934741,390.8638356209,-17027.935838631,0.3168193188,0.7458678233,26589.3169337985,-9280.6369318929,-1298.682179024,330.3027598769,15189.4965308345,-1579.7713577164,6961.2721056297,27776.0381406327,243.8610951956,589.5607395269,5932.2299931755,-18.7149158537,-33190.437156396,0.4196636096,-4115.753324544,-11906.6039200848,27072.7481531903,-0.8466069276,-2115.9066879169,-0.5219280947,-1859.4699028254,-83.5480754313,-0.5435670151,-4.9741635441,4005.2480838466,-476.8454307811,-1.289488321,-396.8169702525,-116.218462861,4418.537544371,76.1873499701,-0.6905530055,-709.1137748852,0.4650897905,1230.6697491853,-3806.6772493004,7073.5904341732,-2236.8377765845,-0.2216122878,2002.5790620325,-18142.7528250297,-53887.7117966901,-1646.7224087503,13820.3999599628,-3437.6718175184,-12501.0546795915,-0.1565842629,-15540.621067655,60.7830752653,12.8459852588,-0.1120977624,6403.9606286718,-22379.9870784294,-20835.7726734789,-13.4640408704,-1.4639940575,-14685.2198951792,11410.2467682856,1042.0154939096,293.7443864871,-3783.0976470101,-582.8708987314,-6002.0942120322,-0.300905748,0.1193130808,28488.8344174565,-10446.6180052562,-7253.1612857663,-228.8772201601,17224.4179260538,19050.6594439485,-3382.2311865698,-25071.5762343657,-2813.2111113688,-3002.6944962196,15969.7097297951,1.723914452,-24596.0802257101,-0.8209420756,-2223.4213669268,-36458.9542671231,-144.756925069,-2.408523492,-4656.489647979,1.1892924476,-233.3498325414,-0.2623404019,-0.6103017032,6222.612345248,-1683.7528206575,-34389.8071290245,0.8500946976,3456.9789313207,1237.5971520722,15851.5985158481,-143.3073778975,-0.4974270517,2775.6681805276,-0.155351402,-2731.5606501181,-2471.2357533291,12640.1866183527,-7532.7150905255,0.8866251617,741.1968388839,5688.5725305025,-35355.5575927641,2027.2140486335,4073.4758423245,9263.273630408,-15657.0168616453,0.7977619559,-3197.9267044246,-9712.2936456899,-6037.8056882809,-0.4364238182,111.6534774076,-14026.6924403036,9044.9202541484,-2.1998954776,0.6591689032,253.3000188609,-9346.1799860147,582.4670792862,-2616.8571463254,1276.0999861056,-8532.0178259232,-6668.8069455383,0.2414799872,-4.7736881853,6513.4650674281,4587.8180280512,14003.9294254684,10863.861532967,-11175.5450206287,5811.1455430075,-710.6674288418,-8110.9743163116,8104.4774457081,-5783.7534732996,17742.1366278443,-697.1925406488,-4536.0280329889,0.4336535859,2198.9938883806,-8757.7355349486,13526.0475041722,-99.8645406718,10602.2984383842,-1.4808297905,-10534.8677386807,0.1530402276,0.5334501695,-134.5972892802,-24.8053475055,-7272.1945130555,-0.1884836448,1190.388103405,-6.2053025632,7509.8952177579,-10264.8351900004,-0.1830431309,1540.1321136779,-1.829952936,1362.1637172142,11355.3649867374,703.2512051755,-8780.8923809985,2.3368352525,-27288.9864932699,3686.6448406384,-59509.5653505834,11837.171812806,-1815.2197716296,-5021.1439443179,17472.1086670321,-0.3577280953,-18289.178776101,-928.191391647,-9255.810879252,1.082715692,-2780.8138487256,-6325.8512534902,-48925.1664857247,-4.0308636896,0.0012724402,-8147.7166452209,16790.1382500813,2016.6920536593,264.2054562727,1121.8967910023,-3449.8882610474,-18364.4748271645,0.881250565,0.6727897123,15378.1694754449,-41955.2198067868,1152.2968614928,-235.1193275229,72822.0698046041,55733.0135168512,-6659.8641084505,17130.0581655362,-6278.2868360626,824.6561346891,-16751.1283199858,8.5246699419,-23522.8563230362,-0.1036058018,-2385.4507842191,-65663.378068254,34869.4719605402,-3.6841407262,-8609.7691323888,1.9468855639,8301.7227520476,1.483459378,-0.6299999717,-25640.552931672,6136.2219322065,14604.7061355289,0.6247200016,-57047.0253937351,-1133.5107375085,-36809.2892207133,-2079.1332152309,2823.2353040022,26267.6984756817,-0.6154786757,-12349.9642799996,622.1790204535,1496.3673194344,-19487.7502921262,0.2336629867,-27153.7557733575,25718.3713767664,-899.2706966096,14837.1346700701,-4514.9875145032,23058.3833441887,-59408.6970426953,-0.7728772501,-26998.0271176888,-9279.9164625736,-25106.2514024346,3.8353192628,-12722.5079332796,-1907.8586514657,12937.3553436272,4.005321516,-6042.3776307252,-1658.7513099354,-42051.3196563832,16772.3248549393,45818.1520281629,24045.7749114055,17765.8239441338,-4431.3565852261,2222.921803743,-2152.8947638296,-42612.8210681303,5627.9018912772,-33003.6742842858,11220.9924471281,62179.7391719065,43646.8716023598,-11573.4204483036,60733.5330238836,-27329.9760904978,-17802.7925154139,-12017.4583255351,10096.0048286803,-49207.9627872059,5837.3785857616,-18507.1953903498,-32713.2818237789,39222.5194431601,14774.8365500337,5276.3234914235,-15208.8203908326,-6935.0843569653,-1538.869251167,-0.4068571879,-0.0868215674,4958.2534256279,12918.536313548,0.8926676126,3021.6840743755,-1711.8304500475,-22433.9228403085,161.3624541753,2.2608152335,1030.6758939066,1.0760372665,-994.1846066016,26029.058560511,-7592.1445219729,-7451.7982809168,0.5991916251,1834.6615395902,27357.5653657742,63743.9075582766,2790.2666544338,4785.656894556,-3819.342918846,-10917.4599561976,-1.0688811393,-20331.5133769774,1835.5463485022,6666.2835551833,0.195068764,12930.7711901201,1358.7035877353,-15908.4425419251,-0.2454124397,2.3355882925,792.3372847875,-15505.7049555222,6770.3009845168,930.7555379931,7823.0996115106,-5785.8979064108,-3156.7307835014,-1.0504906498,-0.17490444,-5263.0100390676,2782.4540148252,-11431.3521727403,-1964.0768102879,-31689.1142429819,4799.9645137022,-9058.6741886012,-5744.005388097,-1318.1051442063,8933.3186736749,-10478.7691952426,134.46538945,16740.7916611383,-0.8570565671,8423.1229095886,23040.3449003363,1726.0971358719,1427.6757905425,4629.0935392427,12.6971493394,-5964.3771970463,0.2333367239,0.2758648513,-11243.0282964678,2900.0906315037,26689.9517423933,0.2034527155,-4444.264815485,183.0551666755,-6078.1750536055,12738.3399590054,1.5761720347,4204.1655427317,-0.6718623137,-1705.3959314746,7155.5789282234,-7604.8409116722,-4382.389501792,-0.7456387168,5747.8678232846,35564.0285257881,13776.9330867374,6813.3471671149,-14387.6328960152,20314.2507784977,10829.1949660289,-3761.0684929192,10568.6020461743,614.8106928286,-5457.0006671243,0.3682457209,-19940.7501469144,19617.5820640471,12167.4507222911,8.7113765606,2.0328177295,20197.7183545981,-22199.2514446375,5568.7795843519,14963.8676938618,6672.0678756326,10799.3887759005,-8368.2307616747,0.1041368494,0.1219080044,-36230.7378484759,33723.8207554274,-3203.6489479685,-7178.6415116136,2911.1775560892,22146.6670932077,-500.2009924727,-2815.0638531471,-6004.4346984618,1014.8879543104,-6184.317171136,-1275.216959157,8251.7499647066,-21.9634935341,2991.7987386494,2863.3313182793,-5194.5090094454,4967.2844143045,26490.4624715604,-0.6123234612,-2383.6249079673,-505.7025888189,0.3812494893,0.9971575369,2667.014567046,47851.2663981196,1.5461302124,1782.3020231507,64.5028782061,-19925.7637150181,3277.4288682238,-1.4990399209,2962.926057405,-0.4598087186,6270.0644269608,18920.9065501055,-8455.2599331435,10655.8220743625,0.5219495679,43504.8957864807,30904.2897200139,85626.7895878302,-7359.5293479042,13770.6029834642,30598.8835709967,12467.7990228408,0.4218463036,30631.2709695964,7236.5561157988,18001.4788775688,-24.4878595843,11460.275428235,42181.667734434,65438.0397560067,7.8332325645,-0.0065859466,31123.18288111,-20466.4744126572,4250.3037646999,-2529.5983821973,1301.5190073628,5182.2870839397,29945.5387189921,-0.5659297817,0.4537824187,-76092.5966355212,67078.2331069087,34501.2182076368,1.5714696729,-102612.8592841842,-79371.6618562977,16279.6447972222,-39466.2627788072,3105.5046177531,6492.8810224289,31834.7874936052,0.501888974,87947.6527202349,-1.0919059992,20334.4641089671,86846.7231408996,-27988.2878046102,33.5008736771,14904.8894220517,0.5416006504,6419.0129422901,1.4234680422,0.2248418099,11905.5707316156,-207.5126975023,32678.6668913149,-0.4899191087,13883.1109773493,8197.0090222156,12607.5279111118,22280.4504157912,-4926.874580465,2050.1120979403,0.8500778643,6032.7800034692,17816.9952025149,-42440.8743304525,5513.3275697643,-0.3520346816,11406.3393048009,-947.2692164188,10111.0426582861,-13098.1226398796,-42871.8819149397,-772.3176386189,9497.7961481488,-15121.253721592,9604.6928430086,7489.2698883044,17549.9687059377,0.2589044048,-14326.3448296925,-11029.8199238612,-7062.9867076969,3651.4674014486,1.1525438476,-1918.9930639862,1743.6128351514,17730.2723815246,675.8339992454,16908.6025829834,-1187.6612643905,-2136.7415714977,-2467.381992978,-181.3515114423,-39004.2036176042,34256.8543546009,17919.4057443904,-22153.4140771648,5222.1799576604,4966.6822056444,6536.1589763794,-11179.2969458844,3039.7884138427,20717.6702999967,5212.2389822831,-8702.3313586279,26506.6666510231,-24164.2745683989,-1470.0622187817,-8513.371156651,-6181.8245422863,6714.3729663193,-2813.6559194119,-10594.8037074966,6541.4918359362,3.9114069672,0.8139990791,-992.0302474017,-738.37616608,-624.926605077,-0.1845003013,1204.8718069841,182.6750873123,-26392.999982155,-7765.5134356463,0.7263580735,-1972.654283915,0.4957301726,-1199.9629054491,-4744.3361153698,8916.9175742126,1806.3238446404,-8.7247166166,-21064.3947457192,13608.5732420627,-4330.2607352618,8375.1860049875,7092.7276662101,25991.1727685648,-13488.0160645087,-0.8027017727,19865.7240857791,-4193.2999695527,-8279.3044972423,-0.7262508989,6581.2089881853,4317.9382612719,41556.0068192824,-6.1005696117,-0.9117626152,11418.4218859011,-49608.9576963434,1483.5821454861,-429.0014145971,1205.8465069686,-35.9177082343,2820.0072974914,0.3033987769,0.1897318456,-14522.3481339685,-4529.1163728366,3337.318222471,-218.5897060902,58917.7401636427,23548.8068708423,1986.1371541218,48077.7526867913,3357.4326739223,-3947.1887914561,37423.8630221893,151.3032189757,-60240.6237657901,-0.0630211605,2403.640457817,-44170.3735223988,25675.0773372968,0.2666263013,56441.432331737,-0.832843606,-137.9621651242,0.6162663416,-1.1142430991,-21649.892861543,17110.1742557054,22324.2683920724,-0.106051106,-34230.0789156385,-902.9778332464,-42253.5867118116,5265.620805811,184.9547868869,34628.191685469,-0.2705915991,1452.4902453486,3652.0671853657,6857.212489549,-23283.0940477059,0.0193486599,-32005.7137294629,16072.0596532062,35061.9638209488,8057.6606222373,23595.9631328699,31955.790475366,-22212.7928119117,-0.123186003,-13654.8272364538,1123.1172065375,-63.9081744632,0.6411935466,3724.4088243965,20821.7174847911,42776.4039068804,-11.6294017327,-0.3501027009,14518.8744151468,-71063.0582539329,-2327.3075832677,54406.2877927444,2177.715217525,29905.7086977184,7273.576624008,4349.9949884147,1.0320550434,-85151.8944977296,-8737.7702354592,-40538.703396182,2543.4054597129,102912.2642006619,75701.9359008492,-401.2865970952,57752.8805012695,-31688.4098616643,2287.9032765896,192.7704727401,20178.9468076628,-68304.5264364352,-140.1073806677,-7364.9848974423,-44091.1239351638,34774.3321703286,1664.2489972296,55675.9015130991,21861.565174809,7775.3059617083,-2822.7079828349,0.8965582209,-3.5465639661,3219.1714956534,-3316.6634921506,-0.7908471528,1205.3420259339,182.3817496412,-31240.9639361858,-12791.0670995082,-0.8676068077,-69.261076369,-0.7487088901,-4970.8989452773,-1512.0263332169,11903.2011477513,4598.8342665848,-2.1322497651,-485.528849735,10905.7649518007,73632.6970040733,3069.3056914394,13246.4897976343,36954.5227638056,-26436.5223136531,-0.1657890064,3353.3129458868,-1954.4030051778,-13467.5310891284,-0.5877818918,-3919.6769604653,23732.572945525,37018.7105003318,-0.8091410349,0.1402934046,17896.588145171,-30090.3658531252,638.6447434431,-39.5179932727,696.9202882178,-613.2025090355,15829.3417525742,-0.0874458191,0.5938977596,-44765.7363824293,39502.9704242492,-4867.394411405,-232.2882189398,13549.4976629599,31752.9445875869,-2779.8395584062,39451.3229171323,-1179.8542280758,-5105.8114236366,18400.7014579747,-2.0806559122,3183.7459937939,-1.8419597169,4556.6185630309,12572.3412673147,16228.2820802276,-0.3165520722,31130.6500410986,-0.0850120152,386.1221609896,-0.0864441694,-0.0607015357,1053.8840455362,-2005.6939004623,-1754.3958883106,1.0790753388,-9.530461299,10.9872670904,-15444.4200519061,4178.3087372985,0.4403888836,-2403.947234243,-0.193099002,1378.856228691,7675.7411713163,-6442.1108098574,-1567.7430510306,-0.193630366,27046.2376764056,-8762.3527591829,41946.3327022932,-3519.0888220941,7269.9684125911,-1868.8233143408,766.8010406425,1.2295285649,22342.6763489634,3804.7934547228,8225.908802412,61.0882494116,14023.5382892446,-135.3102713443,-13670.4388441724,-1.1643204385,1.2735355062,440.9156287233,-10371.7006146598,-1600.4153505994,-663.6682369092,959.3967399199,6905.5663735548,16765.3713000392,-84.0651716691,0.0096220063,-43538.8015946576,99.2755423842,-16886.1661171676,-10836.0707409401,2559.700338768,2697.6262716423,8432.4887955616,17038.4967450095,2246.1811155096,-1896.5379892782,2261.3203701367,3.3901842302,30766.3321584864,1.3508747756,-3207.0065692282,7114.4969142344,-11054.3235633793,1273.5259182486,26821.9061922537,1.1402090019,-6560.4812591985,94.3680471869,0.6795676091,28485.2412854414,-3481.0952649154,-5108.9593047498,-0.5426155138,37058.3161845324,-4417.917799551,50175.8383147109,4545.4059314618,10193.3643986404,-13658.5148393046,0.5289960176,6980.6226899198,249.0350950352,-9819.3476646299,3207.3747698981,1.1466160683,23859.1816788373,20261.1135191072,-20086.1108054173,-8075.8236983787,-27152.0624720649,-14128.4723919727,21837.3785643314,56.0730605764,10324.7961536773,1744.0821613457,-2143.111281315,0.3462684017,19185.3671658575,-34938.4059266636,6027.0901354524,-14.5192464003,1.1594755928,11593.0919853441,3431.1850142564,8672.1317975445,-28110.6152415558,894.0313437755,-3948.0098376677,16054.8997660879,10893.1845855426,-0.1232186297,23263.7298474122,22005.0928126265,62693.9577557911,20577.6828605524,-75213.2932079639,-70256.1952563199,3815.2165273549,-51273.7976495917,26041.348621598,3895.8317488466,51631.9149093511,-2817.0087315498,59798.2059681521,19684.8789250848,11820.5707864646,12832.2595564412,-7332.0705151017,-5021.9629579171,-13687.4102547222,9375.1088051882,2242.1935378738,3422.721744994,-0.8132826872,-39266.4212745572,-1508.3495298361,-44033.4998520999,-0.566359656,10551.3631058494,-16067.0080956091,18663.5715360933,-6035.2661272498,25066.5055685124,9317.0375886584,-0.5902940042,2247.3371466544,-29380.8394021541,23892.5973205464,-13057.5836712046,-0.4117349116,-31424.857825855,-23754.012835815,-34415.178949558,9434.5320501826,5472.6469005542,-2311.9047534151,7607.6209234959,-6776.5766450263,-7038.2298155405,-2614.943446116,-24745.5945794293,-0.4201491826,1392.7870389321,-23212.2573705068,-12622.6237830489,16.103524776,-32453.2376422377,-6851.6255309713,-3610.3757604483,-28996.8971887382,39580.8783524506,1321.1220567986,-20372.5723855644,-8233.8771085739,24779.3859419817,-759.4320926827,42088.1505420861,-22049.5360006405,10203.7421248223,37158.0614668974,43545.6138767322,2992.9421413451,-7632.7098251762,25709.5975020168,-15118.2341072787,1235.0151037309,12657.6030471314,20076.5904728851,-28499.9723503352,57252.5182909418,6283.8785604279,-30951.2835711319,28445.5289518846,-1529.9389404353,-24730.6142589175,52548.7155933008,1474.4736960307,7439.8956345588,-0.5893128657,-7972.5135791685,-1314.769537248,36117.9409193414,-0.6661535437,-41030.7694857393,2919.0631536794,-53703.7137613143,11854.2912380611,0.8103498735,10524.6897580172,0.3083381582,-5109.3753089423,-161.9546811133,-23873.5338249662,-11600.9266641008,2.1407061659,-21569.0662734714,590.8588250168,56341.7108867171,-9618.8105397404,11994.3767996256,44034.693389867,-34783.4002021408,-129.8626130164,-7536.1594630497,-5248.9895461142,17636.4920946743,0.209791507,759.6995042107,31341.5158193758,49829.0988744351,-3.4103249487,-3.8168880006
   22419.5713692365,-71382.8767910309,2331.8725553985,11138.3211840861,6240.0207869399,16062.1020916123,27325.3892171103,21.5570783838,0.3095694098,-118625.7616947505,14280.9053250706,-29550.4262257588,-5796.7937344426,67224.7259478656,67588.8824392443,7687.7863683553,42257.081165565,-22152.1841097814,118.9083055079,25373.5846512609,15547.8138336385,-58655.54566753,-172.2762083018,-18578.5783142071,-18888.5962485731,22610.4002989834,2142.4465481096,59922.4966048456,0.534493334,-110.6886165214,-35.3062114543,-0.0105876373,-14.905803865,-995.7963360267,-15265.9086017775,0.3394368023,-4752.2999781183,-977.8373517364,10885.1484128848,-1285.1707467864,1.6202238626,6.6105251043,0.8591191092,-8395.916339988,698.5246554307,10783.4359642384,860.0749772427,-0.8192738217,-13138.6429345554,-25823.7374290564,-26253.8335545621,7835.3934290285,13226.3826795411,8001.2773657666,14487.7170352548,-0.2064348058,-6090.8614986283,-4220.7582373621,-9953.2929675331,-0.690274229,-974.3481982706,-2482.8593014469,-13695.9088247152,0.5567999155,-1.2566172482,-12540.3097929455,-13470.2945636412,601.2301062667,410.7358273451,8634.2444363786,6136.755673723,-16668.9257351936,35.240415108,0.3268240944,13825.5860086618,-21321.7176489504,-16813.7191975099,-990.5254978916,41224.6470560781,48578.5756226085,1387.5703446043,11842.5306293584,0.6901956239,-694.4860940953,-18415.2762135028,-38.3184731855,-39505.4672905586,-1576.9009844907,-2912.1457298808,-25441.7827633681,-3890.3294475383,3243.8048069495,4199.4159339732,110.4445058295,-2280.9249112633,-3.8574732276,-0.6268379777,-33.9694837494,65.0473284104,-4538.0996780549,0.1333855025,418.7119233036,183.5420107208,8016.8441289927,2757.3989443212,-7.4366318981,-955.3551731101,0.7715312948,-10221.1819079491,-5682.6591112575,7238.8680649742,-6832.1640807983,0.9042667513,-14273.5653596996,12662.307159576,-55393.881771397,1584.240146186,-15329.1680557399,-22220.1279675131,-15884.046582193,9.6281327394,-15229.2317097422,-4531.6126363939,2838.8835718669,1.1092390696,10879.8351608208,11605.6183270601,-6469.5970156024,-1258.668837298,73.2529455055,-13650.3844411912,20809.2828447409,-5814.2058267416,6087.9534757981,-3058.4455451874,-714.0828206505,-2907.4280962225,21.7566542994,-0.6409778349,7283.5111513933,-5678.7803758041,-10863.5040144566,-6611.4720729463,13685.3012815085,17604.9620102375,-6744.7012768188,-685.5297852802,-3434.1426675786,4602.400190924,-8655.8703943374,0.8075506397,-5270.6144678551,0.8237860349,-3760.770721463,-30431.6528295058,18404.07541198,-6.9650751328,-16026.2630476247,0.3387183654,-6605.7142077701,-3489.7688917387,-0.0463511878,-1583.1937488951,3939.1305419183,7043.0733984283,-0.1117564787,1495.6412506792,184.1344245597,-6964.6051219908,9795.7404734344,1.7563004688,34.7157283693,0.6060882997,8609.1284475237,12985.7259060314,3121.2845552377,12591.7501433725,-3.5470118793,38041.5663680758,29650.835050102,16807.7031457049,-9791.469427903,7294.7812177606,10840.678695948,22329.6912337719,-2.1853907661,27891.4511944705,7188.9536924061,14364.1658143021,-0.0485271851,15242.1226425375,31822.8193227312,58975.0942707235,6.5063410457,-8.0112630362,22983.3857529157,2716.5932378334,10609.586016253,-576.5478568638,1054.7510210058,12.7376337084,28002.6595982592,-0.6396285219,0.868638965,-51200.2008221203,35376.3047005234,39033.5303153731,-97.4332660859,-96662.611504532,-76508.7365941568,16453.3544329973,-69294.6560452953,-467.1130959832,654.556740809,15534.3703812399,54.0022847174,80201.5274373199,-2.6750190222,18840.1180733313,84743.9136949595,-29777.9810915134,33.2004929512,4549.0079833917,0.4028967498,4627.4273712452,0.3906606214,-0.5980009282,1.4880447291,-3769.5829106219,-1620.1222339528,-0.5569371927,215.0955366782,-184.8831493057,-14567.0759524818,7645.9495552448,-0.4802682773,-16.5982299417,-0.0602403934,-5466.4109701329,-17363.9489205357,4467.5334944613,1170.4513922653,0.3723372131,28776.9589867719,-4168.8598453217,39217.039870482,-8837.6673418018,-9573.3974231787,5575.638164981,-2566.2810563545,-0.7888934083,15334.7979949973,-5564.8476510856,2744.6481417271,-2.8163217273,371.7842973463,-925.6658266952,340.0754130002,1.5355302116,5.9236427181,9865.5221642352,763.0025227091,1168.8638307824,302.829245844,194.894696553,-4223.6137255035,12650.1086538077,-0.7581472992,0.0127652658,-31108.1343167808,16388.152821967,3676.8216782651,11.5111617259,-67641.6633165157,-28561.674797736,-3227.9466044568,-41368.832785888,-3949.3455743414,3996.0835508164,13816.1310614713,0.1572955159,17963.5623311414,-0.7536786761,-607.1416592662,39298.2470608112,-20410.6104742006,-22.2935910865,5689.5398654169,-1.2763879031,-3869.2159067055,-21.3581191515,0.1153006176,59.6463625236,-2950.090378382,-15341.1628014013,-215.0729654905,5780.2834633111,-9823.8266734598,-683.1494905819,1942.3927728194,13677.1838630828,-10303.9543871067,-0.2172361519,6442.8910127873,-2734.9263445406,-3933.2224563484,-832.8719864076,-0.804184241,-5284.2499517394,-4678.5220600005,27523.3134751234,-9322.4511494925,-9378.333686213,4611.9105156702,-8403.3252587095,-2456.2035862051,-3709.7165374484,5004.6123732108,19506.7604740817,-3.7539119945,2224.1501001721,-6239.8478731917,-2387.8135794531,-51.3055418807,-1.032862813,5924.0118160197,-24034.6425438733,-6610.906385084,-13303.7616380642,140.8349048574,-25356.3341238144,4575.146127953,-0.8357704222,-0.5800388052,-64540.3487000564,14248.5907556458,9959.9550781028,12723.5819809439,23617.8388149429,-15479.6284169127,4492.7387612474,24886.5987602672,2208.11004357,3985.7980875119,7423.1722254202,711.3646145502,5948.2042235595,11424.8803289023,607.9515022478,-6802.4304536574,10548.8056734061,-17.7023346707,276.3107735122,33.4545696374,3623.7129153978,0.9082997867,0.573416114,9551.8321970427,-11669.2781090115,20581.6484402654,-2.9921766187,10257.3863173129,9758.8461403237,-18480.8591452692,245.6123139334,-9028.7220945542,-2649.0495467711,-13.2149292022,-5038.159320726,1195.4629934192,-12838.3630603713,9992.7631809589,-0.791872996,16282.2902098539,30133.9967040739,55606.2077743716,-17714.2597215474,6144.5449553083,24793.8514290271,-33709.5037154289,-1.555387114,9884.5881075712,-2147.7861170806,16008.8427855975,-2.4556777243,8541.3497806583,23847.2893414889,45166.316409594,5.1512075848,2098.0680328646,23122.3975724506,-31366.8028585504,8427.5516732077,-15940.1459350345,-4691.8420494385,6136.0757434817,34162.9370120685,-1648.5705591129,1501.8886180975,-55696.5842789612,42596.6480901747,-5035.6521396139,-13849.1501310399,-36229.888882777,-10357.0178690724,4101.105697001,-2362.8408524667,9925.6169216607,-5695.3846848839,37645.5586643563,-2801.5861957746,1425.6712979206,-13806.3772737746,11531.8491780904,41597.127052049,-20302.859777597,-4869.4873570044,15618.5756681445,-11195.0541261433,-5938.1347114319,2.88039779,-18.687290988,-9.8972998361,-550.7373657787,-25816.0794089649,-0.9681073448,-2594.6413852231,-1908.4199105324,20425.8794238026,5.9084285732,24.6903752519,-180.22817703,-0.0876524646,-3064.1916968797,-7532.4767563906,7807.6751208489,-12497.4181606275,0.854660181,2730.0425995575,6700.6907317146,-75042.4834411892,25615.8591189789,-16219.8656621553,-22978.2667083486,24637.7583714423,1.3445742838,-15702.402837958,-2322.6056235851,-5260.460960259,2.2292096072,-10208.6151005475,-15732.8466023506,-68515.8429876743,-3.2117057345,0.7747494243,-2363.4469289278,53707.8682869202,-13073.3224870474,1344.8319715036,1846.9160775626,-588.240581427,-33877.64802957,1.8529121281,-0.0795129899,121425.582834651,-35697.9590327565,4184.5753154887,393.2726488226,2410.4833205841,-2295.0657626865,1514.5700739785,-10820.0044928879,-0.5757172996,557.4780590997,-36873.8561569795,1024.887965712,-10098.4023896853,-0.6595164743,5104.7820960754,-27206.7259441511,-2701.5118536717,2351.7522188292,-44105.204565286,7.1547054944,-3150.3508194064,-3.0002825509,-0.8970902902,5.4387586774,-4947.3253172949,-3980.2559488475,-0.1451850741,-1374.5921050725,-183.7431381922,-28943.4925046882,8190.285005797,0.8248263398,-2078.5572716901,-0.8080280218,1032.33813704,-4200.9157949379,-7895.4786219049,-2149.7128541857,0.6277398147,-5094.1592915691,-4443.186377339,11972.7546912599,-8402.2339472129,-2001.3768113551,27656.260367631,-7564.3184464352,-0.4459511381,3342.5944660761,-1644.4593282704,-16894.3469263143,18.574617264,-12904.8087009942,2990.0640188266,50936.5837961597,-0.1841586686,-0.1510293242,17856.5782281709,-32653.3848641687,-2782.9381355705,313.8951746659,-1121.6506180636,-812.9393051052,8869.7212718379,932.3182707098,-0.261457359,-50924.6696266965,14701.7326719392,-14148.761810977,274.6761091924,-9858.6800659113,2228.6751522573,-2999.5213677913,-1241.6249905227,-10883.7423890826,6609.9200887108,-9180.8620154516,-407.2902233692,-5073.7680675031,0.1049131256,2082.9381167472,29820.5292465273,-9164.2950065446,-967.2815869131,14104.6119204396,-0.0421264866,-10027.6438315931,0.1340456927,0.5086588747,-2438.2524950796,6002.5474829484,-3659.6338037057,-0.7588349611,1204.7926386029,181.3401989411,2734.9973847827,-8343.5046414532,-0.9855157179,-6117.2557280195,-0.928925764,-8773.2026419464,-12254.6670882774,3404.7300135023,2981.758985888,-1.0641388619,-3016.6589829114,11667.1964736662,7491.7945284064,1792.4670033795,6931.2861372589,15311.2227619927,-11738.1769320972,-2062.1070394693,26821.1458458166,-7658.8400302374,-4037.3098678533,0.0744322579,-14845.4934773028,10926.3709541586,25481.3735170101,-5.6649272353,-0.0297114569,6092.9523240666,-5997.2320241472,4162.5668594044,-140.6469751578,877.440537568,-35.8113860623,6951.9879969431,0.6257075104,-0.5602275066,-36751.3751153993,15129.7816225588,-8299.5234595037,-217.9847606993,40581.9451739368,32139.9029010146,-5694.7207242105,8078.9269240274,-8917.6332086029,-353.8803579394,21042.7657365386,-2.0833575527,-26293.6271969422,0.0906602801,-1939.4089647434,-12508.9583214185,11187.3757987715,0.342123204,7390.131662053,-0.019168415,-12883.375294086,1.1757666241,-0.9226177891,5214.6721185639,-3675.9494209351,-8366.6425909416,685.6840810093,1439.4234452919,194.4757110728,16482.4543525348,-10591.9105633425,0.1516858853,325.13405166,-1.2320219721,1509.4103864586,-1838.9400552825,5472.1363626305,2908.4175935371,-2.7054742512,-16611.8487995247,4472.9737587732,-40470.7056924039,7595.0570544804,-8897.1643899181,-15090.6098029196,10474.3577755863,-15.8639539259,-10068.7236995892,2250.362960508,-420.0561613902,0.2382737719,6870.9239959674,-2122.9826972649,-3727.1873595246,-141.4514561279,0.2821227867,-3504.998268106,35574.2598697635,1585.0230660109,-60.8727443245,1744.2015817618,-174.4862402313,-19010.8594621516,2.2487769264,0.4043638636,44339.7329035223,-22170.2098026466,6962.6520221807,-856.8202208892,27751.0048911588,-9239.2247750751,28.7203376446,-5779.6104040345,-1211.5418419572,-1533.1920995352,-18841.1278519404,407.9993126048,-12654.1480524212,0.5907338738,2698.4365391582,-25011.0676092265,12546.8952224927,-0.6287483646,-32526.5386794504,10.1038304864,4286.3352882708,0.0190919822,-0.7099843093,167.7101550649,-1404.3327656101,4422.8034261183,0.0470439713,-2556.899472666,-184.8411988452,-34403.6094676715,4657.3613465577,0.6201063982,3156.2478183549,0.3709751614,1877.1230489226,7409.5980776377,-5219.7270973699,-1573.9326081797,0.1872525578,8915.7676651615,396.8386038241,81057.5144253189,-8923.3547791736,13018.8258454289,26593.4110589624,-20003.3389816412,-0.4384612586,9519.9219623802,2632.1730843159,11732.0265602334,0.7833980126,-13661.2007402222,13371.5939828719,29501.8479596593,-0.557745763,-1.1797311886,14262.8085421107,-50778.7308777229,1609.4920944115,437.1208601105,-846.6932107508,231.1967410601,19061.5471541216,-0.2728712783,-0.2958667812,-115270.1004614651,42144.0370114722,-18089.2427496147,224.054440786,-24154.4517979729,-3808.9022077189,3183.8857386212,10306.2677798993,-5209.0260863054,108.1248092677,3345.9763151658,-5.2280792395,48119.2731382336,-1.042394911,-3106.4248603943,47043.3813854918,-27709.4485065326,1.0133649613,37989.301885741,-0.6155492861,-211.892485489,-10.8439809482,-0.138511106,1776.2177720676,102.6293779051,-5053.3928519504,-0.6824620333,18816.0259778935,-4614.1376129151,51434.6455101644,-2554.1565544211,173.702807906,-1327.7991812605,-0.1436866817,3255.1153510234,-1900.704531318,7055.5169309958,7070.0317589337,-0.3410748576,17728.6420699253,-5630.0601367858,-25523.5139571285,6280.2809871411,-27489.8880437252,-25174.5035129167,26870.1778381322,4.0108174355,8602.4147112619,-3111.0749280266,3998.0145099387,0.2083711186,2704.4007574512,-27771.5695223067,-48313.9684939922,0.3769786064,1.471347714,3264.6386712462,59395.729529286,-566.3118170058,-3047.0823780659,-4824.1451835635,104.0186852189,-11741.2787564744,0.6150379988,0.0935955045,63031.5273900828,-1325.1859897207,37600.1683026971,-0.0236169601,-54173.2051403163,-60204.9904269242,1722.1713631168,-24112.9951995745,18355.4764420811,3776.2655378964,-18831.6829827211,3.9493526271,10387.1596305996,-0.2994268765,10063.1327556097,16831.8372331668,-31388.401074752,-231.7494210263,-43537.1456276389,30.290589961,-6505.5686805854,47.81397092,0.5110273775,478.2091557201,-11484.8643084313,61278.20587886,1.0399673524,-22514.8206156078,2.8060245405,-53386.9682246645,18378.3116490411,0.3406618794,-1498.9097440732,0.7544201562,-2481.5195852072,7780.1081759351,-29896.0294470656,3720.7986690211,0.3674834363,-7129.326450224,18094.0372172202,34503.6296441636,-16638.5893066003,20154.9741114579,43831.3595486078,-29229.0892898807,-12.1771472619,-4731.3200217673,-6331.0449456646,6665.8263242168,1.4691491449,-3637.4730039102,34279.5522589734,70461.6356486485,0.1716821178,0.199665974,8447.6158565742,-32350.0419215665,27419.2745191408,4777.6457207252,12556.2199234126,-1924.7185558607,25495.2240601323,-656.085260763,-0.0478973494,-91822.4196619,71645.2495748678,-29993.330889328,189.2016018432,25323.4135140392,4702.9279793102,-8512.2961575141,10919.5932335629,-13344.909323714,8221.9735835371,37266.4829252234,-86.6782612072,-2736.3315761203,0.0237304928,-7267.8809869251,14336.7871653326,1270.5503989621,1850.8885414927,49240.2691037073,-0.6778057172,-8699.2708321195,-1596.8936541254,-0.1439259444,1377.5293763208,-15.6559475018,-12187.4003471529,3.5280325439,14071.5760374323,185.9412053631,27594.1832665055,-13445.6483164077,0.4651248829,261.9968531709,-0.7651741769,-6011.9524824578,16558.7422068486,-4304.3253392712,3195.9362970088,0.1283030324,4372.7729549523,-2192.3509360326,-65257.1833216872,719.6286449282,-17069.7749232176,-24195.8830961633,12312.3361547403,1.0583259663,-18297.8455868547,-4067.954082164,-9449.4011537484,0.0926349819,9638.5639602357,-22696.5229041591,-52143.2749946493,4.9364415122,0.7992684873,-17067.5785361923,35231.9088817504,-3349.3435763336,-995.1073862391,-2158.6888299571,-2543.7724416622,-7576.5353988087,-0.07255269,0.754644264,95431.8968870742,-12291.730802841,13943.2101964048,-7574.3200405426,-364.9648971467,-10070.0893995301,-3958.5169271741,-17719.4709421193,4751.5453372967,-9162.6273815057,-7646.4141739137,698.9238542961,-8246.4749700033,-0.7811960919,-8575.9172702128,-46620.9434334096,12448.1895734568,3.5153869066,-18837.4430028289,-0.5474711207,3392.434164873,3400.9977614582,-0.1310063369,-941.5865743768,5655.9634051485,1415.9644501442,-11.929399718,1203.986428005,182.9412704926,-10757.0697429027,-12163.9908544167,0.458613314,5081.2614496491,-2.5140777046,-6476.1751958048,1958.732727363,14075.9609761178,6433.6532436543,0.5170565052,-9643.0664114289,13298.6390329622,-5074.3418095323,4540.6036411394,23670.4785227615,22568.6665151403,-8376.8731263958,0.1027311013,18596.4327154217,1309.1100937469,-12253.9649477888,-0.1177213273,1011.5878780587,8787.9244708292,-9137.3868395776,-4.7142995346,-1.0319472956,4899.3286913416,-15265.1399161637,2631.3205415853,-48.918125963,1123.7523380001,-6203.40984983,-6211.328882837,0.4986949939,-0.7015555814,-2413.4696130114,-6888.4399565472,-13717.7036480477,-227.6664672792,26154.7966458014,27764.9461268595,-4420.8547914174,11624.1771988985,-3425.5241172862,1658.6419187517,2952.7674810999,-0.6247450309,-18523.9283043008,0.5034919667,9771.5807315502,-9130.755225205,12316.3750542456,1.7047779927,2104.8961894265,0.4841317127,341.8739414792,-0.736742317,0.6569800055,-9257.9102446415,509.8569682469,-3626.564376204,-0.9733053653,-329.2593640233,198.820733408,36999.5947124643,13559.7039656507,-3.0360555536,-742.2619390101,-0.0951558442,1072.0918886675,777.8849072255,-17781.0225928544,-408.9917874726,0.0524577887,-4640.6388250962,359.2382449214,-44301.642531874,9670.0248051983,-14055.4670202797,14387.8481071594,16791.0528648528,-1647.1930056955,-870.1826090249,2613.7401078538,8730.309004182,-0.0768201812,6677.9205821359,-1056.3767026439,-803.2522113004,-0.5195603274,1.9292815258,-2170.215081837,20821.1010017157,-470.219268654,612.2941142943,12746.1337116823,-1142.9929176381,-8676.0097192237,8.3074166734,-1.0466621386,-13945.0541952379,-14730.0786473849,-8232.5863210447,-5818.827657592,52555.511043107,50753.8105366393,3827.7031926193,19623.7999302581,-5552.2845172801,21917.3808269794,-6306.0326594983,-3116.0525399712,-18491.4424354854,-0.9234425885,-1546.1227251585,-25176.5955998256,42624.6576042784,398.3377900151,-28640.1809809069,-0.3853253775,-676.7422476704,-0.0809253524,0.7251113379,256.2935349178,-2307.4544835427,-15272.7115963257,0.9308463295,-1180.6046381153,-184.6530205652,2228.574413166,-7454.6136195384,0.4315051936,-427.4851545434,-1.0413442898,810.6929369942,-533.50365675,4925.6629449132,-10287.7652152828,0.5297151512,-6583.8016010465,-17464.0814505253,-41695.9113422509,1246.9278609368,476.7399985374,5749.721714038,17371.9400042279,0.1096552123,8129.3664118371,-2834.9918290835,-30308.4817794927,-0.4602130764,770.9413801776,-10986.7660089597,-34775.0817011068,0.5345329648,0.7870187978,3354.9183951043,33430.2566472164,6099.801894358,417.6786195232,-177.3656330974,-45.1166996559,-17986.9121561637,-16.1263932568,-0.1419520708,67313.9301358478,-38457.9485457001,-6248.5319640328,82.9174444571,-32049.973562617,-39765.0415788542,-17153.5105735508,-12617.0831913596,9278.7608415048,-7001.0930208135,-11318.6857468692,1.8337107527,-11439.2752059657,0.413765008,-7836.2131822881,-2243.1302713021,7882.8930244255,0.8516768262,-11553.8371146899,0.2948314839,-8536.6550565366,-0.1905844049,0.9268298884,-118.547179585,-244.2864281013,-21701.3383258111,0.2253160494,-4604.9612326688,-10.0748212913,-9519.0874500448,-10560.1320964619,1.0429507119,-5676.0646410579,-1.1853716393,-7185.744070077,1463.2635500217,3036.9290140623,-12404.7324069266,0.6883577159,-28724.3986347217,-17643.5331140784,-31133.2199580543,-1627.7310645038,-3872.2823174706,10169.7704971671,-5539.3927973542,0.5597065627,5171.2123019241,-13510.4862937814,-43424.3131694953,0.5793231625,-16854.4059131244,-27301.6013510745,16182.50574537,0.04120342,-1.1102360868,-8234.0922771018,-34201.7795407094,-14323.2699298098,4906.8022724615,337.2284755629,-349.8341917117,-19601.4088266802,0.3168875011,0.5197994244,-5379.8080383007,-13535.7173675259,-4645.6409872453,-2.8904915221,54707.0136299296,16908.5205537008,-19933.0081843854,38905.5117054932,3285.0787072126,-7711.2504139826,9091.834026095,0.8749672156,-53451.9392225472,-0.2892852575,-15867.054608626,-66421.2820455861,43107.8196998185,-0.4485732516,54872.5115622332,-0.4189134118,-167.1274201918,0.3502095923,-0.0127982653,-1611.3766847995,1408.8996785505,9340.1347788578,-0.8533214604,1429.0519570721,183.5010065782,-63567.7312462953,11538.2952039213,-2.3405057936,1691.8336851828,0.2931574387,6614.0418734812,3656.2355255271,3778.509214933,2519.9289500554,0.2593819218,-17859.7094516288,14588.2980193212,65658.4616989043,-7139.8942254716,32623.3125264613,62967.1443681796,-23934.8479999442,0.3183048946,6165.2046445399,10524.5624426636,1519.0346540855,0.0328924656,5612.9840971908,53338.6614341124,87508.772802852,1.3642975145,-0.3287681734,33043.8066365282,-82063.9537742749,7278.8316249138,-296.5002791643,1203.8198363656,-1864.2438180865,37597.5910319966,-0.3343232169,-0.4451790758,-132133.3467842336,43668.7831554493,-18174.2843846054,-149.2419225659,73953.5408129362,62631.2528186938,8510.5834547486,54673.7861920249,-5093.7823372192,9486.2184386876,44869.713346562,-2.5875927816,-23120.7545360706,-0.3019619817,-2289.9107883473,-3176.8617509862,29911.6275918676,-12.5651686066,61961.0832610363,0.4406276449,11411.0563890859,-1.0238728711,0.4437783009,754.8109745865,-2377.941273681,-29091.6768177321,-0.6212300604,1526.4845980811,540.8070109614,10404.3302639869,-2825.4669796429,-0.8960521407,-4660.463740072,0.6772831961,-11069.0454765085,-9237.6352702638,7792.1220771919,-9715.0241036166,0.3102758967,-26403.9369124245,6636.3458481228,-34891.5908487428,10674.4762862372,-15091.9026701295,1485.3492795106,-20983.261559024,-0.0142059408,-30053.5371483079,-4680.5541471973,-13932.6951166481,-0.240255624,25.0164226195,-16100.4842418614,-1745.7779699752,0.1024349396,-0.7297201425,-10323.889393227,2309.6483186598,-21871.1875854562,-1491.470790377,780.7995278644,214.2317297123,-28024.0015858871,-8.9306444863,-0.6970547979,61726.9025006452,-7638.7452722354,582.5597704834,3264.0433838361,77098.0754164958,25488.9725351428,-15665.9375325066,36063.7630787542,456.427541997,-14826.6442495296,-5007.777261198,19.6649127905,-68487.1445788307,-0.4118022495,-4546.8806582764,-62250.6565507806,40506.2762531286,-1.2032496609,-3799.1626463949,2.1079883597,-2326.1171267018,0.8686512227,-0.4866076764,317.2357610504,-1795.6438416918,-2345.1468280696,0.7492195453,-1285.6676422924,-184.0562416076,-8116.7089907281,5335.4717487704,-0.1305380861,-2744.2348866198,-6.8133063457,-5480.1475028237,-13378.0090416835,-5436.6175982979,1369.0310223993,-0.6279052919,20780.3244817268,1759.8919533428,6588.8118294118,-14631.8614642788,10871.881063844,-8039.7048899378,-677.6749521125,-98.3437115663,9911.1791048425,-14278.6661538577,-3632.9581101375,0.8270272946,6600.6869931106,-2366.4668310802,25930.0913291364,1.1156390268,-0.1664544559,-2207.484139986,-10306.6877036278,5450.8505518078,551.1987539662,-1297.6719631545,37.7443011551,15071.5221017804,0.8392142785,0.4420512675,-26124.3633628284,13219.491115327,1578.9306241427,303.3600467326,-56044.7130005895,-17503.3171694515,-4524.0045484959,-38465.7258331762,-3101.7718273684,2125.4929170653,25685.816403877,1.5080126249,15679.7414589447,-0.2657438422,1995.1256043412,30210.5063598356,-24679.7607696917,-0.4385996237,-5499.9879929717,-1.04780378,-9415.2038399658,-1.7968071708,0.0152169784,2.5466743435,-6651.5023852066,-48175.9976883075,0.7143216596,-26.852128265,540.6337607686,24454.3590687992,-6663.1735191534,0.6371874159,326.7047657561,-0.1199199171,-11692.3411047357,-11081.1944166788,27015.9555888003,-15382.0061146131,4.1651068818,-30039.2706350222,3540.4367530424,-54491.2405920236,5227.4743875685,-19661.6140854825,-194.1631898559,-6407.4585261078,0.0844060005,-22009.4182364132,-11299.6052242881,-26315.8175104299,-0.9205973572,-8910.4466680617,-34430.5653225744,1014.4925865131,864.9814350978,-0.3124587912,-6050.1555375362,2625.613584066,-20783.2398098895,-2041.0491075195,5208.7083226164,-631.8114793656,-20372.0623943379,-864.8979905294,0.6891769535,34861.9751372691,-12888.278750694,-4839.1105819256,-3695.629995323,54804.2329831439,21447.3445505003,-13987.4733392871,40455.4160407534,3625.8537087212,-11169.5158603096,12095.9358882684,0.6762263252,-65683.0182766452,-0.6098647667,-39.0948784828,-57213.5205019479,35647.8021147835,-856.7916167099,-47.3132596399,0.7776532018,1040.3024299058,778.867294949,0.3330037624,4.7561648623,-2981.2092679074,-2093.5014978884,-2.6710973217,-889.4374774289,-330.0780047312,26494.7344780155,3262.6954702001,0.0733084077,-7.3486928231,-0.7264476705,-2346.7972110872,-311.9487956338,-6066.0771356425,2870.0722507579,0.8133169131,13126.8892116301,-21069.2915966638,-2869.45447205,-7379.3278121371,-24429.3568933247,-30336.9127230473,8589.560696702,4.062248027,10499.0119160608,-1822.4139051284,11743.1304488123,3.2560697625,-5502.6103535714,-19453.4052509493,-23595.3700258866,2.2962291493,-0.7955154339,-17106.4252183601,9582.7848985626,2889.4870749405,-21.539986122,-1734.265491581,437.9361159531,-6057.6696811937,0.2399238207,0.9189010209,22370.2451749837,1478.8067227255,19689.5067586636,127.9142500773,-50256.3666580356,-33883.048927924,1019.9737133056,-47608.5466430025,-1531.7102781681,101.2297478818,3245.8843514324,516.6289922301,50367.7937025636,0.6698887485,3991.8974359064,11091.1951413569,-19899.7939119824,-0.3574234205,-35280.3784197066,-0.1781637786,571.9330136637,0.1951005865,-0.1113050335,-1066.8727914483,2546.6527202449,3956.2289101764,-0.2797607136,1092.6255839565,184.5591360299,40085.980730449,5808.9178906664,0.9201967133,2459.2772348443,0.7727284247,-2878.226693258,464.8998000695,7713.2512334435,5236.1719257399,0.6839861865,5637.7043206938,10462.2759062358,-28254.0103232525,1331.770413169,-15037.4865673498,-6122.5894163664,8969.2996812853,0.1519145819,-10416.0944903422,66.2182567642,700.3496800104,-0.6771766491,-8615.5920338746,-7093.5450882775,-12139.4981627011,-0.601443519,25.2137654811,37.0096081029,29409.2681309095,1402.2524952737,-96.361534175,1122.7738793573,-426.1911987227,-15183.7286501722,-0.2671184407,0.423264552,26062.5724012351,-2279.3583217866,14637.9659025606,-24.8901802711,-5181.721934418,3771.9325047914,-749.9476974661,-13310.5698715095,-70.5725590111,6000.3554804469,-6780.6444665683,-1.735257908,-13538.1784735767,0.0317718069,8699.9791645833,-7412.3752077362,-2258.5356859376,0.045788606,-48670.2207096785,1.1086525635,2830.0097186628,21.6936879947,-0.5073058869,-61.0951187666,4760.6872045654,-8773.5584755261,0.6271703734,-921.0293972289,-192.4974212519,12027.2758561392,-11318.6211669953,-0.9588998594,-2824.1981541026,-0.2030539303,11277.0173971557,6157.6803538696,5975.865718128,688.7737525898,-0.2223676544,21000.189761927,-11429.8373859201,-3082.6088284441,3005.1020578582,-2491.0555686421,-27416.4803710188,19063.5654959313,0.2336179047,8913.0498649771,8833.1840272347,1836.1251828663,0.2271006625,-16354.7136911036,-13169.6768222984,-15698.7650645915,0.0310834308,-1.7274151234,-10730.2952822919,31738.8595176621,4746.06479832,1303.8259263282,-4542.9682380964,2402.6311579345,-13899.2818301019,0.1295263533,-0.3374735734,39988.3850701913,7679.0571361544,22669.8009175528,-464.415134883,-41274.6625774123,-43182.0496694997,9851.4782480123,-36240.4652271104,2442.938298691,-6097.5289192989,-8160.925230132,0.0110042335,22926.1736142155,-0.2506859868,6062.4333764334,16524.9347882046,-28363.7662691609,2.5012300048,-14086.3874247595,-0.2820062938,-1629.8765940244,0.8634862638,-0.8202271765,200.3220300609,-10878.5016827186,-38509.2716609248,1.080423504,25052.8259876985,-46304.7408115753,27371.7163886723,14218.6960673521,44070.9558744768,-33057.0840366645,1.1864340074,16975.7005137311,-43973.9650901967,6706.8779715374,-9299.4366265085,1.1605026122,-699.6682404186,-34630.8850259312,-24458.8621968331,1458.5868955923,-5391.540212605,-12593.2424697928,52065.1113224987,41.1420550663,6469.1962695291,10022.2418452819,12040.0364629802,0.934003909,7867.9013391582,-24136.1986114619,-45097.2789237472,-8674.1328624135,-18241.7627351265,-8609.3248955095,19396.2171846387,-44637.0148191903,12748.9413736923,-30785.0666715128,-59005.8184246024,-3942.6916978081,15244.5524967115,-4154.8066678756,652.8251573622,-36274.1435073291,15413.5011836891,50525.3446121576,1179.4932841017,8151.1558620349,5203.3963506535,-7341.62203411,11438.4964510649,10248.5881120187,-10076.0681010988,1458.1865706924,7703.8822667828,56087.2251690032,2164.9827506161,-25923.743270401,7862.8231751886,-17375.9951604898,-17618.7188956882,41900.2975198507,6508.3299540337,5938.2611112919,0.7881484001,0.3920491434,-1139.7110129347,-9909.5650338946,7.8745440659,868.5266647462,184.4679072805,59788.8755183582,-11377.4632091864,0.483377144,-3565.7299329027,1.0704356128,-3950.048232722,10105.8107309444,22194.5995951084,9180.0066481324,0.0113494098,30368.3535130482,66.7844352357,-76239.1613335472,12801.0147989115,-19852.5277205415,-37751.6881587665,33021.2173087046,9.0909812259,8191.3577994998,216.3382638589,-7031.7160717856,0.6294662729,4373.5495262002,-19370.2660259136,-55795.9063035868,-52.0230009614,0.2121708291,-9922.2476847313,61154.1848336558,-2179.7559472401,-115.398668495,-3135.2298166119,2852.494630273,-27945.0404141007,-0.6479865251,0.4926921621,140151.0835623648,-10789.315297971,35986.302268845,3536.7029781499,-65932.7356992307,-68693.8382315831,-1262.2971786235,-51814.4453641699,3940.7612161186,-11657.4759042451,-13851.6368356975,987.8195854155,37261.7117905761,-0.0568412126,6079.4394251249,10165.1620355063,-15757.6458656008,-267.0311571717,-57205.6428428588,-0.9039789999,-4401.6400028479,1714.7878923657,-0.5867364538,1.8445175535,-3693.9558498519,6554.2142820749,0.507352286,-525.9656705505,-495.0218017271,-14129.5572149452,3292.4008555051,-0.937724382,746.7455319239,-0.290615326,-1775.2283668645,416.709986124,-1181.284297411,-5051.5468550013,0.080251856,8003.0287755418,-5968.2067262865,6234.1955888196,-8052.9721143899,-10808.3747473508,2300.1916561608,-19442.7563590174,0.0905569807,-6907.44108663,-967.6518602048,6229.9633338294,1.9895901841,-1699.7811286137,-1207.016030883,6799.2102747253,0.0705833817,-0.4113636108,-4955.4329722989,3194.2853416808,-1245.7821208508,118.8094044925,520.0007085313,219.6671398718,2349.0792349664,-0.8339620752,-0.8437288616,3542.762880031,16946.7083500117,4723.2822982961,174.3946023337,-55608.4543304187,-54548.545391925,-1440.3857512839,-36560.7286981675,270.410254851,4149.3019565208,5068.6662724298,-0.9655014808,22995.3175474523,0.0190816109,3845.1199871822,33295.0929318901,-14283.4771262276,-0.4725117507,-8878.6607452552,-0.5999369175,-7334.8778661968,-0.3139670034,-0.3799909544,-178.7993829509,4232.0255983185,-1425.3911345831,0.2936995829,1205.1764154781,21.1365059529,20103.7342746589,-5071.9087247587,0.354634239,5564.0821595874,0.5074514772,-744.5750128551,10705.7381254324,2847.4796235655,1304.6672178282,-23.942871269,-9697.467691076,5059.2814361269,-21594.2012545113,10625.6550672005,1385.2099732596,-3084.7416274397,7593.6518968104,-7.2523075659,-12551.8368424453,-4574.2551853729,-2037.980890173,0.9173214492,-5372.5657588365,-3697.6502307595,-31240.0397659625,-5.4338949217,0.5003432174,-11761.1513431662,1021.1069854828,2750.4318060199,25.2992238646,1788.1717142582,237.3373589282,-8456.5959570571,2.9554049423,0.0854353664,6001.0054045005,-26037.0086536425,-8166.3435363487,-8980.4080916759,13001.3599770299,34659.6170946765,-1800.5490988071,4787.5451190489,1457.6687691984,6663.2676109323,-298.4758724898,-2.0785925048,-20869.730592207,0.4733864029,-3870.6322074073,-30448.3993051049,15846.5444575169,-22.2540189656,-1019.3718024045,0.2646348079,-1990.162510525,-1195.046366958,-0.1066650456,18.6013280045,220.6066779311,-18162.7980699428,0.3248707382,-2249.9856908597,541.4214599983,-3950.3964363755,-5124.8907787333,-0.3716756477,-4099.6903735038,-0.6752065209,-9938.3420873983,-13481.994397637,11499.5761704939,-4644.2348985794,0.0444714768,-29490.8223271497,11580.9299132205,-4875.7272311404,-2213.7373238062,9025.2407751452,27916.3380873178,-20202.4672042676,-2.2539726777,-14049.3517731624,-10464.2895352653,-27430.4577091477,-9.9055513345,-4771.4680826973,-8414.9112602021,20429.5966637811,-2.8201797124,0.8310734115,4479.5124298975,-43617.6798087366,-10129.1322806211,-2442.4507765745,5098.0157368865,107.8863504603,-6007.8258759698,-1.1883605482,-0.7276857663,-68802.3131614279,-3404.539253683,-25422.1434290599,-11.6413373965,75453.2708161777,45093.1335728818,-16355.7387657325,23656.6101030382,-6034.4622178971,-1693.0064427628,10097.6505505875,-3.311013026,-46058.3992871419,0.692159357,-11079.056998503,-53017.225225439,32224.9406557334,14.77129174,28476.150349576,0.1157332467,6761.5556601834,12.4702099773,0.3092876939,14.142358373,-4913.5204037254,-27550.1905675636,1.3282801524,3066.2210524742,541.7681171792,35308.3205222934,-9764.3775822401,-0.6192495308,1159.5355836911,-0.9759633047,-5164.3048669055,3502.2577681979,9590.0675443127,-8062.668122218,-0.8574373661,-26555.4801325824,201.391420609,-62347.7226867084,1388.1096038581,-27898.1904166428,-2821.347624767,2836.7411678459,-0.7072101997,-12155.7157215318,-6824.1988775533,-27494.5395594476,0.2383650665,-9878.9037018546,-15407.9822556411,-9395.2077164118,-0.0461946815,-8.7556523968,-4767.417831453,7961.6483452441,-11315.4232856007,-120.4287138017,1591.9160899863,-965.0699497045,-8088.0215604167,-0.3390687945,0.5555705058,48622.4990879678,2334.551493035,18192.4832671056,264.3365426635,29556.8613923034,6831.7715565092,-8370.3247293934,12918.9954677333,-1517.7517155787,-4496.4429293633,-308.2029385898,0.5360303136,-19210.3752291244,0.8852051001,2498.3635046079,-40676.8246371044,8904.6475848371,7.0621686009,2100.1262046697,0.8163915224,7324.2742827864,-3.1423296322,0.4747269877,-2453.8380760678
   7508.245418657,-10053.3760889142,-0.0168815647,-1091.0934157866,545.6869836951,-8645.4397151417,-12.6445273925,1.007440805,276.4167463739,0.7723045114,-8790.3599640259,-2679.7356238321,3595.4772103289,-3102.7959095807,0.3400010775,-28104.13382487,15381.1691780947,3143.1474350393,1113.1632047107,-392.2569522938,13097.6458643557,-18739.5571588112,-0.8446922934,-1509.9081582911,-2342.536536704,-9174.9400184307,-1.523335103,-12554.1282158772,9010.3269817219,14036.1005151423,41.8654882684,-0.0095990286,-2194.2951217706,-28481.8982771295,-1996.8486766018,-2003.6193208196,2440.4693266418,25.7172580091,-4397.6944852238,1.2494398698,0.2578796432,-63089.491005438,1538.8183424019,-5411.035678751,-132.6835399407,32400.2601782259,48379.0623557762,-4064.5021406856,1518.9015509453,-812.7465440031,-3973.0480641727,2980.0729239397,668.7808037655,-23732.5974988163,-0.5576913795,-3148.3634461508,-33521.0920341966,11554.840921644,2.7038893744,32804.858113707,-0.2316858044,4140.4103179344,13.6414045019,-0.1702630706,-55.0753246374,3739.4341673838,-29705.5683639716,0.4188478438,4745.5916577149,-380.3474651335,45357.3626410117,5816.9562563982,2.0112624427,-858.8208664081,1.1648327498,-6722.2378331134,-13473.6257493211,7583.2342452945,4476.6186413318,0.3344627817,-7587.3666422267,-12551.212223626,-111057.2332033272,13911.261421945,-18482.6492286871,-31494.2057377911,17482.011549472,-1.431506721,-20774.6325483751,-4881.7113835607,8838.5926476017,0.7514070266,34.7496339324,-36826.2001919978,-58186.6591346059,0.0070957564,-26.2864840007,-18383.035478522,47035.531719958,-25449.8348009047,1381.0591336659,-1680.8043817334,-1661.6465429037,-50118.0313269703,-0.9723892797,-0.3492763423,68422.6356248278,-53445.0661710568,-7646.2547552007,-78.3084887655,21925.8428686448,19612.3926698606,-10107.4139171718,-17800.6603519747,-10106.7485541304,-4698.2754534787,-43966.1943887655,2.2614889936,-44954.2365706523,0.272891751,-252.9340070714,-58616.8840013444,12721.404029542,-0.971168346,-35719.7037406013,0.0275780039,-1045.2387081954,-3.5842298812,0.8947309131,10.3993656772,-576.6200634061,-6356.6819163665,-1.0345558172,2904.6828764332,193.2161222538,10358.771425533,-982.4125875567,0.752899507,-2349.7118415396,-0.7439131747,-6339.2883518691,-7270.618958096,-2981.1058493259,-4865.8023679718,0.1570849955,3546.2656246098,7373.9477818042,-37093.1372967794,-356.6343181444,-11779.3262698567,7008.9981060771,-6164.6315688606,0.0379060695,1638.0814335706,-9693.320995637,2383.1373410634,-1.7102275267,-7486.7897948818,4248.1422870228,29843.1238834296,1.2911256767,-0.2620050203,18330.1322047892,-22618.2938274602,-11639.9699470083,2254.0782034286,1915.2051483257,-32.9022102014,2679.9177634721,-0.5992080499,0.4803957201,-10476.4458980455,31336.189749146,9110.954196043,531.681689485,20761.1014495528,11261.1265143324,-2230.8601746623,1726.6783715005,710.1304826218,-4409.886691622,3730.9227720065,-2.4479554758,-19988.5242535465,0.2186520227,4176.0200454789,-14740.9029430939,14798.6074110993,-5.1119769932,9401.7148235747,0.034794005,13273.2580908417,-3.2588647765,-0.9768045536,-1.232813161,2682.9692699866,4501.5702395436,0.2862322691,3618.8181480074,183.4808959721,38954.3023526837,9134.3380954678,0.0875360252,-4641.888188251,0.1380494045,-610.0703994637,-8995.7786835064,7340.5785802082,1156.7015742885,-9.3291167725,-16018.6367286371,-1090.8903954104,-102756.1412760614,8497.1989704727,-14197.1796054921,-17116.5192738286,18466.5531647448,0.316707732,-1521.3421257034,581.5264936845,813.9808447595,0.029314761,3727.4244881598,-8810.7621839294,-22717.6449863091,-0.8367385187,-6.5805431881,-8955.11692724,48679.5885419749,-6674.4319156801,110.7920327345,-757.4175237474,-504.2380055569,-34584.9864602774,0.5226271445,0.8049656419,75039.8837455657,-36923.5751622694,-1669.2831428391,-228.2906782637,63051.6279161565,38701.2253403964,2766.9079379941,11067.6120553728,219.106867249,-3697.2285911468,-4144.2691153922,7.0481252821,-78650.486649874,-1.0955220613,67.6189709696,-72912.2764869262,31521.6922116492,1.0330537646,-27981.1549736719,0.9173175671,-7432.7071517396,0.3458135211,-0.9925500631,-328.4425265618,136.9287374251,-7988.5494360576,-0.2847552445,43.2229947186,493.9406330634,11206.450419023,-5852.8945917464,0.1761728307,-848.336752689,0.6007399878,-7445.7949946506,-15717.5507479485,12321.757148979,-8775.9411052195,1.0541507202,3332.3419177708,28714.7560136344,-36844.7349999826,-4453.6510608637,-17490.0828293492,-8026.4711377055,-6962.2062779527,0.7279567136,-2696.2384902119,-8020.7911493492,-11345.0730864293,0.0473994144,-4877.8451420187,5673.4240924905,24188.7661197118,-1255.7228247241,1.1067405177,-4112.3184191011,-9360.4288757463,-1981.2633964018,1923.290292533,713.9435471654,18.1774812054,-4249.3838515913,-0.8668740724,0.4428621719,21852.4852154377,18294.6058787125,2568.9641484765,3605.0002492121,-9436.0507693606,-15958.1578893719,2243.7861773138,-11518.7941692028,-2579.1318707682,-15685.0472846589,-2581.3558105639,-1.2699540846,-3442.0006619363,0.3813376703,-5724.861426555,3830.3307424255,-4623.1559320262,656.0192473682,-7265.7462676904,18.9992041588,-2315.0955415352,-3857.1433771567,-0.2943830261,-21.8547336906,-1.3013152772,5.1071657113,3.4576938186,-103.9101976717,11.4584790499,-1.0562499939,237.1709647239,16.0962084231,-0.4689153707,61.9385944758,-0.9059388445,-0.8143663326,3.4085423408,0.8808284547,1.2988163634,0.9611791004,-8.646554832,-51.0691221391,-44.1300431383,-2.4257609819,-5.2399856752,28.5696222406,0.8729467006,29.7498685815,-2.2154496382,-0.5414189943,-5.358290225,0.4791931335,-0.3651150902,9.4241928967,-1.1199543653,-0.4516090069,-0.2498898663,-2612.6623178695,1995.0680321568,-2634.3684242194,-3.9074289093,-14.9384376446,67.3492536582,-171.0629439171,198.2738890299,-481.1595271917,0.5932555001,636.492163856,-0.3670209298,1.429806401,513.1757219808,-0.1960545081,-0.3144954651,0.4262023182,1784.5635002616,1949.7832697606,1275.4318956997,5.276187617,1068.4239851607,-65.5982658945,-0.5982390773,-89.4669691408,774.8565435119,0.8246019021,731.9437222042,-0.2957587193,48.8283829862,-3.2034630316,-0.9292599231,0.5916754672,-1.092917644,-3.5403460938,-38.55301162,1.3211938,3.5624463206,-5.2045453883,145.560304764,-0.9437982156,-229.5917737156,1.9566204486,-0.9073551856,-1.6862182481,33.2065244545,-0.5738595563,-2.9834537465,-0.0293188159,-0.4861279953,5.924095239,-34.8819134962,1718.8770225052,-5399.0748861111,-8595.039395486,-2605.4065665432,-2.4133965519,3402.3810652745,-2263.9439363912,1.7277084817,-2928.3221189194,2.5602097683,-0.7219045132,4411.1855487743,4427.5105465529,-7.4725865864,0.1407180539,-10.9911223873,-4.6439900285,-76.8055066066,-59.183368536,-3.9625990031,-25.5125959971,0.4736235149,-0.7979234239,-1628.3808667956,-1.5436543438,0.7361870274,-1334.1103836487,0.6441436239,0.6076386375,-471.8123112359,-0.020170326,-0.3993206352,-0.5131053205,-488.8766633143,3694.3817089411,-35.3043991579,-71.3927002065,-992.4763481989,-90.2613282291,0.5116290161,1975.282276448,-4.2170519946,-1.2541745945,-42.585655299,0.7734309971,-179.2317226563,11.2804252104,-0.8117501077,-0.6850729138,0.0012525958,1800.4636823835,-17190.9532983811,27881.8023994434,38988.1752718791,23239.9357888832,-7454.278656302,-9724.7711551291,14853.5705985414,-8255.734569688,9035.7763175722,-62.0868889618,0.5325157617,-13241.8391269602,-17403.8196048503,-0.5246930352,79.5947114403,-0.2458962554,27.7582901739,1781.7777465634,-97.5901011901,1.514798976,7.3903674192,-42.4121136582,-2.3797312601,28.8521841814,-2.9949255319,0.5405933865,-11.3922534833,-0.1951632561,-0.8268262155,20.0482835665,0.9435455742,-0.3080670663,0.3939004741,2087.2301526724,931.9556942806,6603.5030219607,-0.5851966721,22.6380243303,10.2859860461,9.3144777535,4444.3239478286,3.0018893114,-0.2500790981,129.9290306228,2.2485923743,0.0884680613,54.414238155,-0.5546186305,-0.6755073633,0.1691322337,-871.0229538507,-8.062302288,-124.6905632404,-1304.6639253387,-1042.608075162,-34.1388877354,-5.6685544575,-615.5711744615,18.3953740474,-6.3752209493,-15.8174329074,0.103933049,337.2788828752,2417.2941887198,0.8240791456,-0.5741060644,0.6179476079,3.5146159767,696.0785294703,-1990.2086198998,-1623.5274560099,4.6714932317,-13.0651100436,56.3500476978,-2800.1337795581,0.7733425119,-850.3468420061,0.4402056408,-0.4112745388,-0.5613227362,3031.7658452076,-0.9323819087,-0.672311612,-0.5465305753,-0.9615632716,1.4789722077,-1006.6693707763,-597.723974632,713.2801629317,-0.5268174598,-238.7801410758,-40.0762785287,1.5010152401,13.6933430929,16.0891867918,-106.0661370786,-2.3733630112,-2.8369281884,0.6673802463,-31.3769698233,-0.684741979,-6.6230516935,5358.0806937402,-5503.6842991956,-7028.2702347268,-36.6621664482,1449.9755253687,9.716779245,-7909.2108723998,209.8411126639,-0.5813928366,1547.648646352,-0.4925316212,0.0335060573,2545.2890236729,0.2756042361,-0.8254831472,-0.1314579982,428.8700926165,1221.3737367689,2609.7046014394,3.6380292592,35.8608834033,-160.6863817854,-480.5416931629,231.8724654478,674.2122481015,-0.0418077643,1349.8473694594,-11.816428537,6.6375823278,2.9022964427,-1.0737161661,-1.1074356512,0.6999534299,-2.0481022622,-71.7003581192,-466.4066972086,-18.4890256933,-357.1583329563,152.8715212772,0.003427686,-1346.1544018313,-0.6372309412,0.8708339535,-5.9634931222,-1.8650627147,-1.4751174569,9.3321383982,0.4204468082,0.2130935508,0.1388769974,-18.5331585916,-23.7502217404,-9.8145875521,-5.1129252606,-34.3602650825,10.5684539061,2.6465988823,43.1250649529,-1.9438229025,0.1265153596,-33.5292015864,0.2595090361,2.8502451554,-14.6501574261,-0.7381232022,0.7057678484,-0.6186836763,-5508.7263279292,-612.782305319,-1786.1988022289,-50.9615144325,-2005.9827263132,-23.4496319127,-2.4526860322,-97.031205761,-0.9995079134,-0.000197412,40.6782783912,-0.7651914221,-1.1074498211,-46.3745486431,-1.2907742532,-1.2220616174,-1.3677993158,-5.8568662068,-2765.6700972825,-19.5027577,1877.2443162526,-26.6657867687,-132.8805026541,23.0483297932,-48.6459605028,3.6767273368,7.3776344975,160.3764882026,-0.2456282985,9.8509980835,-555.6268322433,0.8139154972,0.8400525153,-0.2937967859,-1388.0074750824,-815.7807139025,-140.431276385,-743.1104731772,-190.1603068137,114.3327610598,-0.8406685497,-3100.9719089062,-4.1858354858,-9.5426747174,-26.1516866481,-0.853044588,-2.6742344522,10.1832950095,-0.0051916966,-0.0577113328,-1.1526361264,17.2152614085,-7.3918174141,2203.750517448,-27.9307582213,-2.0707638765,-22.1519933326,2910.5419033228,-27.4654292947,-1226.5819002604,-10014.4686699423,23.2987352856,-0.4442182095,-0.5577279174,4.5528249524,0.2363181393,0.4056918133,0.7400912586,5.9092454519,75.3924462263,-2018.6186527409,-2976.900823741,-2055.4242606797,193.6439747784,0.8131670951,-145.6541490689,-8.326510422,-1209.3267903293,-105.1146625996,-14.6211916024,0.058765148,-9.5783071804,0.5212969155,-0.2247763788,0.2376580414,-159.5469719536,1437.4806786569,-0.6120612882,0.2652154623,91.6637098735,-150.9089262267,1.5372283388,4317.3098357367,4.0253364665,-0.0630430397,1627.6134783252,0.7735709594,2.1166623805,-6.8517541872,-0.34899237,0.0930986866,-0.3222560264,-530.0916362299,-345.162924732,-702.9713537363,-2403.6409180076,-943.4792900445,-5.0044654333,-1.0758420094,-5966.3937902228,2.7376831569,-880.9685215042,-41.5629213447,0.8603725238,0.080918254,9.7045569019,-0.3112247647,0.6837764242,0.1796748146,-0.4034493107,-1.2802174322,-0.9579068736,-1046.0823011952,0.2695513836,-168.7776188459,-1.2809335704,4.1574629241,-0.449932959,-0.5105572851,-0.1326674416,-1.1859584767,-1.2310856282,609.6445888032,0.5843556138,-0.495023158,-0.8303741246,-409.5678520101,-201.6250217915,-3.2497500203,0.4559782353,-4592.3029367472,-76.344471526,-4.2596626022,-303.7659288952,-4.6128321792,-0.513979773,-19.3067373559,-0.8897321811,-1.25319605,118.2561144098,0.1053784133,-0.8595757364,-0.8784853765,103.3856053616,1090.1188938128,448.5658808279,-1186.8054383841,-52.9184769156,14.365769794,-26.7446478309,-1281.8278619727,3411.8894274061,-1.5280237488,-0.1989474058,0.54896765,1.4060974054,4538.7320292342,-0.2423161373,0.3106110838,0.5728118426,-26.469525572,-11.9550694487,-1927.7466223971,-486.7034311114,-167.5155360432,52.9194379016,-51.0078082025,-2601.4790501564,-1.4203764401,0.0057949474,-5.0221298749,0.1997137876,-11.1928794312,10.4683004597,0.267405243,0.8483763886,-1.0351480159,-5697.753489869,-183.6660324864,-22.0286018215,-71.6684895588,-7201.4072069963,2227.7099405753,-334.6713732276,-1222.2726010945,-23.1752062918,0.5580100201,-3.6658298804,-2.078899893,-33.1753658736,1784.1284599402,-0.5811268968,-1.095043625,-0.0476432783,-5527.5914099747,2109.8247476028,-2110.2123117668,-2.1517989875,-6809.6213543096,-311.3107657529,-0.8850038388,-869.0187528278,-8.094755502,-0.4214455925,-22.3853524189,-0.8713849151,-180.1316661567,4.01688471,-0.8098169109,-0.0523984865,-0.6160173304,-742.3507272197,-58.2635553558,-0.6025735156,-6529.5618091836,-2927.1337831995,-138.8526305154,3.8660948495,660.8216491408,6696.9719333884,0.2325194542,5.6964555495,20.6788121141,1436.1375972886,2225.2397358162,0.7964421519,0.3939830188,0.6540581697,1816.369576059,133.6444688843,3207.8481041573,1062.2466938418,-2350.4921000984,290.3329106819,-773.7513796735,-101.1504188469,0.5589062732,98.1464847234,5966.0963039702,131.6518480652,0.247217097,-14.3495162853,-0.7136610404,0.1135503342,-0.5403657062,-3100.1704778908,-836.2545220744,-73.4761137964,-285.5594279162,-6350.4204569019,207.7305225734,-1.0630054797,69.3804086599,-4.4148337712,-5.0348329103,-5.4328980042,-0.0017092419,-14.1810276186,75.3394348337,0.1187281069,0.0592819185,-0.9315951253,-172.1194506225,-242.826943486,-750.9792004443,15.7386670152,15.5608732589,-129.7502213847,-4.4881055159,-162.1586691163,-0.3976728923,-53.2760099426,0.4018628941,-6.9094543912,-5.5846173114,-1072.4583034633,-0.0867778194,-0.1039589677,1.2103283919,-0.2768066552,-1162.74226832,-997.2301127967,-174.004797845,14.8818843658,50.2615607451,0.629253008,-1013.1177413239,-4.7069508208,-626.0975267426,-19.3396190566,-0.7589625183,0.6523559143,1276.5301430805,0.0804155041,-0.9013730502,-0.5494114224,6040.0010966249,-5404.6045358046,4416.924833024,2513.6387757791,4263.7000940606,-3934.9170147007,7895.0421384596,-288.1587564368,-18215.4988992719,-195.3157215776,-13.6787519882,443.8681922415,2.6453179786,-1.7044617474,0.7950511804,-0.9502249071,0.5740402141,2407.387650391,-258.7156818855,3049.5831789884,28.7858591482,3799.7065856904,-2535.4211719308,-11.2255270078,-7.449666852,-401.3345215864,5.8520183839,-52.4194934079,-194.7308550141,-0.4441484946,-5322.7282047524,-0.3764281167,0.1868653696,1.0433121345,1.4725407288,2320.0795526061,-3077.5059445485,-135.4712217721,-37.0801086614,257.67652256,11.6335001781,-104.1164651477,168.4119991511,-74.6152200979,13.9819889527,91.9609318996,0.3444320327,284.5066282421,-1.0086691339,-1.0756920841,-0.2914093183,-31.9425327679,-3615.0288092775,-167.1529033778,-134.7234944863,-13.6818678524,-48.3737421107,0.761089975,-98.4141280979,0.3552059803,-1.3432455017,3.1490484043,-0.3280030457,1.7232775362,29.0983306665,0.4252287314,0.8218061904,-0.6591510941,198.0946372208,1009.9277727077,698.3266929121,-149.6007357221,1358.7631781026,9.4640323933,293.2100422775,242.9401897466,0.6153702188,7.6612781331,-985.8673368155,-0.2149769673,-0.6912222855,7.8070442164,0.4488706009,-0.4607291804,-1.1605869933,6.5079165387,7549.5002990694,-8415.0602023613,-9771.1084347916,-3175.6546796493,2561.8084663234,5338.599905689,-6734.4629931662,3333.2500372299,-3784.2061729948,2510.4371619922,8.1659584527,6275.2324372824,8986.9460987906,3.251361948,1.828826425,0.2606165753,-3122.7870461147,801.9813062142,-0.9193900657,1542.550036686,-5119.5382904587,-7.4450765993,0.3852128524,-918.1789288549,-1340.1350373561,0.4613320619,-14.6508944732,0.7364273222,-180.4667630337,-1713.9506328165,-0.4169098993,0.5890349809,-1.0648698277,-176.4756865011,1108.9184655592,-21.6016496937,-1862.9941081112,-4686.9386620367,-136.8900503886,0.4473171642,-758.8833267776,-4.0076451916,-4.4183972146,-10.8581721779,-0.4847981313,-22.9465501307,9.228638061,-0.1818817403,-0.8120750818,-0.8082473462,-1596.9112276464,191.4627119359,-221.6536407364,-1493.0140262116,27.2887154027,264.9486052354,1.0352830999,-1629.1855695899,11.7373033718,-0.2549888876,46.0406214223,-0.1522923929,1.2736084684,12.1114536537,-0.2082257666,-0.457790834,-1.0844574389,1475.1760098014,-10.8762952143,-11.5896509769,0.3902327123,5.1299571865,-0.5692666943,-10.0640527349,9.6037297927,0.0008020786,-2.4898609869,1.1849149965,-0.8334815308,-2.3009139187,-0.4094078907,-0.6279031649,-1.0558679005,0.649515491,-1383.6749174367,-249.352698517,-1206.4817853211,-26.3744978851,-1073.0680007206,-148.0354798555,-1.3075863656,-1024.0975837712,-607.5753604845,-0.4974442357,-394.5011927857,0.24318832,-181.1039562302,-3.4303029542,-0.7596428866,-0.478446916,-0.7694890406,-796.0582132324,-66.592234104,-14.8249314016,0.5101708313,-338.9715539679,-268.2831487437,-1.6057782857,-1875.7836417747,-898.2776291095,-0.8965252354,-11.7627117473,0.6760629444,0.2876218269,-2886.0617119398,0.5987223059,-0.7294969492,-0.0544265706,0.0245337425,2.2929527641,-310.9834521277,-14.4587921661,20.0943317471,73.5467464179,-10.7368385827,-888.2425334646,-4.006418797,-0.0595474527,-11.7271217545,0.0901063582,-1.2256649158,1.6865525324,-0.5440028513,-0.08829629,0.9891899483,-872.0412413312,-1208.5807009535,0.0563091199,-1.2750596491,-6008.7822909636,-208.6367070275,-3.6920213357,-3487.0334082713,-2.2242243145,3.112035649,-55.2284949262,-0.4976537129,-181.0544371573,1.2018168611,0.1427717772,0.4320807236,0.902340927,10.027207407,321.0471256408,1462.0524201591,-4819.9480802548,-2176.1521121537,-107.729982572,-1.6678638304,1.2556429141,1499.3253281376,0.1604629088,1649.671234675,0.218331846,14.8697536627,-15.545401786,-0.6132991571,-0.1042989993,0.6482799234,-3.7860417527,-704.0177010576,-1.9182851986,-2.8815195517,83.823095119,-29.3181653915,14.9171784781,1123.7274504606,-3.0347867732,-600.7707015236,-2.733080167,2.941697659,0.1622089721,449.9650948536,-0.6187484503,-0.9052606814,0.7860951806,6.3369413168,-7.6748138849,-1509.1468461633,-3187.7797330127,-334.4166583652,43.1522133364,-17.7730478302,-10.0258384105,0.5939023854,-1539.3496938364,-1.9561114503,0.870938754,-1.2215445768,29.5275971592,-0.6568374463,-1.5323446155,0.18428377,-1447.2210209798,-4242.0908693149,1991.7303567043,807.3326013905,80.3244950581,-5014.7808651807,54.3879250472,1691.5380394331,-11356.9989843615,-2.4940400839,9.7731461578,956.6162718475,-746.5756394814,-3507.2256658106,0.3632462114,-0.7556434163,-0.2608896214,-89.8201947066,-1679.7781478251,-1.3832226857,-511.5873484617,-886.7241618344,-44.9769116064,-1.9375732494,124.0417633464,-0.409644489,0.4720408242,-675.6914413006,-1.1836746395,0.6034777464,18.5070613983,0.4614725843,-0.1203374837,-0.3807681235,4797.1022361559,-17383.3325368836,20192.4118479505,23618.8318730415,12958.8504460475,-7186.4159339051,-10034.1609992786,10285.6564145842,-8314.0986833177,19559.6346979744,1114.9865267568,-1.5038261014,-12393.5486749963,-12101.4097812472,1.0917764165,0.1552548936,0.3173081512,-1.0224820969,1265.4372542872,-1550.3372138188,-4.6526670799,-36.2652861182,146.1782703962,2.0682867605,-3447.7917242177,4.465632955,-0.502401523,1.0311828578,1.0541369135,0.7962403503,9.2539909958,0.091235322,0.1327231504,0.7714483942,-13.5011839728,-484.9084868269,1.0327906386,-0.5331467703,-203.4791541541,47.3431343997,0.4671347917,39.2391437001,19.6149601256,-0.4038710383,-1.8678802324,-0.1400835647,50.0354923343,-224.8740380508,-0.5430180043,-0.8750528242,0.7508553635,5.4269494459,-826.2540780327,-937.4765005315,4.0836604686,-39.555295536,18.1651695478,0.495342739,9.4594774977,0.2701965899,-0.2617866844,-183.4280956268,0.1902195699,0.6766400062,-5.7270784338,0.7737266099,0.6552281188,1.1317060117,1169.1915397693,-533.8111474808,-4415.607857818,3459.9289561729,736.1259993383,-53.5481445767,2823.9839003132,-1934.9741145265,-2035.3511048674,0.9192285376,2331.4019051701,3076.9659928049,2168.0657672264,3846.2132522362,1.7743835324,27.1340548267,1.1138166117,0.6988756436,60.6520404846,-4537.7219889099,0.0061772316,98.7902789529,-1156.2324653863,-87.6526209804,-347.3746883499,-4224.7804824984,-0.8870257902,-34.5942087406,0.580403693,-817.4445747489,-1063.0299915688,-0.0091856097,-1.4844662174,0.9192364392,100.0034850959,-3714.8387091695,13288.8926037527,11161.2211806645,6359.3076119967,-2316.4527110125,-10.0319025722,-47.3260523218,-38.3382076586,6.8371992159,1566.0498728614,2.8192449367,-4299.6383611798,-12331.0148247829,-0.677167066,-0.442493752,-1.004474765,-4802.7373515312,-7624.7382391475,-1265.7668735351,-1476.2241379506,-1168.3651525214,-1102.8456149758,1.0576684225,-2288.7367547286,-3.7781894011,-168.9876533741,-303.0522070018,-1.8888500123,-169.1638890692,1391.2886627634,1.5937114255,-7.967676746,-0.2880685248,2.5871860133,107.2976812712,0.633133505,-25.635696483,-30.506991588,-25.8871897582,2.3621443643,2316.0512899309,7.9598569215,0.8983600409,0.6562053409,12.7490665863,2.4574121136,201.0558685235,-0.9076448122,-0.4166722323,0.7254796981
##end
biasActivation=0,1,1,1
[BASIC:ACTIVATION]
"org.encog.engine.network.activation.ActivationSigmoid"
"org.encog.engine.network.activation.ActivationSigmoid"
"org.encog.engine.network.activation.ActivationSigmoid"
"org.encog.engine.network.activation.ActivationLinear"
