encog,BasicNetwork,java,3.2.0,1,1396903458236
[BASIC]
[BASIC:PARAMS]
[BASIC:NETWORK]
beginTraining=0
connectionLimit=0
contextTargetOffset=0,0,0,0,0,0
contextTargetSize=0,0,0,0,0,0
endTraining=5
hasContext=f
inputCount=16
layerCounts=4,17,33,65,33,17
layerFeedCounts=4,16,32,64,32,16
layerContextCount=0,0,0,0,0,0
layerIndex=0,4,21,54,119,152
output=0.4168464814,0.0593925066,0.2836852847,0.2301976827,0,0.0010698992,0,0,0.8127139843,0.0001548435,0.0324125958,1,0,0.3570327586,1,0,0,0.0020622823,0,0.883840239,1,1,1,1,0,1,1,1,1,1,1,0,1,0,1,1,1,1,1,0,1,1,1,1,0,1,1,1,1,1,1,1,1,1,1,0,1,0,1,0,1,1,0,0,1,0,0,1,1,1,0,0,0,1,1,1,1,0,1,1,1,0,1,1,1,1,1,1,1,0,1,1,1,1,0,1,1,1,0,1,1,0,0,1,0,1,1,1,0,1,0,0,1,1,0,1,1,1,1,0,1,0,1,1,1,0,1,1,0,0,1,1,1,0,1,0,1,1,0,1,0,1,0,1,0,1,1,1,0,1,1,1,0.15,0.15,0.31,0.15,0.38,0.31,0.38,0.31,0.23,0.38,0.62,0.38,0.54,0.62,0.69,0.54,1
outputCount=4
weightIndex=0,68,596,2676,4788,5332
weights=##0
##double#5332
   -3.5666707287,85.2842268986,-1.5282150375,-0.6578392716,3.0430304521,-75.211161901,0.1792264594,-0.9869242988,-0.1896341561,-1.1680836172,-0.5675217949,0.0273402081,-49.0149126654,1.6278931556,-4.0955588794,-0.608290274,-0.388490186,3.1112217823,-22.6729120244,-690.246827142,0.61960972,0.7286033229,29.0427890677,-0.3980860671,0.5265072996,0.2563751998,-0.9898586157,-0.1047304923,0.410369199,-4463.7023387611,-103.1541132029,0.4960405105,-2.9342163774,-0.5840937847,7.9705194202,-0.1865522147,6.9672065457,2.285689962,0.5254327088,1.9649208542,-2.9708986504,-0.3996844619,0.9133471655,-0.5614131717,-0.658860225,1.2706091386,2.4882212515,-4.9925570216,18.2249924733,-0.8326389891,0.7481127032,-0.9387015453,0.7778421406,-473.446403456,-0.3094777045,-0.9123889368,428.2675951143,0.8714152324,0.9848731392,0.1289447176,0.6722678434,-0.868185818,-0.0181774125,-4855.3609219389,-7346.4979033946,-0.659661049,17.1210231383,-0.8994814016,-0.3516813424,-820.6476465387,-1.2947161467,-140.9480613967,-604.1254990217,-1.2828306874,-0.255988037,-1.1284837041,-1.4607134821,0.3311886435,1575.1493010483,-0.8922653381,-4.2510349844,-583.7014588027,-1273.59581684,-0.1812259961,-1.4183695513,0.3308203977,4.2350207743,-149.530531651,-1496.7452366052,-5.4711697357,-1.1711981867,78.11834195,-3.2304503763,-1668.8507485471,-816.4816047503,-0.6655262223,-0.6162602873,-2.7764746134,-1.0282691207,-812.4477051198,0.2972659875,-1.1195649963,0.8285294574,-0.8025716175,0.7928554929,0.4679996784,0.4331518618,0.6735059707,-0.2324054887,-0.6724620079,-0.8727677986,-43.7491601563,0.1643280113,1.0848546413,-0.4764031095,-1.1436114882,0.3269955921,-1.140675786,-0.8387427661,0.0449519226,-0.7006638622,-0.4796139844,-0.1842586481,-0.150981819,5.9802518106,0.5362402762,-0.0628445161,-0.668440307,-0.8919422826,-0.7482699802,0.5451827781,0.3940104527,-0.0236777164,0.0008337472,-0.0285779745,-0.3696995746,0.1430147549,-1582.5516322665,0.3249455819,0.1888817315,-12.1959024146,0.5386746856,-9.5691779827,-0.3928224959,646.0541939733,-1.5090895268,-0.1305886039,4.3409331744,-0.0130191951,-1.7644536091,-0.4338681378,0.1309153698,256.2757194734,0.7072840448,0.2216133016,-504.8882466561,-1.9307091351,-490.8079574472,31.9082748507,-0.1597887795,-0.8551392334,0.0255332059,-6.7445637951,0.3505842396,0.677504308,0.754102832,-0.645853759,-6.0579940812,-182.443033413,0.4694308775,1454.3381247307,-0.7881564781,0.2948277889,0.4297421438,0.4585867641,-2.2243421309,-0.7866215652,-990.195278245,-0.2470723631,-1947.5465846177,36.3353360001,-5.6249606622,-1.7513995743,-54.5119020545,-1499.3863651217,4.629139767,-1.8465387457,-1248.8941946473,-3132.4025201778,-0.3413276108,52.1344688438,-0.540854131,-2.4109709976,-19.7799138076,-1894.4211696796,-1.8034611802,-0.3552936668,-32.3144505194,-3057.0649438956,0.5285572554,0.8750749025,-0.3886557247,0.6755168241,44.9063558185,0.56901181,0.3885853307,-0.9785902483,0.2801851504,-0.0512835137,-0.1415604038,1.2566364933,-0.1715210494,3.3327891386,2.3984900604,0.6078113714,1.766197881,0.9820818784,-0.0077264324,-1.0037270555,0.4573845462,3.2146580042,-6.7355489869,-0.6618406393,-475.6436444574,-0.3373421492,0.4581011699,0.0404862116,0.4268938297,0.3657076038,-0.1818988972,-0.8412537289,-0.7261307619,-0.8150917381,0.3055176224,0.0786215862,-1.5829606366,830.571959389,230.9841026428,0.2249948309,-37.2614968091,-0.5666721339,-1.3086898937,-0.5593664576,-1953.8886211695,-0.9926304474,6.5849764091,0.2454332259,-2.1420179727,-0.4770304795,0.3578617793,0.2165028843,-91.0591703291,0.2294950183,-6.6153085189,-3.9662257555,-19.0691362705,2363.5528302399,-49.3165175028,-90.5445897599,0.4824841563,0.5973960744,-42.907528966,-44.3436408011,-0.7810369992,60.2983000138,-0.3588014363,-0.4349475716,-0.8619455733,0.5688333789,-11.4499033466,0.3156366045,0.4529213997,-0.5795151737,-0.4808949048,0.3854785312,0.4781689125,416.0149928971,-0.7326009785,3.7658503683,-0.2720915466,0.6477763246,-1.5154553356,0.0012535555,-0.3829479843,-416.2759417611,-0.1680245723,1.7751621668,-0.0791103144,-0.2155616758,-4.3689431616,-0.8260476119,0.2608434706,0.4267291819,-0.627194445,0.3284173779,-0.3391498978,-0.1624665029,-0.6841465651,-0.675378906,0.7135976889,-1.6707393733,-0.4820293246,2775.9848131211,0.3679225918,-0.650021215,0.392872302,-0.8947378341,0.1508551061,-0.7117892,419.3824676714,-0.1399936955,-852.6121118565,0.3058174225,-0.9441417697,0.6259339021,0.70778751,-0.223382204,521.2386251689,-0.8632734795,-81.7708327049,5599.973606738,0.8239051891,2670.6749221246,-0.1079883269,6.3983848983,-1.5740028831,-0.8880209157,0.5924743482,-0.0612050978,0.8587182807,-1.401173532,0.9931152987,-1.6943453624,-25.2401619069,-51.4108565911,723.8001439446,-6.0091876422,-87.5500084075,-1080.0213368654,-0.0618346578,-12.175765797,0.3240981701,-913.2084125552,-0.789897379,3.7656639792,-49.3743553994,-880.6619234887,-98.9976551445,-0.042074631,-1888.4700862958,2.8383208149,-816.8649300686,-4770.0179231049,-4019.2473049355,-700.2935983044,117.2992583287,-0.1597895051,-5.5819352067,-12.1414096536,-0.6980588475,-0.3342215227,0.2296488195,-0.6452471216,-3475.4158949674,0.7655976097,-0.2304501215,0.7589101853,-0.9989872612,182.2931072724,0.2222863179,0.1999416622,-0.201093032,1.2337272253,-0.177576704,-0.7441162744,-724.8230108065,0.2149434235,-0.7329945995,0.8518400989,-0.404021489,3.3511644856,0.7671869301,0.0151619704,-55.8878139855,0.8591090831,1.0413271619,-31.6952269315,2.611763224,0.0480086255,21.9180983456,0.0760493658,-0.1124243581,-0.8698735789,-0.0612371717,-0.9518273796,-0.8039915805,3.2551850099,-0.7141348449,131.9276467466,650.5516620028,133.4113465189,-92.2395449151,826.0202509647,454.4768120585,132.5581107496,1737.2652199218,188.9937187226,453.6428488216,-656.478216373,453.4522640976,-794.2907170591,362.1165242325,1460.0324239045,463.8026486108,182.1945928435,452.613901894,-2371.1872036348,344.1329729481,3604.8494843997,2748.377759554,420.4887016099,-964.9970794877,123.971162796,1801.8086708094,618.4504453122,452.0121770542,452.3429645786,1040.7599222659,453.4478145566,330.553486053,452.2833009668,-34.9568073382,-204.9491103118,-361.052720181,-2103.8098163196,-790.5677368824,-1.0268660989,-1508.1068033731,-0.8029623948,-643.5033454933,-1.2755349236,-45.2313477566,-0.795795505,9.4962806289,349.1970739291,-1245.5194494326,-88.1223623553,-8.7251012993,-1.1307983883,0.1393022002,-277.0917142805,-988.4280253653,-4391.8711521009,-6.2448581364,341.0437254893,-1.2530325976,-11.8238952499,-729.6893341506,-17.5341541541,-789.9586862267,-367.5269782028,-0.505263682,-429.0851064952,0.1359182987,0.7774654862,-0.2932245075,0.2035490508,-4319.7866340345,0.2298465842,-0.7087208435,304.1409853269,4.9017081232,-0.8305859634,0.4763147296,478.4463135853,0.71199956,92.769497317,-17.1476645735,12.6239053091,360.8748126656,-0.053587545,0.4503255856,446.6111899623,-285.0275508439,-0.4925297322,-1437.8965635999,360.0116429963,-3894.0393608774,116.0169210561,-426.6001657966,-0.8183874763,0.6966288073,1.3966508363,-377.012555969,16.6628236063,-78.7418843203,-0.825156042,-0.1739321445,-0.8962699257,0.4277281236,91.6479783107,0.4163233058,-0.5178375238,0.2776709977,0.9143887322,-0.5399821417,0.6902062113,-1.9974494804,-0.1419158824,-0.0323647027,-18.9102170104,0.6015283191,-0.1901524528,-0.9830424343,0.3508951646,-15.847435464,0.5635673654,0.0452472752,91.9959056949,-15.2971938955,-103.4423829359,-0.8596212355,-63.2420715911,-0.9936197202,-0.5272053522,0.2118894878,0.7904879727,-0.7484314792,0.5058695456,0.0479069888,-5.3395541523,-9.5579744655,4.771705607,588.8904550796,-9.8422482754,-1092.4155039341,-459.3286053452,-1051.2777143169,-1261.9608032821,-0.9758679488,-1308.5466438217,-2.3806952828,6.0476336762,-607.4853078568,441.1173887797,-1023.5376291311,-116.0981285035,-4.6849756565,1.4167414674,-116.8443737486,-33.4959674916,-3391.7702526715,-1262.6406163009,1.7611242831,-0.3591967262,-21.4408269392,-995.4869869024,-20.232366797,-0.8739202442,-0.6969722042,-0.7472700175,-84.2773461366,-1.199365937,-0.8880366031,0.7011402268,0.4788849439,602.9063426867,-0.2556056127,-0.993552948,0.0112567005,-0.6230795691,-0.3566113264,-0.0959350063,-3878.1055030306,0.8204455016,-30.0212774179,-12.7400787819,-0.9829043369,-0.6302137273,-0.6258253621,-0.518878236,-1628.3629411139,0.558867329,0.0336766815,17.1582552616,-0.572346457,481.902506895,-0.3536247619,0.3866453409,0.663052438,0.4828591134,-0.1501761741,0.8743140649,-0.9960863319,0.6402982965,0.0025691642,-17.9150453974,8006.0308222119,-0.075825987,3905.4014539053,0.903853673,10.2444784208,6.3849736151,1.0090154609,7820.07499609,-650.101028055,0.906318838,-1852.7322369421,-57.0623637177,54.6065302727,-0.7040543256,13.3832397281,-5816.1063414488,-1546.7968987849,366.0349233977,9.6610351056,1.8736613108,0.7849267427,-0.6112654483,-4212.1941127656,-0.4404603524,0.2988579925,-0.1001350275,66.9770808118,2.2119197526,0.1733633352,3.4809615681,343.1135516613,0.5395410369,0.823516037,0.4804434336,2823.9636341083,4.1488020446,170.8943989376,-0.1754849176,9.471721377,8627.768676429,0.539597673,-0.9171396411,-0.5164042979,9506.9998484813,0.9231746227,0.4169516279,-904.419799223,-584.7706459888,0.7307875196,-158.1474334385,-0.5710664966,0.8016804181,534.7328322726,11372.396990135,0.6869480867,2248.8975503732,-5942.3833920295,-0.8844946663,0.5207286056,149.0035730087,254.9231605432,0.3101900071,-0.7068089335,-0.0654303509,0.0056671924,5415.0868462677,0.0499030263,-1211.1096902697,-0.2298440821,2.8976216138,-0.1405508925,-0.0980044535,173.6526868013,-2482.3897626328,-0.4151939887,-3386.980040603,-0.0535838581,2.2732523903,-0.4787609822,-0.3113184136,-4037.8412649394,369.7708851198,1449.5289050185,-0.3523008983,-0.123428209,0.1043900376,-0.1814799606,-293.5443796241,0.5689849106,-0.4995524877,-0.5546909238,-27.8569385834,0.4075117143,-0.7730715321,7.4820291281,16.4930759898,-0.2216113765,0.3718118016,-0.2555517401,-1078.3776121555,4.065605312,3.6228619429,-0.5644663043,-0.2608884096,2077.2400434977,-0.5649421828,0.9355566532,2.2955186522,448.1518505612,-0.4888499331,1.3145392503,-359.6817858907,-0.5207143027,0.7550926066,1.0049417236,-0.7871747238,0.1082202013,-17.5905200987,930.6383502684,-0.1158067143,1309.2653017873,2693.3614732112,-0.8004401355,-0.7000412004,-3577.5708679061,20.8058558636,0.9120859899,0.0984914229,0.4933546009,1.2592617245,6804.3709338885,77.345828667,7167.4939920212,266.3578043709,0.9476480991,0.9281810008,-0.3845536043,10518.5676722852,35.3068974039,14.2588143909,-2947.7648211344,-221.9200118647,0.4244521827,144.6859507464,64.5887507713,-2073.2285466836,-2565.1674822204,-16.1642326309,1.4414474538,2.3865502129,0.0021557249,129.4157703372,1531.1022428203,2.6007905173,133.907959594,80.0812496982,3.1364769533,25.4337041284,7.2454642744,34.8632179598,21.8447838316,1.558429382,8.5616454584,0.426558225,3703.5669464444,291.6475326896,291.1762724828,2.7979279437,0.436075596,10040.5080798996,1.4187566404,133.8370912916,72.2847354151,9757.1052991221,1.7641922012,289.7373708459,-1116.492720081,-2987.0407022004,7.1694037843,0.6489847483,0.4116142403,0.1602845244,384.9795904144,10959.4829565461,5.0146217005,1958.3323846804,-3366.9326622294,2.2117678729,-0.765669417,898.1097903883,128.7648201617,0.8430531744,1.2546550429,-0.2579051731,0.3604462377,-6794.3983759005,-46.7873114903,1145.1911275276,-71.6841049881,-7.1289471404,0.6081811822,-1.0286333749,-3669.4547602196,1252.7926962479,-14.8883281652,2203.2894550524,75.8554648977,-1.1852869452,0.5028882424,-1.3789496905,4182.8079591822,2903.0146906464,115.6391866793,-0.5772577929,-5.1806672511,0.0397442283,-23.2325607043,1348.2615755339,-0.3224576318,-3.2192292037,-0.5768737894,0.2951743223,-37.0387258835,17.8934286305,-0.3165886541,0.8002628061,0.8328106597,-3.5969372012,-0.5252393223,-2822.4857401781,-19.9713072612,-20.1190524472,-1.7271550883,-0.106102612,-4420.2958542817,0.1792761441,-0.0076106669,0.7514096594,-4958.762995999,-8.9826119361,-3.1652855571,287.0341166807,3.3931496953,8.7994386778,0.2609793584,-0.1226990127,-1.4041078281,-71.0492123447,-1968.2971741252,-0.0581002651,-716.499315662,3470.9589078069,0.6366024578,-1.0206183921,1777.5402297533,-36.9717357159,0.3089384374,0.2935936663,-0.4110988228,-0.8539241253,4524.6869158637,-0.4575211732,1620.4143518582,-1.5892283236,1.7208444788,0.9014625302,0.8292825646,-2177.5791165798,5.4773835599,1.6719341178,-840.3077290472,-0.238345607,-0.9141966675,1.0848480209,0.4798724771,198.4669330936,1870.2209326193,92.3987244094,0.4628089704,0.6755768249,5.0606019816,-0.2283719714,146.9787910828,2.9469788622,0.6395556572,-0.5457334037,1.0358203293,-10.8658008099,10.0856187946,-79.1161413855,-0.1494879979,-0.1211507143,1.042669007,-0.8659682949,1294.9920893349,-14.0991483565,0.2043297136,-0.767248074,-0.7578340054,4986.1621081087,0.2341696099,1.1660780299,0.9910621937,2359.0831939919,-0.6351186243,9.7378230956,-1.4639794742,1.7718287375,90.6520040609,0.9020803885,-0.7477161563,-0.0479421637,1.6951760131,2604.0628604027,-0.1077855389,-3379.807721271,-344.4593858174,19.6104820507,0.1573381561,10.8588285737,-32.9842186797,-0.5228720138,34.486315624,0.2184037962,-6.5166122442,5745.6102130096,15.6315482063,8613.9969912639,1204.15502315,-3.9208661769,663.2070910127,0.465250012,10547.2452847008,-2629.7220410913,4.6374814471,-3153.5763655989,-1652.6744176839,-133.0555850821,3.6442409392,6.3811594574,-5976.1233435515,-4091.5815018177,1920.4821017695,647.857431236,69.6159341017,-399.4108500759,0.1925191111,-4081.9969070396,0.2624998016,-13.2090369882,1.0927099434,318.8292840904,20.1717314531,-0.4008849611,3.0989014748,86.4822770618,-0.7162060439,372.2223588228,-0.5202207881,1363.7123069128,799.1101717743,853.3573928919,1.1297286217,-349.627765617,11819.6836600186,0.6038533994,26.1926252565,1304.2901257275,12635.6709781895,-0.3978995555,2.1249051706,266.4036508254,-4547.5260088776,-0.7310453991,-1481.2675077876,0.7662125121,0.7582740136,400.90446433,17014.4685097282,6.2660866017,6105.6530681955,-615.6836079484,455.7635774326,4.3836523932,-4599.4182250946,3.7531218047,-0.0315395765,0.3000470721,0.9630168334,0.7206207914,7058.0465983298,25.8382951098,13356.1598259848,72.9483837567,1.7250158377,9.6156088143,0.3443347788,12104.8479914807,-405.6191574872,3.344967007,-3205.7637626633,-23.7840765145,1.0567292961,13.7853222683,-0.1985745023,-5940.6515481177,-2729.8548156835,-102.4913222353,0.18946825,13.2821730412,-0.4980564258,11.6461624049,-4466.2215548227,2.3615052879,14.0558138692,153.1028394276,1.2829599295,3.0214449417,22.4431181086,2.3626142448,6.3124004889,0.8562766079,35.841824162,0.3938457573,2820.6418688478,350.0492884322,11.190328617,36.90042425,156.594021491,12611.4246368175,0.903007067,170.7342597134,73.8257630856,13457.0716358652,-0.8230389603,206.75313765,-167.3479562503,-3328.6215485009,45.2416368232,0.6750334981,0.6525367352,-0.8574777803,0.845376549,17090.285534704,1.3756923428,7627.024190115,-2501.6918754047,0.6007574458,0.7421667926,-819.0159476697,333.2271320706,0.7974926062,299.8424155387,-0.1308826385,0.5682433181,7160.0685171393,418.8694475657,6290.3627512947,660.0088666775,280.1707405222,128.0059470786,0.6218001475,9796.7069524539,494.8155988731,459.8996714542,-3420.8875167287,-656.9820892792,0.7473477999,0.760124321,-0.2496528417,-3279.3410277989,-1057.5682139672,3266.2474046596,116.9214812375,291.5411169813,20.9069168522,-0.3421629932,-3197.2656445189,-0.575864951,479.423750388,301.2666761064,2353.4858573812,497.5860452882,349.2001339474,-0.8651353811,11.366690235,-0.8865587294,292.6356743296,0.7067832799,397.2459197162,228.6650956402,228.9602719326,40.6488103604,48.5341232584,10322.7358357081,0.9898642162,78.3211277028,71.9684931599,12937.004583594,1.5234365503,105.149046636,-43.225884654,-2729.6890447853,1.1812158573,-0.6139058682,0.960681133,-0.5181671441,102.2051745088,17192.1390559531,6.1663818703,5722.5577321072,-3157.3406975289,-0.3896889491,0.4283206107,-309.0182592908,491.7064478776,-0.2151342879,366.3938632756,0.6511445282,-0.1758058665,6076.8248986515,38.8730336625,7655.4628723475,116.4704860381,-2.4434496805,37.7965890155,0.9423474094,8610.5959385066,743.1981409734,49.1105091016,-2551.0286197594,-1324.4013619345,0.8511260661,1.0881429301,-0.101136849,-2662.0083568506,-1325.5242476864,3492.8704296022,9.5800680873,0.8141358036,0.0267041047,69.0885312499,-830.722667624,0.2293325345,0.3387786187,0.7502692097,0.370120123,11.5341279853,-2.6567711624,206.2270801057,1.2888342708,0.0670464064,13.6196660176,0.1730262614,484.3179548958,206.7075958363,41.6524546637,0.6715618925,27.8171633876,12046.6037895569,0.2900366043,80.8042528637,0.6640096603,12098.6427493933,-0.0387949344,102.6231453491,-405.8191043742,-2782.3112646992,1.7624074435,-0.2892867129,-0.1106380767,-0.6389933765,51.2640129652,15796.4564029378,1.3622296878,7952.8002865181,-660.410994827,-0.0110940336,-0.2677462596,1197.492814381,78.4006051127,-0.2896274963,-0.2990132691,-0.1540978354,0.8087034493,3266.8017780187,136.0221867291,6530.0939223387,340.1613557609,4.6771622286,1.9416876947,0.3564090246,6952.0737242986,227.3361040736,185.556622785,-2127.8174290826,-0.9169590305,-0.01047956,56.1015468817,87.4317621971,-2611.2962980185,-1648.9116414292,-27.7082001614,1.6164559724,60.2097593246,0.7614893464,0.549704697,1451.4232976225,2.3142070537,50.2769031108,237.4908185116,13.9839615411,52.3100822322,120.1774235835,-0.1178089571,240.1800119106,0.7452621501,56.6461096305,1.0043216844,1639.7429929345,63.373565357,68.2167724783,21.1421406285,-0.1457733539,7983.1227788602,-0.8849944674,137.1969224546,189.6888180144,7147.0337514502,9.3902607957,8.6147534059,-0.7408176336,-393.7155422201,38.4109044432,-0.2845383983,-0.0525344055,0.5598919995,380.6149598332,11094.704877627,0.2991040308,5405.0159556947,-2402.2052504916,146.6375130299,-0.5891511964,-467.1360986694,88.6426628435,0.2288990946,-0.4611838261,-0.0055045688,-0.4976322851,3789.9560948934,0.5843063395,6923.4588205392,-0.7822771531,-0.716565257,-0.4531410714,-0.1971794986,4826.7372467241,-600.8261819998,-129.3492022984,-674.6799910201,-22.1850363927,-80.7878768605,0.2515762132,-209.3721511047,2770.4040342913,-888.4188181737,-142.3177348004,-1.0297575184,-0.6274723475,-0.7703603638,-0.1823164881,1158.600715746,0.6921548056,0.809125112,0.3800605323,1.003927132,-0.5243592205,0.3949555349,-0.0267758246,-1.0147002005,0.6429380573,0.7457750949,0.7290418701,1067.6709331561,-162.2246961952,-176.5264586211,-0.8090514989,-8.6084010677,7924.1658342089,-0.804966572,0.5259482042,-0.3177094013,5319.4830450843,-0.8375456682,-73.2382352459,-220.8742060622,-60.2238972534,-0.3548243353,1975.9383669867,-1.0168745298,-0.3393082233,-221.0171347281,15441.4151549081,0.606296769,5665.4703116254,-1730.6852383409,-0.0972729652,0.92688049,43.9913682748,-0.5047995441,-0.6294752109,0.2096520614,-0.6893363902,-0.9668484772,10540.4504506778,114.1180919243,3979.3514086958,999.9615757163,390.4991077159,15.4120777247,-0.7445282561,5291.2361876776,96.4272595967,377.106721662,-2861.2941968429,-8.9949408747,2.4754805862,852.9791583657,-0.1046151314,-5499.8147044099,-2960.1663042634,811.4744172312,56.2645094951,140.9931065183,904.5537725824,1031.0162909823,-4763.4353127437,790.1219572778,7.5429399631,842.3150324669,1013.9275895483,1239.7702097423,1176.1574812965,1174.3782564937,1062.3372859069,57.2310469248,505.1505379019,-0.2953789755,2248.3785087426,1003.90520653,999.830875501,4.0421952583,968.575103014,5425.4144366332,1.7434933311,7.6366800011,52.943603517,5916.3833265553,0.6231775119,587.1374748472,-5.3997413642,-3303.397235962,1620.771519044,0.1409612908,0.9235798316,28.0532813138,811.5004561602,4747.4813354965,1054.187107505,986.714985116,-3292.4543665377,1311.1846706492,0.5493619204,-1183.9256983314,1053.7523971678,0.0912049996,1003.6283641027,0.1682856104,0.0421657327,6452.9382268794,0.4198167779,10262.7625169212,0.4873757711,1.4096759011,-0.6623267012,0.7037604147,12671.5677191257,-2334.7907745744,-1.1179104069,-2460.5068892513,198.9674615364,0.0400653187,-0.3615937186,-7.9525427309,-1486.8541797576,-207.8106631358,-257.4250889586,0.5296146264,0.999646392,0.3390758882,-11.3595368156,-594.2090118467,-0.0475994174,1.0382056898,-0.2355956224,1.2940163312,-11.0639317179,0.225536133,0.8857858151,-97.0548003029,0.2822882939,-0.0861654214,-0.8571825177,1958.3303503972,-36.4608484813,0.5844211521,-0.2473328942,-0.4748340116,11336.6725924266,-0.6526343739,-0.9183911993,-0.2215402946,12604.0612645695,-0.9629634544,2.8615097036,-450.4801383924,0.7172628077,-1.8196497414,68.528337387,1.0038470395,-6.7745088747,-1.8871967669,16698.6366379738,0.3117150853,8103.8453476438,-3905.0338985218,-0.4539775911,2.550212889,-485.1543729076,-81.0376469285,-0.8960755498,0.0084142568,0.8026492677,-0.5842135446,10145.6784647329,0.5020866332,103.4931844386,-4.816278945,-5.4939827619,-0.5946222765,0.8858214144,130.7660946438,-463.6161879488,0.6519709896,-3537.279626119,-65.8357271318,-0.0410257108,0.9159502906,-0.1437681528,-5281.4228589952,-1430.4331494752,83.2806640767,2.3079459133,0.7802651298,0.9181642125,-27.0877171148,-3771.0357356099,-1.2849022142,0.2895076749,-0.2651469501,-15.7195491688,-4.3637780842,0.4881915458,-0.0489715151,0.7688713976,0.6485904689,-0.8676356796,-0.1847195826,-96.1603101956,-68.9181806733,-0.9737417594,0.0549875062,-82.0776195119,5431.4226166604,0.1813596128,0.2662359523,-0.414748112,8142.7801780584,-0.4694155047,-4.7000913944,439.6266608622,-331.853732539,-0.67701873,-63.9465303881,0.4870500139,-0.3151890641,544.1907319416,7185.1542451874,0.1287565893,2299.7921633758,-191.3112835568,-0.0853058048,-0.6376515552,-2580.0887349934,-40.460975682,-0.6361533057,-43.3836806254,0.8514006585,-55.3374504558,-7215.1031799343,4.5814150894,-6082.4926207886,106.6009949562,10.8573788772,37.4672336829,0.7536572634,-8051.4533135887,949.0836475008,249.4672731887,952.1745588733,33.5571968747,0.9038835048,-0.1419983582,0.8798472276,-3526.9357983558,-902.7143719456,-43.4878451794,112.2077577836,0.9694402408,6.7664161059,-0.3190604068,-2971.4797097822,204.1182846343,0.5848181865,11.4846798183,1.9768363151,1.6962450861,21.237028786,0.5045991243,68.8625280299,-0.5593610058,295.7576315354,0.7661445117,-2468.6465294493,282.3896190448,0.7401158167,-0.3425682001,19.5578336919,-12720.528546165,-0.8089830356,-0.2376700255,0.5514839014,-13613.2276499052,-0.5514602915,148.119517993,-58.0781177463,-2661.2567361943,-0.1941401596,-671.9927232581,0.2911391881,0.8956231359,315.5261949915,-18516.2004529766,-0.0871985411,-7838.8998102707,-3402.0328741065,0.3084026868,68.1356608774,1460.4307509781,114.8006673,-0.6040415643,0.9232476141,0.2856689172,0.6211471704,7718.3750259342,0.2217527228,10069.5861621428,0.3876253097,2.0877448816,22.1995811261,-0.8816486116,11391.6135782093,-372.7499028952,111.9577939857,-2567.5968736813,-23.9168917131,1.7358959633,29.5845328525,0.9666634671,-3721.5282942873,-1762.9088588195,-103.7167166228,5.0761643455,-0.2716587282,-0.5126389875,1.3710286507,-3203.0794202683,-0.4259600514,2.0573688123,109.8553359781,0.1670504531,337.5864180275,0.9442748438,1.0096070781,210.7384016476,-0.1460543578,-0.3273270356,-0.4749012372,3035.4735434254,286.9860262178,66.0611894103,-0.2881184938,52.7695650307,10655.968786973,-0.5815254711,156.4178358023,99.9579005913,13047.367143464,26.5757417495,151.5719484514,-501.3651171255,-2603.7922181225,4.2908808223,-4.3550344375,0.3221381255,24.6297991581,118.6644080767,18318.5268931227,-0.1521210854,7542.6171154502,-3521.8677035219,0.2765122864,-0.2833652007,-1077.2000803031,314.7765968606,-0.8356572931,143.300161524,0.03577941,0.2743120296,8004.4362666501,-0.6966636444,717.8203616754,-0.6393594797,-10.0486680058,94.3903264763,-0.6682811932,485.9654878791,-317.6263578897,0.7372340812,-2930.331187881,-40.319240046,0.0986708538,0.2222153466,-0.4707021505,-4220.5238004312,-155.2432721002,1935.7644258616,40.6697942364,0.8468765502,0.3707584251,0.634861817,-3866.0364522659,-0.716393889,-0.2971800551,0.9474380992,0.4275357433,3.7623466669,0.9493753438,1.4790003065,2.4619702458,-0.5125324989,4.7504679002,-0.5556174391,817.7463418746,46.1455534469,33.9205515153,29.4208437971,8.7588498991,5838.6766735741,0.9851264255,-0.1106976052,0.8308707537,10258.6106277862,-0.2510417087,141.0686011726,374.3597253471,-1584.1999241098,-0.3975042343,-950.586904361,-0.1814597752,0.7811453398,-0.2523786978,12151.851641874,0.9219185712,739.9373370238,786.9799718987,1.5414901188,9.9087070031,-591.2506615337,185.0646391945,0.799722375,-0.1957686831,-0.6980956563,2178.567740618,4333.3113648522,221.431794976,11352.4008088377,2392.4924808827,487.4347906305,1510.6738362295,0.8792966054,11362.8002324475,-1128.718961415,487.5593524581,-3221.0553948381,-627.252691792,4.8831926905,-0.7579063142,99.8304858499,-6256.5095126399,-5819.9035250876,5395.1253564015,645.771732113,550.5641613743,12.9787787838,0.6292518276,-5636.5196053384,3.6204315604,3442.3362719353,1024.6536225611,1598.3241854713,1131.5090774703,602.3909348787,-0.5325705643,122.2109850108,0.6874663893,939.9021193383,-0.037008869,2344.5750984711,1238.9568828586,234.5034940529,206.0118398288,22.9316232326,12157.3835784643,0.1318949222,859.8061009139,17.7919689602,12301.9212240539,-0.4988119899,1302.3409757185,-1123.9777076743,-843.8658652164,7.0447412588,-10.5333435569,-0.8223430177,-0.7490764222,-0.3581842872,13476.300854501,0.2958395471,7359.0329728667,-3386.3566492823,3.7775905623,2431.301770359,-1058.0656810245,10.281544605,0.76823058,5.1470837599,0.9275338302,0.5651745235,-3992.5432903049,-65.8248995005,4849.180130406,-244.8809711204,47.8912208543,-1.6933635197,-0.5345084626,2803.8017904193,1218.1161643311,-123.1925334866,1962.5612571469,2.4072576577,-1.9620860232,-5.449638509,0.8666419025,-1637.4991142503,-2312.146513112,-103.8232394137,-1.6036257934,-6.8560412281,-0.4350732159,-0.4687706646,-1405.9963606232,-0.4929295208,0.4872106442,-166.0760320018,111.4768327977,-155.8417357119,-30.5803872591,-2.6528513752,-45.2979853858,-0.5918638112,-279.3596071443,-0.9969160492,140.1364770584,-152.6613274632,-90.669719379,-2.0489649264,-89.954153517,-4592.531378874,-0.1223252412,-0.08623752,0.088557829,-762.3926494549,-0.0651421127,-7.485910349,206.2539294355,-1495.5979147915,-245.8041018821,623.4815874321,0.5376168052,0.0855838043,-159.4543564018,-1152.247439491,-1.6869628122,2456.2643220743,-2488.4507238945,-10.0576879004,-0.3094211189,1107.4038527383,-53.0815866449,-0.3199799254,-318.8407416107,0.1787470466,22.2016149643,4643.2469438845,0.4338519156,5371.8982950197,-24.0943741614,-13.5953178834,-96.917313156,0.9069286419,7339.4610075052,1724.2647183936,0.4333272876,-4807.7212692446,-22.8514609808,-18.829952197,-1.8743020065,-32.6651941509,-1703.7408898576,2837.6785819876,102.990636246,-47.4683333162,-5.6161962761,0.460964181,-0.3835136018,-1677.7623033485,-5.1116267328,-0.1016736663,0.540010126,-12.7984446763,-7.9005947325,-46.5785113356,0.202012564,-301.8731530152,0.2838424277,0.1564372478,0.5704431374,1103.9421067696,376.5588932571,286.2976548376,-6.2417778261,-296.2608454722,11116.2721027457,-0.8879756709,0.3978780819,-0.6750169297,9929.9929465439,0.2796701295,-103.1577439529,1032.4780873938,-361.6489310563,0.3008715352,0.0658324687,0.8215375681,0.208883517,349.8638792103,17390.212261296,0.5760458447,5262.6513391933,3332.3938660783,-0.8304767245,4.243118387,-244.6073114294,-6.8443486337,-0.2735790661,-1.5942083509,0.8688582985,42.6900184454,5465.9524484052,-0.1290024954,8313.852285723,0.7129319895,-4.5941083023,-0.2538470625,-0.0359550203,11031.2542449074,-46.2987409972,0.8205187358,-5492.3243947559,-2741.7304131806,0.3006065893,1.0730216691,1.2555071344,-3833.8464609826,-668.587033784,4568.7660990027,-22.8448421796,0.0927256405,-0.2567906284,-0.5847535805,-4192.0021438086,-0.7205917217,0.5473116906,-0.1475693504,2215.1237363119,1461.7697018422,0.5239547965,0.4854270399,-0.3407729169,-0.3992150012,0.7344923745,0.5807880151,1922.7487997705,-304.8440096115,0.6744393684,0.737592512,-264.9536689994,10579.6661429724,1.0058553508,1.1920543386,0.8268297654,12237.3332089383,0.0474551317,-0.0823289994,-804.0898927199,-625.0888623752,2.5089412693,0.966794094,-0.0979250909,-0.2325413479,-38.3876271223,13878.7853205214,0.7714095389,9153.1876789297,-1364.3850404973,0.7716353011,685.9995367388,962.6474676526,0.9750253022,1.086383594,-14.8294010169,0.9923441925,0.9622913853,6102.211753141,20.963784936,5319.43196382,2.3680035227,-36.5991348119,-2.6099484889,-0.4324583761,6013.1715834048,-2010.0577315582,50.573794874,-3074.5926267929,-153.3613645764,0.8889574466,25.8936320479,-0.342506558,-6271.970833795,-2528.7427149375,29.2062136743,0.5029042232,0.9237729973,7.1953295731,-1.3888332049,-4077.0953456672,17.8290828317,7.9607710118,-0.4888181627,-7.0979292915,-2.1320654116,5.277229019,2.4621509091,0.1720265632,-1.0311882164,-14.074217664,-0.0296579737,736.5518660749,-19.2188916663,-46.1805210132,-1.5048164169,0.2138309546,10664.6867019203,-0.6315144385,2.1784565165,-0.9665759331,9124.7146092098,-0.0399703319,-20.1911327683,162.6046293295,-1500.4289508298,6.8699434819,-3.643976856,-0.5163896549,0.6636133339,2.3720686661,12817.4224704582,0.4326934605,304.3513593341,1534.7384205497,-17.8972032756,0.5301536994,-3896.2228706375,0.9689745129,0.8277947198,0.1169510296,-0.9522385953,0.2643694434,8351.0177586384,0.044289256,5701.498461706,-0.5505992422,17.4643277689,-0.4198142217,-0.5207312648,7832.9419217287,-1443.2668161699,-0.5203553453,-1838.073803198,-23.3496644072,-0.465902498,-0.4669440849,0.0701953271,-4608.642428937,-676.3167278315,-103.3969392118,13.6679198236,-0.3688809839,-0.4632807275
   0.5308498302,-2525.7235594387,134.9804254849,-0.8362923409,-0.8040250906,65.437000112,1.3990462011,2.5814001123,104.7792416031,4.1708916639,-0.2722687289,-0.8849285181,-0.1394598385,3024.6270659834,30.8303469791,54.9868590722,13.960553296,-0.1120604301,6461.441436603,-0.5322806527,10.5210150151,10.2974673114,11113.7222121114,-0.4341563894,53.5599159023,-78.3055200073,-1511.4157595877,80.8196634076,-720.5889064654,0.9990297996,-0.6219051082,106.0347743227,14470.6550542922,0.976589372,4503.953844619,-2052.621784738,-0.0718504894,-0.6246906885,-1971.3195592518,91.0323002827,0.5991788861,1.0311589983,-0.2974120987,3.1498922943,-6780.9708797265,0.4357382569,-5720.3847672103,-0.3955063814,-21.0282711799,0.1997732291,-0.411415504,-3917.5190630965,1095.19271557,0.8614176016,662.1929729066,8.0651956283,-11.7814281278,-0.8506182972,-174.6293174976,5092.654552652,1361.4622411677,103.7640423722,-0.9550602454,-0.9226026461,0.7598293324,-0.3105074432,4070.2728021061,-0.7963293871,0.2871796356,-0.3095365123,-187.1853563606,-3.1904935496,0.0297141155,0.7059601843,-1.1367899869,-0.4455425792,-0.313443499,-0.1102291937,-2860.6651226365,-51.7145098885,-51.1896175231,0.2180535989,-1.6949463558,-1962.3998631666,-0.674869582,0.6444467782,-0.8866451118,-6363.6900123203,0.4848711634,-13.7762196109,866.7674200778,357.0974431005,-0.0857790373,2414.6260157174,-0.2208890208,-0.6120036486,-60.3762055761,-4181.2217928585,0.3108499611,-5123.9681510628,5389.0254387091,-0.4139247157,0.839523231,2822.3817188139,0.3670385465,-0.5110739395,0.4686483132,-0.4966432123,-0.2652788513,3629.8197587341,0.4291539273,4200.0541137745,-6.3602262893,27.0044395978,-0.8655843203,-0.3433675067,6210.1195093747,-63.0563335756,1.1110893649,-275.353639373,-0.1990240026,-0.5452058806,0.5870705384,-0.2322243085,-429.0550053237,-203.4336280118,-103.8118015014,1.1375583331,0.0424786543,-0.7455045364,0.9792619157,-236.9458477911,0.1520869906,0.768506096,-0.8437861136,188.3821590869,1.8270690838,7.3079984655,-13.2201654276,6.0656077844,0.834344959,-0.2034455791,-0.8875130977,3678.2041081836,1.2296671552,5.3119380385,0.7025670298,-0.1487979546,1859.3412481495,0.8480010647,0.5317290267,19.3736317979,1599.4393480282,31.1914866291,0.4809611848,-0.2161543827,-108.7664830658,39.9568412768,-0.786943177,0.3030814177,-0.7618913458,-16.3511673534,4705.3063058804,-0.7775440873,4741.2706133878,-1972.2344160424,-0.6963806698,-12.9960770073,-1370.7917712547,30.3476658847,-0.0388671122,11.5815516435,0.2450751816,3.4363810435,-1878.3463939487,0.0009267966,-2238.2283425797,0.6926840109,0.0702177529,3.6707818024,1.0366576323,1142.6047911986,-391.4700522132,0.2834105362,-1270.9256269397,1.3852608246,-0.1252878538,3.5942172399,78.0584183746,-5952.5710793486,-1880.3690038594,106.536349787,-0.7564543678,4.9265187709,0.9918813163,0.6425386796,-3959.2248519084,-0.8546697329,24.1254047234,-0.585720962,-38.0422057261,-1.0166964591,-0.0325085829,0.7744389539,64.782371267,0.1322915293,18.9731549677,0.3289396628,-1849.8459463203,332.2802616331,325.2627047051,-0.204702664,0.9436750572,-1876.6089749956,0.0131343916,67.4879259679,0.4541240638,422.8144649824,91.6237339273,333.9082932422,113.1303257128,-518.0743780218,-0.3346344749,-1524.2821953981,-0.4038048955,-0.310786846,188.356333856,-1957.9799387319,0.798978467,-566.8633019458,670.5748457274,1.2595756561,-0.5659914127,-1752.3464467748,383.2943651864,0.9767745549,42.3761048003,0.198987571,-1.9162922128,5561.3591124168,0.4225991441,7518.0254348851,18.5963299473,-4.934791585,-67.4254302154,-0.3633859117,8803.2145046257,-1058.5716137208,14.7951771064,-3235.9105231049,-1034.7892211647,385.4753915851,3.6593962709,-0.0726657191,-4513.4184040607,-1696.5226211847,3468.6227852811,0.5674917561,-47.6645420156,0.6284663395,-0.0974116892,-1432.422431807,2.0576508455,-0.7281997278,-12.9978632006,1.4982742344,5.5218981271,-174.0678238508,-6.9805835266,-66.9760349849,-0.8973811745,-173.6671610487,0.9600151525,801.967709713,-119.4452462217,16.885029667,-1.0132021617,13.1062974011,11124.8750288642,49.8221438105,0.3853282813,-86.1908223458,12865.5650018422,20.1468215236,-5.4335524641,-43.9062137876,-2397.6994798432,-0.2738349176,-621.9974695152,-0.2332931487,-1.8658164799,418.008467309,14254.8696799117,-0.4663088477,8038.9519892767,-1894.3338440653,-2.1781456909,-1.0153368207,-480.3249321599,-110.1903010302,0.6551199996,-0.5010511959,0.7567807155,1705.264074187,3932.582789036,-0.1312304806,10607.6544206306,1.51634826,-10.4089298724,26.3489618247,-0.7539598526,11743.257464977,-2162.9371695339,1.2984078474,-2805.8673985785,-7.5644247988,0.4869940145,0.8315567319,769.1667382027,-3729.0698240237,-4406.3006960389,4306.8841839192,41.9130025856,1.7492660032,32.0544784339,3.1026916017,-5415.6695329529,3.5390029622,2.4565161133,0.3883513551,698.1052337518,368.1418679312,3.0553697767,1.932088626,789.9115010948,0.7011083389,0.3981943023,1.2221229547,1368.0937628998,356.1636461678,175.4536956378,7.6475520272,563.4864853818,11944.6781836143,-0.1200246029,3.127637385,8.314635432,11981.8909017202,0.6264881006,31.261051669,-1210.1042413139,-612.3478936658,1.3079457566,-1418.7712395787,25.7381978029,0.1336646727,25.919152639,14483.6538000713,0.7444489881,7786.9958724103,-4683.6737883304,0.7565322354,496.683312193,-4249.6593247774,22.172125185,-0.742357205,3.7973360702,0.9104991014,-1.9973673958,4193.0517396899,5.0540302714,6162.6754423815,397.5262191296,0.1697885284,301.6415563426,0.1055843911,12294.3936078091,-183.6806648365,267.7082151253,-1337.1999990111,-20.5874176511,0.8236800059,2.2771478803,-0.3513493335,-2472.097202201,-1222.0282764435,-18.2175201963,6.6824542181,127.1668091518,26.5307907148,462.4047051587,-1389.4895058381,99.0344351451,-0.1247495002,7.163271137,-1.0339630174,22.2349653906,17.3997010167,452.7970043417,41.3076311706,0.8958069444,491.3778071028,-0.0632921866,2457.0159547446,452.289505961,0.5846504408,123.033905841,405.1949600171,11386.6963692105,0.0340058629,0.6448851061,-0.2498774182,11101.2011921678,0.980929207,115.6531186108,-890.8495470077,-2423.0637332284,3.7759810929,-11.8416695688,0.791810898,-0.0389362301,352.138718697,15527.8632166898,3.1687254819,5988.7735285877,-2189.8534683587,23.7905398228,0.8841859113,383.0979298972,132.3578032779,0.7798180384,402.0602863467,-0.4668843219,0.6174246883,-9292.4666048292,3.3306301447,582.5174269268,235.4616408901,-13.8227695614,0.642601027,-0.0301133557,4303.8911287205,1398.3397243015,63.389026866,-647.7072723459,9.5791932288,0.7064687881,0.9315534642,0.7447576669,-1519.8544471735,864.035617551,104.3397162983,7.7573698526,-0.8196894382,1.4069495051,6.5643189601,1035.8647264897,-0.4764456261,94.5494207014,2.0167734454,-37.5719965003,-1.8939519019,-0.2428425905,10.2680708131,30.0170198541,-0.5149155417,4.7374756294,0.4382439557,-3101.6903844561,2.2472918205,284.4822491108,-0.5480630548,-0.5473224454,-8847.9122362231,-0.1168745056,-0.292430495,0.3416067105,-4382.7003991058,7.0607636474,285.8198926017,-633.6840493505,70.5693608019,-0.2503374083,-125.9003351786,-0.0830749047,0.2762870591,-0.7581443521,-9563.6047013387,0.4957032833,4853.5475744222,3192.772114182,-0.5516883846,0.8781347531,1636.4465649996,-0.4466676651,-0.7226184753,-0.9420078178,-0.4342051934,0.3170895663,10755.6716795836,4.1927547079,3304.5356085034,19.918440296,-26.7936276697,83.916603523,0.8115774966,6898.3892043967,-1141.8685545754,215.3467890067,-3674.771846553,-9.2362579279,112.9622060914,-0.0028869436,1.5852458731,-4019.1232852799,-1068.9423194658,-103.8465366565,217.7484795261,0.4518690099,26.3589693871,629.4681197797,-3449.7473903112,-118.105823086,13.9718778598,1.0572026657,73.9329930197,645.8712146933,81.7973359789,441.8893748897,0.132024706,1706.9997841966,107.8599162137,-0.6109413333,4734.848083483,4.3372002876,1859.5696221735,25.4023846358,1543.0621574384,6161.9810565156,-0.2402400023,0.1762011573,1171.0069954554,6547.8632221064,616.568863614,1859.1074013024,-377.162508806,-50.1682226408,266.0232631381,-127.2258006006,0.2804861698,1909.6515208285,122.9335654645,6304.0742476384,4.0790560071,5867.0377043018,-5484.8765805709,-0.2621997439,186.3594753291,490.2294307213,58.8870596676,2.1063502116,1834.6105803581,0.6301229125,4.3535927361,2698.1355318437,0.6206205953,9610.636577343,28.8766659036,-10.1052077879,0.3320261376,0.3066359151,10719.8219488726,-2417.9768309085,0.7746590943,-4991.8529821593,170.8365612549,-0.8491300482,50.424618392,-0.3628574816,-6473.0013323358,-4055.0113912814,7.3950835724,11.4852460739,1.2883681439,0.1385994361,0.1730706618,-5152.2052935327,-0.8439194977,-0.186584835,1.6307082394,0.2736939548,-0.6499783341,15.9586934461,-0.258466205,245.0729002105,0.6450830289,8.2520886679,0.0665460308,1670.4451723469,149.6534657916,150.093449317,32.7629006723,46.6717162259,11209.2578003804,-0.1771736526,17.5336044763,0.8816344007,10461.8221374774,0.3967178151,0.9142163693,-1165.781805033,-51.6238251167,-0.6446513837,-224.8911033239,0.7681553852,0.6635157771,-470.5618582754,11066.7251186799,-0.4201014789,9245.9326421529,-968.4988735523,0.3058101455,0.4919555064,-1180.9083674926,145.8792486887,-0.6220305253,294.0012801549,0.3907018214,1057.9270532958,-418.0857201635,-131.0109864673,-91.982591085,218.0733161107,0.8308076976,508.4061834415,-79.3986970334,1949.98839716,2552.2643550537,-3285.3058688664,426.3365038335,0.5077746139,118.1090903807,27104.3421532652,30.1256663653,2460.8421265643,2718.3017819966,-38.0880027152,14021.4615938477,20.3260868338,9867.4605355562,3.9002632415,-638.2374556957,-0.5868350698,-88.1313062407,43.860774635,0.7816545386,4259.1720650506,74.852992697,-0.7728722349,2098.4080035597,0.9223057322,-292.0289592501,860.378115988,344.3811219026,1711.6860306935,-3938.5954134405,-1746.2823086371,-930.2256836336,505.3883574682,-2187.0646974285,12451.713043976,9469.3163394802,-629.9338660751,25.4010704083,-2646.5825266078,6706.9896610405,-6044.2391798458,7437.2854195639,-4595.2191850927,-120.3319965021,9120.6803164758,-5187.8619597246,11250.9000590445,-4937.1093799272,-540.2924340617,0.998336324,6.6866568527,-0.3898052782,-990.1289555771,-5410.7062665435,544.3579051543,-1713.8326185202,-3789.7907421502,0.9744701886,1081.2880147611,679.6375587842,3985.2421817326,-165.399449207,3256.7103877115,4543.7151855605,5436.2857042999,979.934836991,1892.1355293142,5163.8814635682,596.5706793879,4580.7305877209,11.8142121046,6646.4088244511,17359.2815324976,4528.2110912262,4575.3307588824,3555.0286533599,1894.2837413347,16402.6721760345,4739.1952971282,10555.9611535127,5101.174053685,4663.1364692456,881.4984689767,3084.4455864104,168.644065912,1945.9886857586,7807.4810089708,12.8023308866,5649.6654716114,4698.550275501,1.3188950329,-1161.0976134391,44.8322650714,-14.6583889518,1044.5703345247,0.31040421,-1.4145852541,-58.8023667302,-9.8242238026,-737.3053599379,10172.4647324601,5793.2263330779,78.3110862171,0.5295166787,-25.4189248597,31689.1326807083,-43.3347713625,4761.6237628771,-2877.6378908323,0.8604387561,24856.4948172589,-0.822682618,11060.1289734194,-0.1667337507,-25.0134363823,-0.4454222075,82.088836016,0.5496764772,1.4527608459,-4000.0008129762,-40.5242725954,-1727.0035683793,-1486.1134298801,0.5459912924,-1685.9516783653,-2536.4363403873,2642.1231839932,-186.5165978573,6081.6263655902,2987.6842730229,4400.2720992846,55.7170703789,2755.9698384587,2290.8087369346,-9367.6502640454,4297.9467551004,-1719.4297490961,7475.7681270044,23594.7007512036,5239.0296113075,2665.0907255005,4973.6600980708,897.4465026492,16221.0543310996,5599.8438298541,10312.9590806957,6004.6452471245,4700.9345818084,57.0205525965,1984.6130303969,3.6634377401,610.6930250692,8939.0742585131,435.0331243213,3850.5520591643,3947.2373615352,-0.2471675386,176.0554702674,279.1497973298,314.5295222383,7.0119488833,0.477081387,0.1617515369,335.9927898255,257.8934161772,66.5415741652,7053.0195030611,4792.5233814376,266.6303590641,-0.6497560307,472.0599799131,29457.0116868893,-0.7009870028,2842.1907284926,-1502.6073303252,144.4240744206,21586.9957497181,154.5363660512,11670.2687994284,-934.7638701367,33.8432384485,38.3137534195,226.8356862862,283.1369674518,-0.0424328173,-1312.9033450685,681.1910281562,2.2418134195,18.4232610992,-0.1109521419,312.1082930591,-863.7970595744,5651.9022801528,-0.4417595719,3457.6853342874,3423.2985238193,6089.2471643431,-1.1308714083,191.7680918626,11192.9637165204,6435.1772577569,4881.3206712271,0.1664544665,6478.0400276602,27081.899360903,4708.4788931928,7738.7823206829,-3755.2520776771,418.5570845013,21915.0530559208,6741.8464872141,10873.3638979589,5306.5508461115,4534.1020423427,142.0683337024,3246.7892900713,5.6222990036,487.0356537933,6918.5091396188,136.4372844203,4465.1927017849,4857.0052544407,-0.699673385,-188.4384603678,808.5593210397,1016.2375107803,517.6545315254,255.5596301171,0.4501048843,970.24062962,345.7989358849,3238.3872717511,4961.8125691736,-59.4542464775,3232.1322643032,-0.2722083117,2487.4447354345,2150.6534798306,3234.8484534713,6.3748844729,370.2768968866,3.5375134038,5631.7390837608,574.168451412,9574.1121200398,-0.1389513388,-332.7883722678,360.2919659232,2106.3160231344,0.1650727754,2.419397677,5132.4263098209,1.1500768606,446.8517595805,168.3756909716,-0.1794337267,0.7594672482,13.275854205,-50.7117180014,780.3530074735,-5.8138109793,-0.6843416923,-83.5054622474,-0.3811795283,-1.4995128233,9802.3472708539,4935.2599813422,-274.8938228121,0.9295399594,-77.4467823705,25903.6471146487,-1188.4015849497,5846.0604982084,-2880.603101653,-32.2809092185,15103.8191558815,0.0367479433,10740.0504293259,-0.0670797126,144.3115589499,-35.7435109432,1122.4170513275,-0.3783012935,0.5458055256,-4756.7522219098,0.4981107453,11.709994379,-1501.290681031,-0.0935575452,-5318.5669321224,-324.6899594009,-236.5216253581,893.5961616037,-1724.7859248295,-160.7268437548,-3211.86507749,-73.6957707219,-3865.8265537191,-5573.0458835781,-6035.7862398962,-2870.5155278703,-1.893206432,-4690.192712899,-16532.145598285,-4211.5358855248,-4628.3496567266,-545.5531531708,-227.2892438864,-12656.2146538202,-2853.3226535649,-10539.585731945,-389.0014827784,-2392.1264899756,-10.2187256361,-951.5498234341,-3.2229936645,-73.9924669731,-7100.1250783553,-254.1852192698,-1548.9469798283,-1142.2581494535,-1.5941761049,3124.5242832537,-74.8624748369,1518.3180224087,-0.7180705747,3102.1407177514,3018.1170673879,3858.8347310557,178.5341982187,2975.3935549458,-1577.691762169,-4546.6022563926,3297.7836958012,6.3020757573,4199.7621930286,17376.9220064853,4026.0537559294,1829.5099322663,2905.4282050495,941.9852239232,6703.8371049002,1456.1849947354,7186.2645746619,4770.6263435974,239.1751407372,7.7502280912,1165.1016789409,11.4933060622,684.1689021847,7158.5501372561,1089.6763034834,4182.9715133664,2218.3065436996,-0.3112258718,1346.0547637633,-49.0943003455,836.6652371986,556.9374418798,262.9380722328,0.6141017703,154.8229214125,3.7015134257,540.3362492489,-5814.7822351422,2444.0082634513,1249.1921548713,0.202368164,-403.7098603647,-35271.455750683,-817.0266836531,-1732.4034182305,-2652.8406934713,318.5684052022,-12610.0258889655,-991.0749960002,-8799.8668696375,-725.1537916492,-800.6660219847,-0.6670806184,0.7004614447,2.2870071513,0.7528450067,2725.5556816896,325.9754135168,-42.9853479333,-3644.5087061469,-0.0953201578,147.1692228969,-594.3467792685,-4648.7832559887,-2443.5684198625,-7.5596844875,10.8070176336,-2058.028959627,39.333020281,1328.709471993,-343.2123812794,3890.801575489,-805.3245925627,-7.0715981249,-163.6376658965,-24773.900236007,71.2062581584,-3096.3707961027,-6251.8236790868,-779.7219485712,-18555.9566304067,1.4461240278,-9712.8030228883,5.503206294,-4273.5108499261,-7.5773966322,-3430.7877474023,-268.5473661892,-1.199353434,3038.1940980528,-68.1414432534,-117.1775259917,-4308.4857729747,5.9214896543,1421.7471827958,27.8442973113,-665.1995073857,-4.3311229979,1229.318243407,0.4811094709,276.7422721426,52.8912118361,3203.5418314671,-3763.4070729033,-5501.9582827784,1655.1871121888,-0.5096346747,-89.6464519254,8145.5379911009,4728.9993427423,-246.5683634654,3045.0580711494,73.6678933268,3185.1210992636,1258.7095865086,5277.499846427,1169.961264714,1.8053604217,6.8260424641,3.9070519411,0.3643208347,-0.3225935509,3823.1950723587,90.3672872068,11.7926934135,1147.987020028,0.3751685276,254.1399438819,-4.6972135886,105.0124742824,-64.5141851287,2.9143993068,39.4958676215,1734.6150036621,0.0278862693,-0.2618139281,5493.7690679973,-1508.5660524006,2287.795592417,-0.8958698442,3392.6540826366,24894.1735003366,2944.055662006,2056.3264799872,187.5769064786,121.5151806121,10874.7621000512,342.3085142665,9961.2633080651,456.9172626952,127.9063071387,15.0621914461,964.474898189,30.3256860782,12.7947894759,6373.4616395278,4.5147590869,1876.5903834345,1144.9487003393,-0.12315192,3279.4362714291,166.1400924436,158.8079631193,87.1528805564,-0.0806974993,175.6533431823,96.4952929177,321.3816988232,4615.4531201102,11572.0529849657,5219.1180947136,2517.8489361214,0.8588028571,3291.3138456002,4708.1367908067,6.5673998912,7212.4241830457,-2294.804554051,-7.7268196697,-1261.5407085999,804.0359416419,9508.1033706302,2137.2947947581,18.4691173869,2.8673685857,685.5023672268,79.2403422785,994.6513217139,6672.7517611087,3.8630084918,1209.7363810969,-260.1838167789,-0.0366837338,-2319.0494675859,-598.6536694203,-452.2604759142,1066.9651297589,-1.4795922624,-367.5777250785,-1720.7195942639,-467.957407481,-1110.6308669162,-6560.0254947187,-6338.0888373548,-2500.9672995231,-3.1308747845,-3045.0668328297,-14526.0765232027,-10.7998938421,-4627.6450272932,-3.9623300686,-4.429590581,-6639.419609955,-2.2919330692,-10705.2595663744,-1.0232372481,-1872.3893463177,-332.2186197757,-1225.3682042054,-28.3054971292,-82.9744641377,-6628.5386076086,-154.7597394442,-398.2687410668,-566.6519345932,-1.496568006,-1478.7584749656,-112.9063320915,-1573.7252874939,16.4650088601,-2968.1375658559,-2556.1329756171,-3046.2693519103,-2.1296921549,-246.3019998862,-9735.505149644,-8485.7607155468,-4185.090375547,-4.6482044138,-5033.82231148,-13455.8144676756,-3821.4275647883,-8678.8087060098,2610.9193665992,-2414.9521465273,-17271.5364763188,-2507.8800842361,-11427.3525117217,-3252.2160510797,-2429.7216432563,-63.4953355608,-2508.8355908903,-12.0108704971,-40.7902486854,-6630.6156984199,-5.781806242,-4934.1758146303,-146.4803307753,-0.8575023373,5449.9248226279,-3238.2867649934,-5049.5709810297,-4442.7667801345,-509.4532368726,-45.6867847061,-4535.9133225374,30.47581766,2027.0014129412,-335.110017071,-2361.029101441,-2719.0577166183,1042.7961301729,1848.5016883841,-29663.1764906123,-5.9692270321,-1380.4918423467,-3786.7746637417,-2518.2519498946,-22402.2123943337,-636.3956618583,-6217.2353245977,-1663.6149896694,-7502.8498749412,93.4234785307,-6251.0729438304,111.8926644821,-204.1936796345,3192.7368712433,-1125.8278519031,318.983097349,-2524.699905084,-1.3966014488,624.5530085539,137.3713831541,5255.6338236739,5.2944932493,4047.1434389557,160.1439471488,2400.4040464822,-0.0356605059,45.0075874047,10739.6964692672,6306.6477500501,3387.2567116464,0.4318920753,5091.3742340071,29562.1244103778,4642.6699986354,5967.8648564833,-3445.1382514856,1.1908022244,21037.111153524,3441.172792001,10575.7523719881,2845.2168566723,5411.4091930739,34.9834199814,1991.9072128148,0.7162810077,3.0434666683,6221.5444450087,48.3631669259,2869.6174109363,2047.099930231,0.7668295759,2144.2918883733,-0.0061124889,4386.8698689268,59.6469941187,5612.8756783198,2877.27683024,4656.8163439356,342.9847243683,2863.2426462744,9866.5974454642,7432.5802085034,3666.743473629,-1.8949680026,6716.208266057,23419.8606168819,4860.4136896615,7655.8403959843,-4434.9879494717,1349.4355689523,16409.4185132691,5266.4707041581,9981.0418690708,8265.2700984117,5420.2228403133,-414.6739349997,2232.8170157371,63.1288442697,515.4829770157,9044.2376894666,14.7919643147,4515.4537575868,3383.9933946865,-0.2104550818,2500.4007391312,38.5480009671,-1276.2781201524,-21.7509777864,0.5269359687,-0.5068089386,1138.4228144261,126.0499316104,1642.7879744028,-5573.2099341522,-5903.2531048655,1554.4210315777,0.3627202629,1209.5081338753,-33560.0814491132,2.2291062295,-972.91155837,1306.4019329374,45.4718591283,-19732.2952558339,-17.3702839415,-10126.6921841805,14.5385767339,-39.1581516753,9.8674340183,378.5300908307,26.8273318239,23.2887184454,6027.6347496718,137.2447480791,1457.778931831,-526.0911990957,0.840844101,2459.4244289328,14.6907350699,2679.6935585769,4.0792776844,1082.1822451113,4194.2486087523,2287.8988086244,172.9589028538,1886.5355126136,10334.5593834047,4676.7168787206,3570.8871640079,51.4059805624,3605.3970218172,8263.724175874,2546.2642502799,7838.958204281,-5398.8004493284,1494.7675047449,16668.656816207,3957.6168611074,12107.4189815114,3117.9326661448,446.8301709374,503.8340635683,3009.4081806581,2.1635094768,1440.3920984436,4283.7385214851,296.7457312493,5586.5706116167,1905.7847361757,0.9631540478,-4619.2941441451,-37.2284993452,-1905.6914609757,43.7648212548,-38.3579631931,-2020.2542412861,-130.5002257125,-2.022540351,-5832.9855301834,-6441.8374987662,-6585.4296044249,-3955.3800365484,-757.3724181288,-2447.240022484,-14814.5676282427,-1615.6675688962,-5930.3402765489,-167.3890785707,-3.2616810858,-8410.3797983591,-1307.5498618363,-11617.1704721352,-1925.9257382612,-691.4311868889,-533.0840896528,-1613.4352853684,-867.5536345602,-2258.7217083623,-5211.2663119791,-1126.0107657944,-3730.3767259157,69.3065344722,-3.404440301,3700.887231802,-184.0883645519,3082.9816150504,1068.726328917,361.2136966306,1178.1132957435,2046.5343732565,-27.3542935768,2596.576931096,8606.1475599943,7680.7751496886,2881.7034255691,0.3148402251,3573.873976498,28007.7697851467,3964.8431171881,7152.647944647,-3805.5792379279,1213.5186474568,23139.2764243897,3278.2498367092,11050.1146529749,2765.1408856251,1203.6213548791,2.4311294652,325.9096212223,6.7239407749,942.6961267794,4949.1808054256,129.8208423257,4767.9871769725,4424.6542158647,0.8133049379,1575.1255139793,-3058.5180980606,1698.8402737836,-3.4809649486,4714.6830257285,1907.9185183002,3544.2896051403,100.9260516137,2615.1741682284,-407.14005704,-5489.8987497709,2999.0185912249,-188.241724651,6354.005338909,26746.0364278087,3472.7264514915,3746.3127536667,3925.1906981694,-377.6136902358,15556.8772702092,3261.1437399839,8290.7062535742,4709.9412799606,1725.3052104673,-189.3507786948,820.3919893263,-0.1253266383,-12.2435010664,7906.2691300124,-1.8707988017,2953.3129242116,3694.4167487133,0.8420465612,-239.8069920001,5.8569288607,3314.6727118764,-102.1368111418,-492.5095993581,645.8380025608,817.8579117024,14.5323271849,-2.0614779029,517.1218120802,-5324.986414989,2134.9272584666,0.0508824178,3166.8353175827,27325.9524597739,3297.920117833,5018.7011201544,2861.6119459886,118.1631478534,23797.2651748203,19.3922012418,9859.8654579903,3636.8854718249,1637.4578327732,14.4468391084,1029.1515133732,-0.070230281,-0.1975413259,3735.5117986355,-0.8843259042,1557.666163922,1915.1647423436,0.4119069346,7.7317089056,23.542545018,369.9227136588,0.0754706751,30.7197158887,674.252339984,727.8258308071,17.750826232,-672.8366973054,9622.3012363025,5851.1201478731,291.7393755888,-0.2111734449,165.4097411599,25596.655896258,-486.3285192615,4166.7794784398,-2410.2335152593,5.4345600291,20279.4178186545,1.250402028,10189.9018548254,-0.3608434254,50.8225181624,237.2462230106,1213.4030977441,-0.5085915476,-0.1861118163,223.8248894903,0.2025034603,76.3765192964,667.8624515426,0.3855065447,1189.8289736083,108.5035726272,814.3050184448,574.271048756,589.2065934635,0.9642854981,440.0389816588,397.4006657298,-640.711914353,7947.2125462163,4059.2386137471,736.2009557418,0.5238040531,858.0340892621,18779.7451699628,74.6494055464,6275.723032666,-2511.7065584822,210.0217073819,19389.6651796443,16.2233445088,10843.4964283848,1148.7305348596,436.3228066424,61.0133234691,774.414005915,83.007034473,-0.3003880511,23.0029262955,681.234024945,3.6853648901,-1139.769056636,0.4838626697,-602.9704913432,-1352.5270832625,2978.951054996,-52.671367283,4130.5922189394,1899.5744975092,1846.948639182,12.4240496503,3633.7643652852,1794.3004142984,-1983.7164877543,3353.7547293812,-1.4295737933,6586.4407028809,26020.1580620587,6167.7587182287,3701.3160030424,3531.5963938862,951.3035965924,14686.9696243673,5649.5397043699,9964.9189538587,4502.9128771589,1845.0854793033,-9.983623258,2007.9380586272,-0.3629405042,9.1384908636,7844.9383543706,877.6877058854,3765.4837447279,4622.5674088272,0.601450069,3242.4528367593,114.8920024532,2116.9810647858,614.8782927555,1139.1031684708,4452.8431787587,2415.9222725269,94.4950837008,341.0014155386,11232.7645350145,6070.0733928243,3384.8533230813,-0.5730048118,3863.5857382542,24991.9703226483,3407.8331537579,5771.6508156928,-2810.1022777998,1319.0019630404,21071.4087107164,4011.2132368994,11277.9202064623,477.6281910541,1888.5311735933,82.6797431117,2700.8475749657,0.498608519,44.2168419517,4450.7854010405,6.8091137969,5303.0065981562,254.9973408844,0.3325448301,1444.9523317505,29.7834053145,2620.2372465208,5.3503482409,629.1162891517,8.2125488507,238.0773098793,115.3068993195,-206.2892389833,9510.1323047766,6087.1166331554,1770.8835370762,0.6655400822,3091.4869228083,23112.3733047511,3330.2950333009,5048.3679746298,-2643.7935789644,16.3091643829,18875.8414294944,2160.0665656995,10435.3743917338,2426.7145584714,1148.2763894386,6.8870285135,1357.0420589945,0.5397201842,-0.3427211853,3663.4939851889,428.7999534481,12.9346077529,1393.5063023621,0.2728488939,-33.9095598522,1472.2595337731,2059.3233322539,4.695219204,-117.682304276,1728.8094043677,2404.5775297355,1683.3395801006,-505.5633479405,9872.5548392544,7776.2272733447,1116.1651484805,-0.9463554545,846.760247584,11854.1905896955,-333.132107384,4791.6243170996,-2556.8427390266,1.5744253347,19196.9047942236,688.2814595194,9271.2929547598,-31.1714339978,5.1357117313,505.3055500502,275.2404016634,0.2032501785,-0.9179351482,1722.9513831653,1.2197984351,2008.7004477483,1685.1665758303,0.1567384397,240.3226301545,-491.447010357,2966.4943378071,-1188.0075951483,1299.5939159563,3782.0867122635,2845.3018934145,177.1962228313,954.813049412,2502.4489050069,-4848.9371832265,4267.3122263975,-4.0299786435,6851.2912479106,21740.4272736078,4589.2096636531,3859.6907799222,1422.3677999166,1894.8584362217,17216.1709048499,6032.6360572323,9975.3063738417,4961.4086328927,3348.8890187045,281.7162953855,2015.3804705797,8.68170431,361.5402443403,6014.8865530994,742.8907201978,4677.3744551491,5259.0221359022,0.6594752641,2407.3012972475,37.101528729,268.8144261681,-307.7025357333,268.2676967729,1.2248675635,162.6320853665,333.3546573103,1844.8523349794,2924.9800799311,-4770.6678022442,1636.1417425077,0.2917047097,798.9552065889,-3512.2376851031,-728.3029395657,1180.6431462689,4398.2125025809,5.8614828415,10740.1729501595,298.4991790565,9212.1317215247,-89.7666364022,20.59850771,157.2902276269,-264.2960446202,381.4405159152,-47.578127962,1658.4746618514,173.1731579742,2960.7794994399,1969.5859544973,0.0658753322,0.8523463748,45.6868007052,332.3961095862,1.5665489973,-61.3715885482,5.9416380722,86.8136462923,170.3965439609,-1.5301040748,1786.0933383132,98.3740153485,-136.3278295769,-0.0390960919,314.6719042703,17746.5332575545,46.7117347064,2375.3979157471,43.6504957681,255.0394451656,17237.1385176224,168.7797258254,9681.912786111,-487.353114556,348.9857177798,211.4995711268,593.7755706433,-0.6630458914,-0.1978923073,-1229.2401081541,0.3382897031,-641.2975805101,4.2860471938,0.5578082816,2950.6522718591,-2380.2965769423,-1192.2759590128,-5148.949077681,1646.7724082162,3976.9909425817,3774.4691527059,-1155.3012735347,4906.2392905031,-2693.3446265118,-7873.7131782583,3502.969904173,-1845.258554721,5545.6183251023,17667.1039372193,1707.6205874805,-356.9939942242,8502.1356972387,-311.3401282915,8038.7929860753,4420.0612608447,5461.8641514627,2836.4222051262,2593.1501098315,-9.2691436376,-166.7207667063,403.2688794241,908.89283409,7499.9770005602,3.7930212555,4345.4496724676,5914.2091072262,0.4672745853,3228.3764990461,-103.2903539377,317.2857702094,-1842.7895362844,726.2899673426,1259.9500214558,600.7937759372,-13.2995578989,2691.7556928991,-2063.9138049638,-6687.1030145986,3383.2484618598,23.3381528614,4721.5840516262,12125.7682153826,1897.4906893418,-1354.5685903876,5690.7352266489,485.0641159003,5510.3992424779,3585.5364180703,6729.6824472995,223.4419028248,-4.9349235762,-59.0356733979,1408.6108189398,-0.6077178445,310.3432518651,6783.2021733961,-0.3988903303,2983.4150024033,145.2798873413,-0.1343797656,-514.5007656693,-199.0559607905,3029.4087916048,-0.5526729862,863.8234676086,1548.8260563028,2476.44188638,148.041602857,23.9449083069,10423.909908432,8044.4941614655,3150.9522614829,0.6200681407,5069.2716419039,22240.4699234693,4587.8274155859,6411.0332724334,-3956.2071182835,545.2195309677,17860.6004105824,3812.7646640529,10562.3105531115,4251.5518729778,2415.3513757985,255.5370612451,2801.5737112847,8.7388897507,82.334773536,5756.1767846285,766.960087135,3719.3348830048,1558.5151066446,-0.0590276519,1302.9833641527,32.791199311,344.3272263943,35.0543212834,-1035.9918688272,20.4501941019,750.9455338003,5.2322536062,-629.657807963,1301.0241304096,5678.2783362243,1811.058902653,-0.2631424934,2040.4876464198,-20523.0006250424,1724.1053150296,-3186.2676955593,-2936.9017661985,239.840414139,-5565.4160532498,1144.7789480889,-7816.1761161175,2647.4909694494,1310.9349041138,15.8614093707,65.8033355613,181.8288314948,2.0688576155,2964.0023244788,236.5865395394,2685.2172333701,1146.312288117,0.5763158513,-2181.7648470914,874.5233826814,967.7957021226,645.9282961059,-1328.5961075866,0.2767890495,-638.1092119282,-145.0869543424,-2453.8734186311,4352.8669431454,2187.6995504246,-2222.8592631729,0.7160751372,-2049.6347919522,17456.2704671184,-2676.2581377291,2998.8492723813,0.3649843217,53.0604234557,17989.1915505954,-1897.8009671211,9768.4360988899,-12.7070825827,2101.34217161,0.4980646847,1032.4947577845,0.1732056228,-23.5603536921,-6386.3790481392,-766.0710346183,134.4922594232,-0.0642993058,0.8507058582,3.4186894647,83.9491031981,1901.8254678002,1058.2151103296,0.0398765412,262.8189709433,50.6963917441,118.4074771576,-0.5057102434,5795.899944588,4726.3418783877,921.8791147383,-0.4407570558,0.8118697714,29316.416680926,117.9499588474,2188.2498775331,-215.5390499387,4.466464837,20420.8608454803,0.7773382158,10254.0061994857,0.5306636919,86.8197982847,49.2680113872,637.1624372868,54.3279553242,-0.6714560822,3427.6369889684,40.3604712086,800.5678077348,533.295582813,-0.1404587363,-1112.7012430105,11.8658772828,3017.5314157177,123.9381572901,-576.6158850322,2422.7976562728,2968.3665005355,4.3881774314,-376.6669299107,9674.1751015678,6078.3404539672,3225.9870641676,-0.5685856795,4701.38607076,24783.7895310604,3539.2256024054,6496.079586104,-3323.1271046303,20.6393055306,21242.9383471597,-45.9678239611,10437.0785343879,3371.1619589217,2405.0241862595,15.857357225,1705.8606490632,-0.1261824161,34.6737802418,5011.5391671228,3.0723700635,3223.6938092795,403.5747559045,0.0516590685,-0.3234256863
   13.8589730232,1102.2750770617,12.3106292554,0.2474758068,1.0620057601,878.2930004522,0.6514360273,-2.2811563529,9562.0170477937,6363.410728818,1699.852256573,-0.5313979541,3090.3510869162,30126.537183931,1301.9001642356,6653.1142333391,-2963.2068597668,150.5502733079,22965.5108004302,106.7287911804,10504.0736875313,2608.1794824115,352.4985426597,11.5986244406,1555.1354198636,-0.2335750043,0.0973165647,2175.2053907033,1.1538582053,24.5210316978,-1225.1508779587,-0.1790615548,1664.660306711,165.9201999051,-934.4120796052,421.5195464259,-840.2728341427,-115.6582577025,690.640616408,66.4910905472,-303.2378557855,8370.851954571,8009.8505366448,3.3497357397,0.404625016,-1757.1762380817,19985.3362273546,-1875.7976766865,4934.1944341415,-4224.4650731596,1.4049983293,10580.6668128593,-3090.1649282517,10632.522976674,-2478.2905282395,690.6836932371,240.9811540285,60.7000880425,13.7567593189,-1312.6084069815,-603.0961363076,9.7542947076,1205.6901721239,-2400.6991453192,0.6980541942,782.5755047968,389.5754781248,2109.1970056587,-1631.1329424562,1626.5110763723,61.1514413116,439.6960312334,251.0050104362,2788.0932050957,-81.3413541928,-9796.0781355515,2463.7484041205,-0.8578888057,59.2697140092,10452.7015606738,342.9687862242,381.6736585368,3877.5759288878,2.0956536023,2949.4241359529,47.1446979232,10692.5276177883,3.0040742256,5512.0011323372,181.3068404393,-9.8956119055,-0.0118276432,0.8767367439,5478.6448357347,1.3917927357,1447.4352617258,1367.0963925511,0.8281420191,2268.4827662641,-4400.9405170636,-2662.5143027188,-8069.4110608083,4191.2881977687,3593.1753779662,4736.1133355875,-493.1501220987,2325.2491843738,-2533.7039749124,-12416.5770259666,2898.2646588397,-666.6054909954,6462.2341865839,12182.8095781357,3207.7037269937,-283.729226607,11639.656845544,57.7712492156,5810.0608666218,4146.3991277046,2817.109865682,3723.0071326018,-1258.8281209318,-1.2984602876,-1491.5247436591,0.3748099997,-95.0028155347,7550.6259368517,254.4234721531,1713.3408773069,6829.0782790279,-0.2437346398,1.124246324,-13.3703954064,-3741.4598711058,-1.7392559259,203.2457326785,-368.4306286541,-828.4595347101,-0.5916142797,1.1691506339,-13230.7174540414,-4679.7358153715,-1244.7039245136,-0.4634813544,-1398.8573931909,-9881.52807633,-2713.8532849624,-9140.3532467453,2509.4725462926,-221.4906727589,-14235.1943876984,468.683186184,-10144.9759254858,1004.1960120941,-3824.7462958192,-27.6990883477,-85.1908032111,0.7291017056,-1.7065079164,-1775.4196169828,-0.340861543,-2266.0164156673,-1379.9368467738,0.455667826,-2061.3052933106,-541.4714710606,-500.0312016962,-1004.4865451312,-3.1209822842,-68.2585110121,14.3355246717,-40.8600723982,-1728.4615175501,-9251.6766899024,-6820.9985100601,-21.2646629249,-10.4771950158,-3424.129548356,-28585.6894905283,-542.8821442454,-5941.9596943233,3292.81297367,-11.2872676218,-22345.5836155002,-133.0313268076,-11473.3687452653,-337.4954078699,-354.3229100745,-253.1021241444,-1156.7230076506,-291.5220046186,-8.6610316235,-1808.7969320586,-106.7188467686,-1722.5249731559,472.2601712981,-9.9098709132,1505.3777342874,-34.5433305441,-4.1764154368,-30.1654051281,-0.4413930861,2.6446766781,228.6172711558,42.816085209,48.7258108353,-343.1053033824,-5276.3876915296,1355.4653881875,0.4198137359,273.6970953136,27006.8980199042,-148.249248291,-59.5387023035,2336.240493089,-0.3336960796,24692.2379414942,39.6850289904,10575.7225697005,387.2553531013,-10.657250952,1.4607723066,1151.8702080766,3.3086150259,0.7313055209,1417.1100927015,155.0306151886,1743.9085950991,1340.2229751267,-0.446737431,23.7990850586,-21.5843958115,-140.3258342768,-36.2065239713,-1062.0123090398,-934.3175612861,-284.2056142297,-79.4971039436,-2.0061510594,-10780.0545905049,-4852.2539656401,-1889.1164368101,0.3794924198,-1234.4109280246,-7628.1225087762,-245.7652119525,-5277.6452171696,2527.4040167687,-245.8156505836,-3139.4600363347,-275.9460543208,-11063.5806849397,-8.7461937664,-389.7180983251,-247.7169276155,-1264.9830293577,-1.1468513232,-0.6619291243,-5193.6130922535,-318.6795118957,-2162.8759484193,962.2440756928,0.451652153,-38.6976969718,82.3287683106,477.0364782546,7.5507793855,-832.0276621934,201.7071214632,220.1738803903,255.6332034128,-811.7419301921,6429.4246708421,5393.6800180831,660.5669220693,0.7269204291,2581.9057402273,16446.9597982404,2310.8771721199,3398.1599615701,-1615.9524055443,199.8858790127,15738.9578439923,1842.7975028411,7295.3552765348,530.0015838492,737.8293976982,168.6266276834,829.9721799796,0.7612632418,-0.4385819537,2429.7381622174,1.1039616971,5.756775993,-28.0224932222,0.2078982249,308.2656880639,660.3333972572,1675.2243771969,106.4885864273,-315.2676467388,2285.9209499149,2398.405229203,827.8803634888,-394.8121042516,10627.0790622485,8374.5109230337,1144.9274174366,-0.4595498398,555.1151306507,13217.722645517,316.7384488762,5720.5254249817,-1979.2471245387,2.1130173601,18475.2686376373,150.5576076536,9514.7553788978,-54.9167013428,6.5644364049,-41.8923531148,106.6215420972,0.014350166,0.4710321302,1594.691555529,0.3664069828,1856.3816782182,2735.4400978999,-0.7472324604,-25.9444478472,875.0972178229,2728.5463692065,-569.8844277247,848.7627884187,0.5556233599,129.7942474396,0.5981887602,1619.4864793133,800.8245361809,-3942.0811860224,1550.0920341426,0.2222388171,1452.8641191374,7655.09971638,922.0512066906,731.5145471906,7379.1545434598,8.4630437547,5398.299411332,88.4714917573,6984.1365191825,25.2005338626,663.0592029187,2.2600432389,640.2773062679,-0.6231576274,0.7530544876,6029.0849269162,5.4493463815,-384.9970772064,1173.4464988247,0.4960922733,0.1931679907,29.4468813488,6.9954054033,2388.5669117815,-47.5173291698,0.5413580137,-614.2622893911,14.8186326392,-33.8875218325,6982.6382982798,4825.7936915453,-34.1143458845,-0.7685011591,-1362.3321000222,14861.5736102428,-2817.5244455869,2666.0670687447,-78.4306672189,-1.6799822871,11396.5520252752,-2121.2175252132,10164.8908613662,-0.6508927554,78.5586038399,-0.6440116532,3.3233839842,0.4749284213,-14.2412756798,-5667.4541714081,-0.1978374285,-1581.0801780449,0.9114297348,-0.0371208251,2036.7380906518,-1182.2855194411,691.0822063967,-410.0031633132,275.3337240296,3211.3697764755,1973.0635671099,214.5670694499,1822.0942575019,2500.2500416198,-5507.1326993907,3694.8602149148,-911.9704874617,6473.0666809987,20499.7072977881,714.1039987798,3061.9930079824,1127.2787759357,0.6519222793,15335.2572239873,3253.6393377897,7447.3579921625,5032.4344588226,818.8073595396,2.5758014926,1553.0751791852,504.8907114603,73.5063991994,5218.1187722129,1226.7768154502,6251.3649616611,4926.5766650921,0.6980734112,-55.9062265031,-76.3451255851,3.5152827843,1171.4396148891,-1.9638033992,-3.0171946258,-4.488117145,-11.6444637234,-74.0473817657,10388.9071977617,6347.3614599421,98.6306540821,0.5530421154,-799.7241752048,26155.3145936464,-23.355521932,3851.1297854952,-2426.1930974257,0.5282511306,20551.8690144137,-14.3970246389,10423.7801466658,-3.5174703947,0.9538651227,2.6416945716,243.2664426405,-0.5672427421,0.428292908,-5314.5225691567,0.1170692906,-1137.2287964668,-960.0591859734,-0.2261413818,-1362.8262382956,-155.4744860465,-1720.6258296213,-109.8008587194,0.556404472,-0.2471508589,-3071.9847594179,-229.76562108,-77.0466390871,-12286.7593960318,-4576.0605242077,-1087.4523700868,-0.7903543282,-865.3052048381,-8955.9204770179,1.0315223747,-6854.0429304623,2524.7490354064,-61.89149059,-12557.6430620955,0.4583225751,-10513.5557138447,-7.5923852248,-40.2339352028,-61.8290746541,-922.3130532731,-242.1916439508,0.623217893,-2567.5360520446,-430.2118618079,-2214.9350409703,890.7701866085,0.7022777806,2.9035985473,0.5446847108,2182.2308524512,457.5085903531,40.0985709523,5.2413389755,670.6722028324,2.1300976029,-0.8836262794,4498.203982128,1999.3832138699,68.688106036,0.2126969288,64.4546195696,32180.2192745854,674.3297963664,900.4160653597,702.2748010542,63.5120424673,22468.1034843079,17.8303246896,11515.440457475,-693.4549865634,55.8525768271,1.4794496636,870.7675417324,0.897937403,0.7823590479,361.163747986,0.3904680289,5.2017476617,1.0118963087,-0.1640234545,7974.6750906639,2712.022919988,7789.7936843243,-876.6455268956,8169.5446317535,7728.9875257522,20009.8251587659,39.4075487774,7215.7090226441,6939.2129383456,4996.094844541,9203.7484997982,929.9387779563,9312.4177773881,26208.9657264196,7399.8631594505,4396.8294385086,7643.2260611168,3021.1948749456,21837.7729330593,7056.9401763833,9351.7856847393,9950.293156544,18903.7870944566,15.8230950007,6991.1072330639,323.9074098146,5110.9944998906,15591.5601407226,1152.9393082218,8865.9181104054,10719.4808376141,2.9002929223,-3348.9850371545,58.8096388718,-393.1079984545,266.0880268092,-255.5852347055,-3.3355548443,-466.0995508171,-258.7929279197,-5180.0703964982,-5021.9626380796,-3602.5147659172,-2405.9747911647,-1.7047229015,-3994.7779603551,-15251.4064450539,-2531.1629950143,-4970.9252055441,-0.7673353784,-2140.4815395722,-7433.4085982908,-1057.7748642745,-10139.3531333567,-10.7854006421,-343.5027313983,-155.3192210022,-715.1420949511,-3.3290358219,-6.7881365275,-6221.4797612609,-868.2553515757,-1291.3122540309,-0.9378141105,-1.7071663453,1118.4691338566,-1178.5809662515,4616.709543817,-3623.3069543828,2080.1122316416,604.2775339168,3753.5590319504,952.4931534454,2722.6860592222,10160.43239726,2399.5734745216,4521.694859341,-402.8831392191,6260.7227005473,16573.5196357561,1927.7424249825,11119.3238683777,-5800.8394991637,4405.9721625839,14926.2547600148,4111.6851656796,14329.7071597807,3276.6937855852,5267.4755433017,1284.6656436518,5313.9154877308,2196.4514768403,82.7751455026,5739.2482410201,2103.9938864215,5887.104997769,2392.1907721919,-0.0322925295,2027.8471222372,19.9922594702,431.7408514058,10.5350412001,0.5533406076,-0.3418378132,1218.6828296284,272.9437525418,1201.3065371486,3698.7062269137,-4063.4871476272,1754.4702892068,-0.8595603521,333.9477083814,20195.6746231688,1.5665924811,2750.5393673954,1012.7241138184,433.9422239208,9023.5176182428,0.2920992866,9612.5976921802,10.9770293203,199.5890077331,31.4978234041,259.565456792,324.2277652002,0.2548599294,5061.1537374987,444.8511007634,2694.7511253919,91.467466794,0.848059671,2018.8942576346,-203.8469900937,2756.0079955325,-36.0138178642,-22.5212553453,220.2710280832,1432.2495091492,113.7957054872,391.086862922,948.6651061704,-5115.1199128654,3136.8058587451,0.5386097538,4027.4477564737,27786.993644918,-665.5408392321,3841.6973240597,3712.9848240931,4.2078695021,23657.0096307986,3401.0262207129,9737.0593068586,913.640380381,-3.9796841338,0.3655971325,939.2771069638,73.6103287252,1214.0604980568,3211.4136082589,1280.0575801208,3349.0522361907,3247.8653464848,0.7095574583,6129.2860868353,4829.4419733993,-3457.8617901427,4955.129050393,2358.9438768328,6312.3033470995,44.3411848943,3147.4372277427,-5906.671178485,-25.8267246372,-3188.2774940066,-2173.7154351987,-1800.2610247477,-1594.4128595588,-1839.1362200046,-1509.5021352832,0.470861699,3953.8995362135,8153.6267311305,-3082.7828303087,7181.4316313389,-3881.8809270639,2191.4620156689,2997.0019429407,5566.4042949006,-7887.2987871447,-220.1871271093,-1831.5380777934,5782.7323603281,-6847.3035542852,-15.2095371708,2834.1163362538,4306.4190163277,0.1970639154,3679.9493488853,9096.5399524838,-4018.2669702426,7973.4135260263,-7112.5940924223,-1447.0427009821,1773.7062818491,2726.9464954854,-8986.0341153707,-2696.7863371369,-4294.5431079599,1667.1029151243,-10459.2001215075,-3733.6123947485,713.1872407437,5507.5532931943,-0.672152902,3748.5957187365,7181.0270214629,-866.1703302179,3530.5437804335,-7113.9646240346,-7883.4248991883,-5669.7600648763,-432.354647655,-6212.4759481592,488.4917123772,8237.4524573372,10863.5646103167,-7684.5111289056,-661.0724707524,7107.0148695378,9960.6435053873,0.5413014172,9924.479542731,-11578.4041400586,15288.3031143492,56.18070134,26701.5688241112,27765.4232043516,23306.7822014251,26713.1988016242,4817.5194350792,1235.8232894702,2479.7391648332,-3408.1539453572,20433.5997474196,21708.1271745172,-8657.7007203219,-9557.9771021984,0.6513668487,10731.4455678457,386.2802353066,10757.4071012676,8265.4641437385,15933.1282574927,17081.6627002526,13489.9069911238,16295.3167473048,-2432.6359602493,463.6110317454,-2215.1319159293,-4661.4432830557,10358.1662291649,12446.6053454062,-4380.5474692251,-962.4419549877,-0.6274349366,4747.8093478858,8347.021094065,-3220.8044061652,9706.3280856476,-4951.1957089405,2189.5335492532,2721.0016644429,4075.0028432303,-7502.6417510517,221.0447530345,-3049.7491417275,-3438.3336481064,-9002.4961606511,441.4983938076,-2231.2830983946,3116.4124431498,1.1293135114,6939.2459544877,6762.3212207875,-2471.1859438517,6961.6307117781,702.2876494752,4398.039272881,6761.5035708368,5411.8046831602,-5499.5911638538,251.1113281275,-1429.306198949,78.5405703757,-493.5294264533,3782.7900068341,230.6278271059,5904.7592654971,-0.7022045266,3717.8958488836,-402.2114913827,4777.5449197284,4317.8355297683,10282.0432629592,17731.3199228369,10044.3163467659,8063.2430820726,1090.7501214197,1084.8263936553,-2976.2021125628,-8435.9108939939,3518.7134978393,2231.4996251778,-7808.0729100193,-10529.4712815327,0.2726247277,5260.8042087855,20109.8462345742,-9311.5423176084,18270.1275503623,-16947.1148947164,-11615.9504696484,-9864.5425632533,-19855.1942304528,-13576.7752757937,-1846.6597913145,-4042.6814258026,7849.9826235888,-18806.958306483,-13748.6146581517,2285.2248260939,9528.39644015,0.9308312575,6703.7628186506,21120.999355137,-7800.7527659385,10944.8278082597,-21096.3812128473,-15506.7730230923,-9180.1275710462,-10874.5501551428,-8087.99737456,386.7187334987,-2605.9669486009,8215.534270033,-20742.923300334,-9802.3494882098,4616.9534057529,8463.5584035269,0.2683527597,3931.2224911253,4744.1332709949,-1423.2645275816,5158.4105001111,907.7822326379,4102.6232709465,5839.2374494619,3497.7341677673,-8393.9186186542,175.498852192,-3216.0969957379,-1956.0502035292,-5832.5499641647,1913.1347405663,2390.3883244964,2298.3204907442,1.2368359169,2581.9403486579,4419.411261429,-3949.4803643898,3144.9032087992,-397.678089943,2125.2036062105,4153.9092911937,4080.9134493387,-7831.0666155185,-216.997078151,-2001.0902685296,-1364.2317031849,671.7732085498,2907.4049021908,1301.4210157243,3975.7555356725,0.4880337072,2219.8939120489,-78.72648768,1821.6989220593,4111.9693263232,8240.0022752472,11324.0330707783,7693.9064865857,9308.5185499063,-4201.9626224986,-214.8082857785,-3447.059940123,-6395.7395354317,3832.2186009976,5095.4027528646,-5853.0286776578,-6952.7396836983,7.8380426038,31.1474809491,19936.6188682585,-8690.8368491547,12692.9320279448,-30813.822674545,-30472.0299897288,-16121.0025948513,-20215.3278922936,-10163.9707076278,-584.4705130449,-603.9626620774,4970.3484840173,-29512.294773859,-17829.9529157008,2624.7213929088,8089.5358197642,-0.0951701742,6908.7923054951,-17500.7328886709,17458.5211121331,-9297.709500676,27960.3482193453,29249.5780564449,23420.6090899401,28861.8744732505,6412.5743346894,1396.726270409,4071.2910872696,-3841.5207274733,24386.6750669977,21857.6140467457,-6749.7003135706,-11680.2777656078,-0.1720113754,-808.1513127819,15589.6135022132,-8873.7732716636,11450.3439318907,-11142.359442735,-7760.1894057422,-6782.4547099765,-8835.0541198762,-9967.7431244019,-3162.8758012513,-1483.8877508992,673.6887489687,-19268.9804714952,-13448.8008239591,-1471.3741031983,3478.9579912385,0.8507630256,1388.3804788963,-11806.628257454,8833.8986093749,-9033.2147074581,25921.762179864,22264.223934943,14342.3072074584,16640.8409057603,7248.5498866346,1683.002719183,2225.5869752389,-14045.709159935,22769.3218252849,16975.8183545867,-5967.6073358444,-14708.9358079502,-0.1796494445,5209.6761571066,7659.6473663856,-2436.4221533239,9652.9445483229,877.2631280912,2790.048227792,2229.6199082104,4236.5032983374,-8516.262408993,180.2080900244,-2761.945953202,-2523.951491862,-2734.208514193,570.659765676,-1879.0687149539,4977.9645635357,0.6320953747,2472.2107474743,19902.1716506557,-6764.2445729432,14481.4459666627,-27451.2795459996,-25448.5798266412,-16291.5777135531,-23173.4219801444,-7840.1413219864,-195.8008975024,-1200.6077437174,4393.5319227417,-25988.9721548854,-14892.9803673158,5493.524629975,9284.2815160652,0.3459203354,3619.735844764,-19815.8805570655,11248.3907546303,-10132.9754435406,28266.6032508895,27297.0474290846,19380.6187340748,25468.1086373574,7958.6444002226,1892.5067150896,2680.4488137037,-8988.6004121378,23001.6492103934,18682.0321239243,-6435.6672088445,-11361.9674394398,0.309643528,-1278.6495758268,11026.5584894563,-11881.8268842673,9921.8730351446,-7616.2133235666,-7027.449342357,-8663.7786367533,-14525.8285873546,-7119.8390044784,-1357.6831330594,-5187.5789620441,7189.3231074208,-12284.2447901069,-12297.3005153795,3004.7400334008,7019.2088676579,0.9537690804,12078.5612460776,-10783.5146256217,18562.8005723718,-4734.052659537,30098.6535528819,25936.4664562699,23685.2383008809,28021.817229574,10124.5032810895,2430.4049240506,2707.4544558988,-8235.6160269283,23382.6172117823,21956.235272323,-7148.5273823641,-10803.0385384422,-0.2436124809,4061.2129175787,13445.0020409219,-3740.3040325049,10026.9192456721,-5142.7298354599,2507.2304012907,3673.2269648555,3841.0728577207,-9005.9865373613,-146.6339673528,-2299.6437534172,638.1375246787,-10312.1089663991,-2015.7276169671,-2082.8943373324,6350.471715291,0.3135790188,3212.4998461552,3357.567669342,-3932.0878944258,4440.6546183896,-856.1783234454,3701.1924133436,5809.259998185,5698.394781533,-7957.2257866362,61.6181575239,-3154.8674728426,-2921.874221451,2317.1641595153,5017.1541564499,1984.9410804596,4039.9723185311,1.383937663,4646.7070578903,9909.4375238582,-2219.6418240102,10227.4677686717,-6260.1464850331,289.4417002687,1860.6717406136,2004.4683780888,-9837.223098355,-363.8004177407,-1675.8407163342,520.0785452982,-9545.1431562022,197.7044513787,184.3117020145,5473.0435355438,18.8116660207,5659.9017246378,4772.9031576846,-3215.9603034956,5634.9775035657,-2991.0239823132,1523.0325209149,5493.4084623311,5031.5237708478,-7786.6104400569,62.5442502703,-1627.8780246993,-1982.0396801172,67.135443857,5151.9120675471,2464.4090042144,3973.5698422811,-0.1333204379,7095.3504365868,-15526.5451194043,14411.7850769888,-4535.2019498039,29800.3829754447,29445.9137895909,25860.6850789092,30078.9608491525,6615.249759387,831.7615159619,5736.9344315537,-8211.2346836562,19675.3706866884,25073.8796302999,-7910.2819346512,-4885.5876668625,-3.4212559709,5264.1632839968,-14776.7475560091,17478.1685948815,-3026.5712573304,28717.5383339072,27331.1984038184,24737.4744247723,30827.8682218938,4788.3588822131,431.7105286274,1416.9127290189,-6495.6386320038,19808.2678370071,22623.1223968813,-14207.7439725445,-9941.6643405465,0.1976768854,2866.3933041768,5487.2544163006,-3969.8077019739,4597.3221848471,-3509.7556813433,3434.8043326784,3237.514780469,6458.7847131598,-7191.7047569905,62.7139826177,-2932.8917096486,-315.2680498942,-1708.7315370908,1683.9722950502,-1830.346281234,1229.723406225,1.6061609629,5359.623133956,4502.5481227147,-1758.5246760431,4117.5910638086,1369.8321887715,4489.6908014658,4375.5244838343,5914.104002587,-7194.8482097015,-524.5155596902,-4033.6178494351,-5268.0809772973,-1301.0304041199,653.4211099397,1050.2303714127,789.3053620768,3.8099373406,-1670.8086117489,-15585.9072290638,10498.5895308723,-6734.5481488929,27642.3652725497,23121.2747553898,14573.9542939421,16054.197804102,8569.7338575577,-392.3407789925,643.2116412194,-12413.7920672087,24821.2637105648,16152.1521452922,-2890.6193621753,-8958.7489686324,-0.5301929669
##end
biasActivation=0,1,1,1,1,1
[BASIC:ACTIVATION]
"org.encog.engine.network.activation.ActivationSigmoid"
"org.encog.engine.network.activation.ActivationSigmoid"
"org.encog.engine.network.activation.ActivationSigmoid"
"org.encog.engine.network.activation.ActivationSigmoid"
"org.encog.engine.network.activation.ActivationSigmoid"
"org.encog.engine.network.activation.ActivationLinear"
