encog,BasicNetwork,java,3.2.0,1,1396826618970
[BASIC]
[BASIC:PARAMS]
[BASIC:NETWORK]
beginTraining=0
connectionLimit=0
contextTargetOffset=0,0,0,0,0
contextTargetSize=0,0,0,0,0
endTraining=4
hasContext=f
inputCount=16
layerCounts=4,17,33,17,17
layerFeedCounts=4,16,32,16,16
layerContextCount=0,0,0,0,0
layerIndex=0,4,21,54,71
output=0,0,0,0,0,0,0,0,0,0,0,0,0,0,0,0,0,0,0,0,1,0,0,0,0,0,0,0,0,0,0,0,0,0,0,0,0,0,0,0,0,0,0,0,0,0,0,0,0,0,0,0,0,1,0,0,0,0,0,0,0,0,0,0,0,0,0,0,0,0,1,0,0,0,0,0,0,0,0,0,0,0,0,0,0,0,0,1
outputCount=4
weightIndex=0,68,596,1140,1412
weights=1.7138532333,1.5381479567,-0.4362192354,-1.4974803681,-0.4322056711,-1.6631274743,-33.2214076979,-1.1125766312,-32.7498431024,-0.3696649047,0.999483811,0.1785069969,-1.0652866152,0.3862553536,-21.3924363056,-0.7179349565,1.6562200232,-1.7725737984,0.1409061761,-3.0370550846,-11.1962621114,-11.0424542331,-0.8336441018,-0.6739892839,-9.7305632932,-4.6191522687,-8.5992457842,-4.1528249175,-11.0190825067,-3.1828871174,-1.5242657156,-1.2104012464,-0.39833148,-28.4621490013,-64.2408281539,4.4960044114,5.5928717419,42.7022989356,0.7432252644,0.2962154003,1.7855186511,-29.3009347185,80.5208321018,13.4879192418,32.8523289367,0.3568133579,6.5365083694,-52.5317820069,20.9224871867,-3.9982820355,-2.4265841688,-58.5672768038,-51.7018041412,3.2581476911,39.8314116073,-46.4146446565,84.7144194781,-1.1805300139,17.6308905277,-8025.4617231629,25.551846544,0.914476414,10.5169157733,-10.6229066606,14.7431867781,28.2068012785,2.8902731277,-0.6806459136,5383.3258538365,3.4181182106,-202.7356563029,1786.8703903264,-2524.8156490528,-2.8764155919,-38290.4325530658,-1215.2600033924,-0.8462704816,-567.7880926795,24864.1857053564,-47.7314247424,-559.8142112828,1206.2768375154,-20.101867954,-6774.8676922905,-71.0528108012,-48.984080066,-48.984080066,-48.984080066,-48.984080066,-48.984080066,-48.984080066,-48.984080066,-48.984080066,-48.984080066,-48.984080066,-48.984080066,-48.984080066,-48.984080066,-48.984080066,-48.984080066,-1.3249473734,-20126.6412627625,-1.2078675493,2242.6834558123,-50.7334927501,-147.1110471176,-7.4027694876,-13597.8547035385,-4.2331994539,-1.1621078784,10427.3454048332,-11372.2409942345,62.2932123458,643.1670144324,589.1210810947,-3.4800734382,3.1622067285,-490.0072116221,20.401261119,20.401261119,20.401261119,20.401261119,20.401261119,20.401261119,20.401261119,20.401261119,20.401261119,20.401261119,20.401261119,20.401261119,20.401261119,20.401261119,20.401261119,-1.3281652663,-24935.076346412,0.0971271706,105.431683071,-8.472053996,6.2997800464,-0.6375262659,-1228.6115103771,0.9645939253,-0.481711592,-19624.5605819138,-42906.9504892609,6.1167296155,1719.3086455903,-8.8509001333,-0.722437499,-780.4654262006,-0.0721743171,-87.0730724672,-87.0730724672,-87.0730724672,-87.0730724672,-87.0730724672,-87.0730724672,-87.0730724672,-87.0730724672,-87.0730724672,-87.0730724672,-87.0730724672,-87.0730724672,-87.0730724672,-87.0730724672,-87.0730724672,-1.0979455278,-8279.6023305651,1729.9239474802,3853.1832797971,14.7202130134,1291.5281558751,-2.6870791611,12140.0631790125,-7.0446122255,-4.8839940133,-3280.373242986,-32997.7329502654,3425.0728691384,1566.705936062,404.270579127,505.7286366084,13839.1069588987,-3177.7189962691,-537.4245512863,-537.4245512863,-537.4245512863,-537.4245512863,-537.4245512863,-537.4245512863,-537.4245512863,-537.4245512863,-537.4245512863,-537.4245512863,-537.4245512863,-537.4245512863,-537.4245512863,-537.4245512863,-537.4245512863,6.1317186348,4810.089549413,737.5296866782,1318.1342654812,-58.0774157539,1743.3397688975,106.2438271117,9534.2550968067,-586.7952702078,-1.1616243814,20307.0708210704,-4016.6023060849,136.4196380808,-1935.5910113719,-509.1304828456,94.6155618076,9007.3311364403,0.9884956839,-69.6171651846,-69.6171651846,-69.6171651846,-69.6171651846,-69.6171651846,-69.6171651846,-69.6171651846,-69.6171651846,-69.6171651846,-69.6171651846,-69.6171651846,-69.6171651846,-69.6171651846,-69.6171651846,-69.6171651846,-0.9091643887,-28847.54478981,259.4758616759,-10787.0103368716,-10033.0638428864,-2562.609345838,-567.3185407707,-1939.1864355376,1001.5713843252,-5886.2373980559,363.0805050364,-41436.4267171245,-2181.2695034833,3609.9618209657,5188.381209573,196.5488949404,-2099.0727408082,196.3504612002,-1602.8527116708,-1602.8527116708,-1602.8527116708,-1602.8527116708,-1602.8527116708,-1602.8527116708,-1602.8527116708,-1602.8527116708,-1602.8527116708,-1602.8527116708,-1602.8527116708,-1602.8527116708,-1602.8527116708,-1602.8527116708,-1602.8527116708,0.391383869,47244.3201520993,-3924.1505574594,-61939.1317421234,-53830.9866889901,-10307.3991524801,-3433.3057230265,-27659.8125967093,16958.9800531922,-9655.4304632627,-12609.8270921087,-49679.3446309166,1840.358021953,-15609.6738372973,-4014.2241472589,-275.2950460606,-64725.1214356704,-255.6032878321,-37641.6367124775,-37641.6367124775,-37641.6367124775,-37641.6367124775,-37641.6367124775,-37641.6367124775,-37641.6367124775,-37641.6367124775,-37641.6367124775,-37641.6367124775,-37641.6367124775,-37641.6367124775,-37641.6367124775,-37641.6367124775,-37641.6367124775,-7.0636449576,6643.9395156683,-5.7584370958,-521.2823879668,6456.9546879379,-3632.3598230468,-6.5855411792,9718.2982958058,-489.5907070628,-2394.9399445207,-19538.2312445528,38318.5401287563,-616.4723752482,6355.8106089751,-971.7183328642,6.4414822926,-6906.8257570516,6.5655536903,75.0059620853,75.0059620853,75.0059620853,75.0059620853,75.0059620853,75.0059620853,75.0059620853,75.0059620853,75.0059620853,75.0059620853,75.0059620853,75.0059620853,75.0059620853,75.0059620853,75.0059620853,-0.0046539139,-48193.0514418373,-0.0138294106,563.8482636066,-182.0016917925,-999.1571577774,1.0377936005,-18030.7286123383,1.1512870994,0.7548401639,36271.8693410362,-44746.1434146978,-688.6635657931,-7918.6333040696,-469.9371725028,0.873497316,-19007.5763138358,191.7040600719,14.7502737781,14.7502737781,14.7502737781,14.7502737781,14.7502737781,14.7502737781,14.7502737781,14.7502737781,14.7502737781,14.7502737781,14.7502737781,14.7502737781,14.7502737781,14.7502737781,14.7502737781,-0.2217866972,-45174.5054574049,-361.9185189576,1066.7566842158,290.7071501087,-5722.6484032087,85.0343857178,-10140.66546257,4.4157365458,3506.4568672355,4010.3266356398,-27670.8880108966,-178.7985393998,-586.0589087335,630.3649942667,0.395860867,-7531.6613164127,3.8172344467,541.3913632648,541.3913632648,541.3913632648,541.3913632648,541.3913632648,541.3913632648,541.3913632648,541.3913632648,541.3913632648,541.3913632648,541.3913632648,541.3913632648,541.3913632648,541.3913632648,541.3913632648,-0.3553780941,27168.40268826,-57.2616956621,4554.646212217,-7225.6873415275,-1830.2421120248,5.4727288976,-465.7873863671,497.485791827,283.7725465027,20988.7337103965,14837.2023674732,135.9541850406,-2040.2499325387,776.3512791735,12.5655530833,180.3344517588,-3.1820711296,-1.5317693313,-1.5317693313,-1.5317693313,-1.5317693313,-1.5317693313,-1.5317693313,-1.5317693313,-1.5317693313,-1.5317693313,-1.5317693313,-1.5317693313,-1.5317693313,-1.5317693313,-1.5317693313,-1.5317693313,-3.2901342476,-17377.5173230191,-0.4301016656,-1315.1877494054,5.4860810682,-10110.003975312,1.2062273436,10167.0054971929,1200.8996170789,1.2382543508,-14339.7595252361,-2975.7099872407,2.2665511152,249.2258349063,39.4330173801,0.4447609397,21612.0949849391,7.2162382094,-10.2686682542,-10.2686682542,-10.2686682542,-10.2686682542,-10.2686682542,-10.2686682542,-10.2686682542,-10.2686682542,-10.2686682542,-10.2686682542,-10.2686682542,-10.2686682542,-10.2686682542,-10.2686682542,-10.2686682542,-0.3647681251,-35898.8560358542,1823.4479462583,-2668.3734729815,-159.8298870176,-994.9605160638,-7.3642472985,-12723.3515516454,2475.6164630217,30.3539134122,213.6693879086,-47930.0674373171,112.0035800634,-3541.8230177412,1247.4410011085,74.9722912157,-475.391129968,-865.5223522336,8.1268344873,8.1268344873,8.1268344873,8.1268344873,8.1268344873,8.1268344873,8.1268344873,8.1268344873,8.1268344873,8.1268344873,8.1268344873,8.1268344873,8.1268344873,8.1268344873,8.1268344873,-10.5987878322,-9450.5241368313,39.6308851599,-105.6764366448,37.5712912371,642.2198315444,5.000096569,-18349.1052751819,-202.7395061882,9.7125121666,-9340.6083768204,27688.8731799378,-192.3398341052,-1.9910741538,4.6640921024,-1.7496728082,-353.9634309706,91.3043861284,2.457547645,2.457547645,2.457547645,2.457547645,2.457547645,2.457547645,2.457547645,2.457547645,2.457547645,2.457547645,2.457547645,2.457547645,2.457547645,2.457547645,2.457547645,-5.7742032323,10390.439599266,-5887.5546628874,-25796.4935500248,-3821.6767686533,-879.7869047957,-79.8888439832,-1326.3624383511,5711.2007317108,-13.0006240076,-12110.7421622075,-36063.129600243,3882.467286587,-3358.9752429244,-2791.0095424748,-1525.1390322897,-19181.5731617826,488.1161846011,-12730.210563596,-12730.210563596,-12730.210563596,-12730.210563596,-12730.210563596,-12730.210563596,-12730.210563596,-12730.210563596,-12730.210563596,-12730.210563596,-12730.210563596,-12730.210563596,-12730.210563596,-12730.210563596,-12730.210563596,-10.8171398771,7173.3361181221,2431.6597244151,527.6238539589,228.6700765337,-327.2446697695,0.8959119647,-5754.2973099315,-2.570854066,79.4611528031,-8592.2521811518,15098.2718868523,-10.4171838894,1231.2401318083,-380.7680245098,-2.1175006575,-3275.5369213692,-2403.3503386517,-117.1884851981,-117.1884851981,-117.1884851981,-117.1884851981,-117.1884851981,-117.1884851981,-117.1884851981,-117.1884851981,-117.1884851981,-117.1884851981,-117.1884851981,-117.1884851981,-117.1884851981,-117.1884851981,-117.1884851981,-2.5721000768,8465.2267041701,-15551.0247931976,-24317.6783771933,-15854.4277334413,-12468.2524582265,-7124.1652224099,17788.2316017961,5959.4744509426,-46302.1645719521,7520.329209719,-16234.9054246755,-2001.8754338095,-15741.7310628572,-7710.8389926274,-9904.3163366994,-2464.9208229613,-143.5732001588,-38620.2793571114,25880.2314435595,-8938.7650368268,36648.7892784268,15515.0980375167,14122.2485236219,-25174.0677645916,-14487.8369594835,101573.6241155904,-34713.023665432,41059.8024966825,10780.7173898208,24067.4423551526,47909.4792444826,23643.5031981775,-12372.1031501526,-3.592752303,-19424.5402950419,7040.3563780249,-12951.4241381903,36248.6504166062,19029.1910211239,18486.4422941489,14585.6086319789,-46747.7877402818,157684.0305179082,-26127.5342587439,-1156.7343115592,-33582.86268441,16533.4037644703,-912.5849978597,19069.0907200602,-54154.5806991432,-7.1287009047,54588.0683719685,3441.5170689172,7389.4901524104,15097.9016598123,29174.7369389428,15835.4639165793,-8097.9106490036,-23575.5639478207,174600.0532121704,-33811.7546677527,-16540.4866159562,-24222.3912320743,20340.6344704616,-20482.2841055829,29181.6856043585,-40231.199881379,-1.098518768,-10642.1116185704,16832.5063501563,-27911.3559138431,-23960.7223799275,66.5835720388,-2051.4122206242,31639.1530002123,-5058.7309678504,-36981.2094109573,7766.7782557176,43101.0307521911,13057.8548525527,-13046.2271944652,23402.2030948859,6870.1805488667,49624.7490015546,-3.956361097,-13259.560779101,-6083.0085605387,-4967.3576739782,17107.6291595674,42282.1475375382,5687.3939511686,12337.309110451,-11367.7389681399,155896.6578515088,-32402.6350438264,30325.4050609108,-7591.7231066504,9973.893532553,7080.2320558391,38102.6119148038,-50416.553731803,3835.3995312041,-45946.0036284187,-13766.0186893702,-54738.4330130715,-23612.2770980278,-2055.0782025938,223.7633516621,60029.2374759426,-8309.2962011156,48656.7126221576,-4298.3737481955,-20123.6805905528,-4380.5947996019,-10627.5370236343,-25477.1290525916,922.0512693341,-41275.699120884,-6.5128494076,-43917.0204080473,-2483.2495558243,-70967.5868863015,-13536.1774529827,40910.5285252632,16745.7421287054,32518.932509656,30027.3279357928,118654.0815280404,-18728.6326833054,10108.2824258174,1329.0371141511,32785.2005855471,7228.687852445,31403.2334604714,-31484.5722410275,854.0652261609,-17221.595844601,7767.9199073061,16193.0887178391,14431.252046295,28557.5391626099,27892.9258487238,-1340.4994368594,-9828.1422768672,155643.598060902,-16544.6112941332,-15250.5523554955,-18015.097855731,37219.1781107767,-17643.9756074944,37678.1604794595,-33729.514795616,2.0059848345,-42031.0501400351,-5349.6339500676,-13003.845537871,9854.4806977707,-1558.6359045366,-10157.7501670501,27159.9475849269,-27083.6868558625,94422.0863785559,-14959.1006021794,-6914.8597391931,-24621.6679740191,-8229.2104492662,3567.1016256108,-7345.0469122538,-30560.416457933,-4.8009690981,-20381.1565188245,-12049.8564537569,-40386.3233632193,-24817.4936484929,-9218.6204646135,-10512.6458642323,33741.4431613413,22212.8858144219,-21342.6434778543,-21470.0329241629,-34561.6466847462,7037.122647754,-10553.6865037601,-12939.5774329009,-4041.0414508977,-35396.3773524287,-1.1752500437,-18989.5204661876,18192.658217402,-31278.4041265153,-5092.3667998999,-7476.4996735077,7158.3673941688,15583.6900622746,61534.2164378272,-137933.3916264867,51024.54458224,-24569.2733458265,79578.2592853214,32725.1882363027,58583.9120424223,25557.3129132703,79179.1380355714,-3.9271749136,44930.3509600215,-5144.6992731254,-30600.345179931,-22333.0559836906,32314.6001028094,17641.637921007,41745.0179000052,4954.2420379944,24064.4350744072,-41733.5658762362,-50485.7917079749,5919.2868987836,32164.8702077171,-34525.7979206671,33368.3159031537,-40459.9424314477,10.6713812258,-42059.3171234018,28057.9736286981,-5078.4481222612,-9127.195749335,16420.5637448752,-83.9325074573,-20411.9806529936,-7715.5753470953,110936.542561087,-4351.435333512,28698.727815842,-12743.368457347,-21904.1640968453,35356.886028021,12159.1140504938,-2662.0346040913,-2.4502897804,-41903.2421836343,13669.6979225046,-30311.561573085,13397.7957962028,60062.9119274164,4346.2941814594,-6507.6676599414,-9922.0247826777,159099.3841270764,-26850.1270270756,26060.632646718,2524.459283067,32521.1578256614,43618.6041846654,46829.3901051597,-72462.5336316645,-3.9260241393,-47073.747719973,638.0385382163,-45946.8805206078,-11580.1696867531,-5265.1934672249,-9938.4256744881,44225.5082157844,-848.0050775245,-19914.7847419945,-23321.7652814849,44587.5488535051,12908.935405194,-11137.9369711324,19499.5981748645,-5346.9706140495,-18783.9022176816,-908.9610215299,-27477.776193044,-7146.7934312451,-10621.4488000709,32787.1182008766,29525.2163286262,20529.1409489154,51472.4461736755,2530.2497607763,180370.3777309168,-11352.4051008878,-15581.0759625697,-14631.7081346908,33929.3465479794,24390.5495217613,31782.0415724805,-34017.9458277042,-1.2415657196,-10256.8288806723,3704.5602108382,-14902.9821304358,30619.2941148439,45673.2088577048,23765.4577441926,3114.8196971849,-40393.2388771595,213065.0695550992,-67213.7135205974,-25050.2932539629,-42044.4993304194,31975.928712951,15650.409459556,40155.1612714354,-93918.3291767989,56.9509615391,-10256.8288806723,3704.5602108382,-14902.9821304358,30619.2941148439,45673.2088577048,23765.4577441926,3114.8196971849,-40393.2388771595,213065.0695550992,-67213.7135205974,-25050.2932539629,-42044.4993304194,31975.928712951,15650.409459556,40155.1612714354,-93918.3291767989,56.9509615391,-10256.8288806723,3704.5602108382,-14902.9821304358,30619.2941148439,45673.2088577048,23765.4577441926,3114.8196971849,-40393.2388771595,213065.0695550992,-67213.7135205974,-25050.2932539629,-42044.4993304194,31975.928712951,15650.409459556,40155.1612714354,-93918.3291767989,56.9509615391,-10256.8288806723,3704.5602108382,-14902.9821304358,30619.2941148439,45673.2088577048,23765.4577441926,3114.8196971849,-40393.2388771595,213065.0695550992,-67213.7135205974,-25050.2932539629,-42044.4993304194,31975.928712951,15650.409459556,40155.1612714354,-93918.3291767989,56.9509615391,-10256.8288806723,3704.5602108382,-14902.9821304358,30619.2941148439,45673.2088577048,23765.4577441926,3114.8196971849,-40393.2388771595,213065.0695550992,-67213.7135205974,-25050.2932539629,-42044.4993304194,31975.928712951,15650.409459556,40155.1612714354,-93918.3291767989,56.9509615391,-10256.8288806723,3704.5602108382,-14902.9821304358,30619.2941148439,45673.2088577048,23765.4577441926,3114.8196971849,-40393.2388771595,213065.0695550992,-67213.7135205974,-25050.2932539629,-42044.4993304194,31975.928712951,15650.409459556,40155.1612714354,-93918.3291767989,56.9509615391,-10256.8288806723,3704.5602108382,-14902.9821304358,30619.2941148439,45673.2088577048,23765.4577441926,3114.8196971849,-40393.2388771595,213065.0695550992,-67213.7135205974,-25050.2932539629,-42044.4993304194,31975.928712951,15650.409459556,40155.1612714354,-93918.3291767989,56.9509615391,-10256.8288806723,3704.5602108382,-14902.9821304358,30619.2941148439,45673.2088577048,23765.4577441926,3114.8196971849,-40393.2388771595,213065.0695550992,-67213.7135205974,-25050.2932539629,-42044.4993304194,31975.928712951,15650.409459556,40155.1612714354,-93918.3291767989,56.9509615391,-10256.8288806723,3704.5602108382,-14902.9821304358,30619.2941148439,45673.2088577048,23765.4577441926,3114.8196971849,-40393.2388771595,213065.0695550992,-67213.7135205974,-25050.2932539629,-42044.4993304194,31975.928712951,15650.409459556,40155.1612714354,-93918.3291767989,56.9509615391,-10256.8288806723,3704.5602108382,-14902.9821304358,30619.2941148439,45673.2088577048,23765.4577441926,3114.8196971849,-40393.2388771595,213065.0695550992,-67213.7135205974,-25050.2932539629,-42044.4993304194,31975.928712951,15650.409459556,40155.1612714354,-93918.3291767989,56.9509615391,-10256.8288806723,3704.5602108382,-14902.9821304358,30619.2941148439,45673.2088577048,23765.4577441926,3114.8196971849,-40393.2388771595,213065.0695550992,-67213.7135205974,-25050.2932539629,-42044.4993304194,31975.928712951,15650.409459556,40155.1612714354,-93918.3291767989,56.9509615391,-10256.8288806723,3704.5602108382,-14902.9821304358,30619.2941148439,45673.2088577048,23765.4577441926,3114.8196971849,-40393.2388771595,213065.0695550992,-67213.7135205974,-25050.2932539629,-42044.4993304194,31975.928712951,15650.409459556,40155.1612714354,-93918.3291767989,56.9509615391,-10256.8288806723,3704.5602108382,-14902.9821304358,30619.2941148439,45673.2088577048,23765.4577441926,3114.8196971849,-40393.2388771595,213065.0695550992,-67213.7135205974,-25050.2932539629,-42044.4993304194,31975.928712951,15650.409459556,40155.1612714354,-93918.3291767989,56.9509615391,-10256.8288806723,3704.5602108382,-14902.9821304358,30619.2941148439,45673.2088577048,23765.4577441926,3114.8196971849,-40393.2388771595,213065.0695550992,-67213.7135205974,-25050.2932539629,-42044.4993304194,31975.928712951,15650.409459556,40155.1612714354,-93918.3291767989,56.9509615391,-10256.8288806723,3704.5602108382,-14902.9821304358,30619.2941148439,45673.2088577048,23765.4577441926,3114.8196971849,-40393.2388771595,213065.0695550992,-67213.7135205974,-25050.2932539629,-42044.4993304194,31975.928712951,15650.409459556,40155.1612714354,-93918.3291767989,56.9509615391,17936.7562458498,-22002.9401202514,-3284.1424940535,-52417.6911119236,3691.2768303708,50624.4603641347,-25106.7647370809,-67088.2436370534,104974.4093393381,-16649.8411156659,-15659.4721114079,-17547.6621423764,39210.5125031708,-1231.338892659,-12079.1791295997,-28203.3341755464,7.547802965,-133885.0041127684,124654.9127520913,-177058.4955053258,-119011.6251968569,-93847.290035163,-26766.9181814295,76790.5331829295,-7030.2391538185,2817.3653369212,-64964.3301021989,284.7371502021,12670.180206514,64483.6000032963,47046.4359713038,1048.1227214045,16973.0464911982,-2.5533121878,-48677.4040724963,39815.460556195,-81218.6342821614,-98555.9281068973,-34287.5369930687,45663.1378931032,-22582.3964236834,-101420.9888168768,102170.1220380004,-39358.8067916335,-21285.4171491328,-19677.9818111247,63671.238985914,17807.9178037648,-9125.8362267522,-28463.8625472766,10.3185216718,-183368.0529152049,174409.9895027639,-210301.3742702768,-110900.2555470517,-95833.2651810432,-26803.778403616,29353.4868864843,-15916.5292241611,728.9005345232,-22957.0500061186,-9462.1556310729,26632.0731779022,56815.967003307,47531.4383956492,934.7577051492,15680.8021401655,-5.513432928,-84522.9871339381,48874.4385595264,-65601.6704882093,-36371.2273530284,-50947.3447615946,28147.9703935117,28360.2446457614,-59032.3660308166,39258.0835866488,-45717.3403207609,-15313.7706262405,1133.299878304,64149.4258908108,61370.3059266281,334.4132764423,-958.9708086837,1.8530219794,-80487.233910349,42851.3438621555,-87833.3878453975,-56360.5485974241,-47194.3833680895,18921.3871584014,41090.5306648582,-59038.5602636661,28276.3797117831,-54254.0241564548,-2359.0448825567,6224.952998955,72166.2602877898,48727.3433281536,3213.6952098932,-1992.2167684179,1.5662092275,55200.5592626409,-35025.6953546397,81183.481845038,108553.5426037549,-2966.1947875219,-53188.7576728864,34985.5181050246,102294.2805134452,-105779.5465129183,17300.9380411087,15195.179526531,47963.9036672266,-55386.8284542762,-20063.4613775947,-871.0281441747,16388.4381499055,-0.000542689,-32735.6879988608,44545.060836298,14321.8284996737,-7074.6515106553,-43113.8526917496,-43826.9304249513,10925.6988225056,71041.3191409951,-81743.9632884882,4457.6822721468,15680.7999881651,61551.8354799095,-3133.1230498562,28182.3418010583,5012.9967410354,21647.1546826412,0.3074452965,78295.587734566,-104032.851692222,93087.2359635302,171551.9834330107,73547.4504609315,-31330.0341256963,24049.2844699111,-25114.0066018043,-45418.5605738746,-26681.9704184347,-39948.881376872,-20027.8602743842,-32010.1967483059,-28726.8437039223,-4546.8282338797,-39233.3698254594,0.2184915974,-111674.5087067294,98452.0865298832,-176085.8144487721,-117200.8222860134,-85796.7655632388,-9406.346154281,38843.4412072584,-2291.1319421347,-5503.1829154335,-52258.3398146538,2625.2344904037,38356.9885399103,51942.03357975,47021.9359729947,70.2313457898,16129.1242075964,63.6682589802,-54584.1726926363,72014.876701638,-65247.5926357598,-71239.2030176429,-63615.9482636218,31247.3370029153,21029.7661430454,-53105.5655706,37292.7385020671,-47658.0785198331,-18437.9852867258,-3510.936002917,60724.3405676066,35327.1375783059,-4318.3332436801,-5286.0382528004,-0.1883199189,-63621.9819741298,72105.4391489634,-65990.2538067249,-87459.3618515041,-95621.4186086244,-34330.7017978481,7004.2275813908,69868.854975901,-38538.8950766571,-12524.4694081536,28223.5919429265,89365.4542372957,22987.1701520949,31388.9350328356,901.913522043,41401.4836025496,-3.9513329383,-82839.6545984868,70692.6857303791,-101211.3929864189,-91361.8617459659,-64459.3957308296,2126.6217010086,38377.969643442,-46213.5169602919,35681.0875606311,-51889.1347320347,-7065.6421730226,13013.3936811784,72926.8436393603,47679.3389825086,1879.5534796223,565.6319260435,0.2003250482,-38906.1168456381,16056.1212776738,-15171.3703294115,51496.8469162668,-27956.9347842991,-52316.4636087076,34720.8008134728,57036.798159825,-102989.720472363,-12859.1436658295,10516.9664836745,49095.3188980061,-24020.605479484,12039.5291846784,2038.9640781126,11659.7058983959,-5.3504450029,-94169.4683488416,68471.8183737668,-85512.7814279906,-54848.5948080161,-73501.4905008901,-10102.5488716395,54946.6199177233,-40542.4395518106,-233.1255766802,-53044.5490143447,-9153.6216591314,18891.0844593585,71892.7213547984,66278.8734288153,11956.8109231675,5233.1427424333,35.251262482,-180736.7001803332,151935.4137921532,-220013.0807430454,-193064.5259833833,-107434.5709436454,-58860.490558594,73856.8984729677,12170.6916445512,-28011.6583605963,-69652.8045213659,-11580.7181326776,36941.5528853102,48860.7515254798,62384.4512659445,-1323.2184576046,24540.5575460109,-10.4034506603
biasActivation=0,1,1,1,1
[BASIC:ACTIVATION]
"org.encog.engine.network.activation.ActivationSigmoid"
"org.encog.engine.network.activation.ActivationSigmoid"
"org.encog.engine.network.activation.ActivationSigmoid"
"org.encog.engine.network.activation.ActivationSigmoid"
"org.encog.engine.network.activation.ActivationLinear"
